{
  "bias": {
    "continuation": 0.19629228419497624,
    "duplicate": -0.054361716659385564,
    "new_intent": 0.8580694324618138
  },
  "config": {
    "hash_size": 2048,
    "heuristic_weight": 0.35,
    "ngram_max": 4,
    "ngram_min": 1,
    "ridge_lambda": 0.05
  },
  "extra_features": [
    "previous_length",
    "current_length",
    "length_ratio",
    "raw_similarity",
    "normalized_similarity",
    "current_contains_previous",
    "previous_contains_current",
    "time_close",
    "time_medium",
    "tomoko_speaking",
    "speech_queue_active",
    "current_is_final",
    "continuation_cue",
    "new_intent_cue",
    "correction_cue",
    "previous_vague",
    "topic_overlap"
  ],
  "labels": [
    "duplicate",
    "continuation",
    "new_intent"
  ],
  "metadata": {
    "label_counts": {
      "continuation": 80,
      "duplicate": 96,
      "new_intent": 144
    },
    "labels_path": "make-model/data/public-synthetic/append-dedupe-labels.jsonl",
    "shadow_only": true,
    "source": "public_synthetic_append_dedupe",
    "train_count": 320,
    "train_metrics": {
      "accuracy": 1.0,
      "confusion.continuation.continuation": 80.0,
      "confusion.continuation.duplicate": 0.0,
      "confusion.continuation.new_intent": 0.0,
      "confusion.duplicate.continuation": 0.0,
      "confusion.duplicate.duplicate": 96.0,
      "confusion.duplicate.new_intent": 0.0,
      "confusion.new_intent.continuation": 0.0,
      "confusion.new_intent.duplicate": 0.0,
      "confusion.new_intent.new_intent": 144.0,
      "count": 320.0,
      "label_accuracy.continuation": 1.0,
      "label_accuracy.duplicate": 1.0,
      "label_accuracy.new_intent": 1.0,
      "label_count.continuation": 80.0,
      "label_count.duplicate": 96.0,
      "label_count.new_intent": 144.0
    }
  },
  "model_type": "hash_ridge_append_dedupe",
  "weights": {
    "continuation": [
      0.0,
      0.0,
      0.0,
      0.0,
      0.0,
      -0.040648106794558644,
      0.0014025513132659472,
      0.005696604745985361,
      0.006267824298199949,
      0.0,
      0.0,
      0.0,
      0.0,
      0.007992258489511397,
      0.0022956537436072317,
      0.0,
      -0.0014025513131926597,
      0.0031887561739001448,
      0.0052480865300751555,
      0.004837831726663364,
      -0.05598871321956303,
      0.0,
      0.0,
      0.0,
      0.0,
      0.0,
      0.0,
      0.0,
      -0.05598871321956396,
      0.004135213647372099,
      0.005248086530068724,
      0.0,
      0.003996129244769704,
      0.0,
      0.09435326927384718,
      0.0,
      0.0,
      0.0,
      0.015022068750604514,
      0.0,
      -0.02412090357242633,
      0.0,
      -0.07370384190662042,
      0.06966279224579291,
      0.0,
      -0.025789664420678593,
      0.002295653743566974,
      0.0,
      -0.043650499657709396,
      0.0,
      0.0,
      0.0,
      0.03979466431578535,
      -0.004208576334689678,
      0.024632224927578668,
      0.0,
      0.0,
      0.0,
      -0.004837831726645832,
      0.0,
      0.0008931024303592066,
      0.0,
      0.0,
      0.043650499657706975,
      0.017387068292327543,
      0.041118897720364804,
      -0.03682656333100685,
      0.006970442377531555,
      0.0559887132195627,
      0.0,
      0.0,
      0.002708614817043783,
      0.0,
      0.0,
      0.0,
      0.0,
      -0.038880384800832654,
      0.0,
      0.1063719256563857,
      -0.04437943942654102,
      0.0,
      0.0,
      0.0,
      0.0,
      -0.019067018708643226,
      0.0,
      0.0,
      0.0022956537435673344,
      0.0022956537435666374,
      -0.023494010677100795,
      0.0,
      0.0,
      0.0,
      0.0022956537435664553,
      0.0,
      0.0,
      0.02578966442067322,
      0.0,
      0.013240345019608454,
      -0.015022068750615427,
      -0.017553750148257163,
      0.0,
      -0.08730099931538525,
      0.0,
      0.0,
      0.0,
      0.0,
      0.0,
      0.0,
      0.0,
      0.025799162776078563,
      0.0,
      0.0,
      -0.004870782729090984,
      0.0514103338829412,
      0.0,
      0.027045865678381537,
      0.0022956537435648646,
      0.007992258489542669,
      0.0,
      0.0,
      0.0,
      0.0,
      -0.049111156209873275,
      -0.027994356609780585,
      -0.047932535128715544,
      0.060826544946202904,
      0.1028206677658851,
      0.0,
      0.0,
      0.06692543391661263,
      0.0,
      0.0,
      0.058158949255226904,
      0.0,
      0.0,
      0.0,
      0.0,
      0.03558608798105673,
      0.0,
      0.0,
      0.0514103338829415,
      -0.07934757094235853,
      0.0,
      0.0,
      0.0,
      0.0,
      0.0,
      0.0,
      0.0,
      -0.019053607188857635,
      -0.0416643950576476,
      -0.005248086530071657,
      0.09404402920940219,
      0.0,
      0.04555778522976078,
      0.0,
      0.0,
      0.0,
      0.0,
      0.0022956537435656695,
      0.0,
      -0.04452261819612214,
      -0.007992258489541154,
      0.0,
      0.0,
      -0.055988713219562,
      0.0,
      0.0007026180792702833,
      0.0,
      0.0,
      -0.02309054795903278,
      0.0,
      0.0,
      0.0,
      0.0,
      0.02578966442067307,
      0.0,
      0.0,
      0.0,
      0.0,
      0.0,
      0.0,
      0.0,
      0.0,
      0.0,
      0.0,
      0.0,
      -0.016353742554951412,
      0.0,
      0.0,
      0.004837831726647481,
      0.0559887132195614,
      0.0,
      0.0,
      -0.05687903152716584,
      0.0,
      0.0,
      0.0,
      0.0,
      0.025789664420673104,
      0.0,
      0.0,
      0.0,
      -0.002295653743566128,
      0.0,
      0.0,
      0.0,
      0.0,
      0.07135531245281827,
      -0.004837831726647452,
      0.0,
      0.0,
      0.0,
      0.0,
      0.0,
      0.0,
      0.0,
      0.0,
      -0.02182524982884951,
      0.0,
      0.0,
      0.0,
      0.055988713219562336,
      -0.0230905479590318,
      0.0,
      0.0,
      0.05598871321956173,
      0.005248086530071571,
      -0.05598871321956211,
      0.0,
      0.07179655633456304,
      0.0,
      0.0,
      0.0,
      0.007992258489540962,
      0.002295653743566098,
      0.002295653743566026,
      -0.00241891586332374,
      0.05598871321956193,
      0.0,
      0.0,
      0.019635773840759846,
      0.0,
      -0.0024189158633237708,
      -0.0011478268717830867,
      -0.04365049965769721,
      0.0,
      0.0725604497396094,
      0.0,
      0.0,
      0.0,
      0.0,
      0.0,
      -0.08407841763270842,
      0.0,
      0.0,
      0.0,
      0.011415773538633163,
      0.002295653743566301,
      -0.020324053397285033,
      0.0,
      0.0,
      0.0,
      0.007992258489541085,
      0.08407841763270132,
      0.0,
      0.0,
      0.038364556054308496,
      0.0,
      0.0,
      -0.00799225848954127,
      0.038364556054309364,
      0.0,
      0.0,
      0.0,
      0.0,
      0.0,
      -0.006267824298195678,
      0.0,
      0.0,
      0.004837831726647494,
      0.0,
      0.0,
      0.0,
      0.0,
      0.0,
      0.0,
      0.0,
      0.0,
      0.06944455032725488,
      0.0,
      0.0,
      0.0,
      -0.004837831726647442,
      0.0,
      0.02578966442067295,
      0.055988713219561684,
      0.0024189158633237196,
      0.0,
      0.0,
      0.0,
      0.0,
      0.0,
      0.0,
      0.0,
      0.0,
      0.0,
      0.0,
      0.0,
      0.0,
      0.0,
      0.0,
      0.0,
      0.0705494151437364,
      -0.023090547959031364,
      -0.043650499657698724,
      0.0,
      0.0,
      0.0,
      0.0008931024303373204,
      0.0,
      -0.020726301625397417,
      0.0,
      -0.035586087981055475,
      0.0,
      -0.0022956537435663707,
      0.0,
      0.0,
      0.006267824298196818,
      0.0,
      0.02485175985708035,
      0.0,
      -0.014335301925306647,
      0.02578966442067279,
      0.0,
      0.0,
      -0.06360044277262225,
      0.0,
      0.0,
      0.0,
      0.0,
      0.0,
      0.03689429450531309,
      0.0,
      0.0,
      -0.02578966442067284,
      0.0,
      -0.025789664420672848,
      -0.0024189158633237356,
      0.0,
      0.0,
      0.0,
      0.0,
      0.0,
      0.05598871321956201,
      -0.06470698423132444,
      0.0,
      0.007992258489541292,
      0.0,
      0.0,
      0.0,
      0.03188366589955129,
      0.0,
      -0.004837831726647425,
      0.0,
      0.06127465682296003,
      -0.019067018708645547,
      0.0,
      0.0,
      -0.0022956537435664948,
      0.0,
      0.051853361168608406,
      0.007992258489541252,
      -0.0915273660107126,
      0.0,
      0.0,
      0.05315433298205678,
      0.0,
      0.04248759354402598,
      0.0,
      0.03977348723127583,
      0.0,
      -0.055988713219561975,
      -0.025799162776076478,
      0.0,
      0.0,
      0.0,
      0.08823689721394772,
      0.022387929879762358,
      0.10650872326664161,
      0.023090547959031746,
      0.0,
      0.0,
      0.0,
      -0.05598871321956195,
      0.010592306528606075,
      0.0,
      0.0,
      0.054636823197985844,
      0.0,
      0.0,
      0.0,
      0.0,
      0.012894832210336356,
      0.0,
      0.07370384190662961,
      0.0,
      0.0,
      0.0,
      0.0,
      -0.023090547959032086,
      0.0,
      0.030044137501233387,
      0.040427917974987036,
      -0.05598871321956129,
      0.0,
      0.0,
      0.0,
      0.009497470198665934,
      -0.005063362795274061,
      -0.035586087981055586,
      0.0,
      0.0,
      -0.05598871321956131,
      0.0,
      0.0,
      0.0,
      -0.029754584972495356,
      0.0,
      0.0,
      0.0,
      0.01906701870864531,
      0.04365049965769709,
      0.0,
      -0.07370384190662967,
      -0.025789664420672917,
      0.0,
      0.0,
      0.002295653743566335,
      -0.02218971971327137,
      0.0,
      0.01755375014825723,
      0.0,
      0.0,
      -0.08407841763270829,
      0.07791241824133492,
      0.04365049965769691,
      0.0,
      0.0,
      0.0,
      0.0,
      0.0,
      0.04911115620987163,
      -0.008793117940510464,
      0.0,
      0.0,
      0.0,
      0.022387929879761317,
      0.0,
      0.030888126311295935,
      0.0,
      0.0,
      0.10513723536303081,
      -0.07934757094236236,
      0.0,
      0.0,
      -0.03188366589955172,
      -0.04916829703389596,
      0.0,
      0.07370384190662911,
      0.0,
      0.004837831726647475,
      0.0,
      -0.014335301925298286,
      0.0,
      -0.019067018708645123,
      -0.007992258489541685,
      0.002295653743566348,
      0.017553750148257042,
      -0.007992258489541616,
      -0.03836455605430987,
      -0.010135985655722676,
      0.031883665899551494,
      0.0007026180792696895,
      0.0,
      -0.002295653743565992,
      0.0022956537435665056,
      -0.0007026180792699104,
      0.0,
      -0.02309054795903137,
      0.0,
      0.0,
      0.0007026180792697818,
      0.0,
      0.040427917974981104,
      0.0,
      0.0,
      -0.01502206875061624,
      -0.04635681454385626,
      0.0,
      0.0,
      0.0,
      0.0,
      0.019067018708644707,
      -0.027045865678377367,
      0.0007026180792696322,
      -0.04365049965769743,
      0.0,
      0.0,
      0.0,
      -0.027045865678381187,
      0.01976963678792098,
      0.0,
      -0.00114782687178314,
      0.0,
      -0.035586087981055704,
      0.0,
      -0.049861166154802586,
      0.0,
      -0.08114387321081988,
      -0.006267824298196728,
      0.0,
      0.0,
      -0.000893102430337375,
      0.050517231452548966,
      -0.08407841763270861,
      -0.030044137501233126,
      0.03606890231073875,
      0.0,
      0.0,
      0.0,
      -0.00044655121516868045,
      0.012894832210336602,
      0.0,
      -0.038364556054309475,
      -0.05629211335372161,
      -0.04135484591413444,
      0.0,
      0.04365049965769693,
      -0.007992258489541505,
      -0.04365049965769719,
      0.0,
      0.0,
      0.0,
      -0.04818709265585398,
      0.07555664640024629,
      0.0,
      0.0,
      0.0,
      0.0,
      -0.0024189158633236884,
      0.0,
      0.026825689278251918,
      0.0,
      0.0,
      0.019067018708645224,
      0.0,
      0.018142955154622133,
      0.0,
      0.02858936907977582,
      0.0,
      0.00420857633472114,
      0.0,
      0.0,
      -0.004837831726647346,
      0.0,
      -0.021362672452211434,
      -0.007992258489541396,
      -0.05598871321956183,
      0.0,
      0.00799225848954125,
      0.0,
      0.0,
      0.0,
      0.0,
      0.001429992571602643,
      0.0,
      0.0022956537435662987,
      0.0,
      0.030044137501232842,
      -0.07775103970253627,
      0.0039447292962567805,
      0.0,
      0.007992258489541354,
      0.0,
      0.0,
      0.0,
      0.0,
      0.0,
      0.0,
      0.0,
      0.0,
      0.0,
      0.0,
      0.0,
      -0.03004413750123285,
      -0.005248086530071671,
      0.0,
      0.0,
      0.0,
      0.0022956537435663287,
      0.0,
      0.022664127791490185,
      0.0,
      0.0022956537435664067,
      0.0,
      0.0,
      0.0,
      0.0007026180792701382,
      0.042723571718578365,
      0.0,
      0.0,
      0.0,
      0.0,
      0.0,
      0.0,
      0.0,
      -0.06360044277262183,
      -0.09133716223708738,
      0.0,
      0.0,
      0.07934757094236372,
      -0.009936510107529824,
      0.0,
      0.0,
      0.0,
      0.0,
      0.004837831726647026,
      0.0,
      -0.004837831726647121,
      0.0,
      0.0,
      0.0,
      0.0017862048606697542,
      0.025789664420673,
      -0.004837831726647273,
      0.07934757094236045,
      -0.01906701870864537,
      0.0,
      0.0,
      0.0,
      0.02182524982884852,
      0.0,
      0.0,
      0.0,
      0.004947890095500518,
      -0.024721401110911055,
      -0.02704586567838118,
      -0.03836455605430803,
      -0.012565393278222429,
      0.0,
      0.030888126311295727,
      0.07934757094236586,
      0.0,
      0.0,
      0.0,
      0.055988713219561545,
      0.0,
      0.0,
      0.044379439426541566,
      0.0,
      0.0,
      0.0,
      0.0,
      -0.05598871321956153,
      0.023090547959031243,
      0.0,
      0.03188366589955162,
      -0.02578966442067302,
      0.0,
      0.0,
      0.0,
      0.0,
      -0.04066020979787534,
      0.0,
      0.0,
      0.06571158341708597,
      0.0,
      -0.07370384190663032,
      -0.0035512578905048356,
      0.0,
      -0.00044655121516869395,
      0.004837831726647311,
      0.0,
      -0.0022956537435662797,
      0.02578966442067303,
      0.0,
      0.0,
      0.019067018708645467,
      -0.027410693000827997,
      0.025386201702600374,
      0.0,
      0.0,
      -0.040427917974980236,
      0.0,
      0.031336551646746424,
      0.0,
      0.0,
      0.026492282499953987,
      0.05598871321956176,
      0.0,
      0.017553750148257132,
      0.0,
      -0.03888038480083263,
      0.0,
      0.0,
      -0.04365049965769714,
      0.0,
      0.0,
      0.081301133937459,
      0.0388803848008326,
      0.0,
      -0.007992258489541578,
      0.025087046341393825,
      0.007608604942239208,
      0.002418915863323776,
      0.0,
      -0.004837831726647492,
      0.0,
      0.025789664420672976,
      0.0,
      -0.02578966442067308,
      0.0,
      0.0,
      0.0,
      -0.03004413750123316,
      0.007992258489541592,
      0.07370384190663,
      -0.16238620565719883,
      -0.024632224927591283,
      0.0,
      0.0,
      0.004837831726647458,
      0.0,
      0.0,
      0.0004465512151686953,
      0.0,
      0.004578379336617164,
      0.0,
      0.0,
      0.0,
      0.01503330712763393,
      0.0,
      0.0,
      0.0,
      0.0,
      -0.003133912149098289,
      0.0,
      -0.0022956537435662814,
      0.0008931024303373917,
      0.0,
      0.0,
      -0.017950080051283998,
      0.025789664420673177,
      -0.03088812631129575,
      -0.068924522302066,
      0.007992258489541654,
      0.0,
      0.0,
      0.05940259237248326,
      0.0,
      0.0,
      -0.02578966442067312,
      0.0,
      -0.002295653743566299,
      0.0,
      -0.00799225848954156,
      0.0,
      0.0,
      0.0,
      -0.002295653743566292,
      0.0,
      0.0,
      0.007992258489541626,
      -0.008438809704655657,
      0.0,
      0.0,
      0.0,
      -0.07370384190662958,
      0.0,
      0.0,
      0.0,
      -0.002295653743566288,
      0.0,
      0.0,
      0.0,
      0.0,
      -0.02762522163791249,
      0.0,
      0.0,
      0.0,
      0.0007026180792699386,
      -0.07370384190662924,
      0.05598871321956141,
      0.002295653743566306,
      0.0,
      0.002295653743566297,
      0.0,
      0.002418915863323682,
      0.0,
      -0.049111156209872324,
      -0.05123660463589453,
      0.0,
      -0.04437943942654168,
      0.0,
      0.0,
      0.07934757094236371,
      0.0,
      0.015240537912299658,
      0.0,
      0.0,
      -0.05141033388294008,
      -0.05140680995343986,
      -0.0383645560543094,
      0.0,
      0.08407841763270793,
      -0.007992258489541645,
      -0.05598871321956174,
      0.0,
      0.04281571559535072,
      0.0,
      -0.010135985655722744,
      -0.02309054795903133,
      0.0,
      0.03558608798105568,
      0.005486241593899125,
      0.0,
      -0.07370384190662992,
      0.038364556054309454,
      -0.053096160263021414,
      0.0,
      0.0,
      -0.03836455605430933,
      0.0,
      0.0,
      0.07370384190662953,
      0.0,
      0.025789664420672993,
      0.0,
      0.0,
      0.002295653743566302,
      0.07370384190663015,
      0.0,
      0.0,
      0.0,
      0.0,
      0.0,
      0.04457698954678487,
      -0.004208576334721289,
      0.02935493094174629,
      0.019067018708645397,
      0.004837831726647321,
      0.0,
      0.0,
      0.0,
      0.006267824298196556,
      0.0,
      0.0008931024303373744,
      -0.12969255512618763,
      0.08452496884799097,
      0.0559887132195619,
      0.007289640410261963,
      0.0,
      0.0,
      0.055988713219562,
      0.0,
      0.0,
      0.0,
      -0.002295653743566302,
      -0.011132030090244,
      0.0,
      -0.025789664420672966,
      0.0,
      0.0,
      0.0,
      0.0,
      0.0,
      0.0,
      0.0,
      0.0594025923724832,
      0.0,
      0.0,
      0.04791417748595033,
      0.0,
      0.0,
      0.0,
      0.0,
      0.0,
      0.055988713219561795,
      -0.03836455605430929,
      -0.09949350632730633,
      0.0,
      0.05629211335372144,
      0.007992258489541715,
      -0.0008931024303373777,
      0.05598871321956161,
      0.0,
      0.0,
      0.0,
      -0.11737908069550101,
      0.0,
      0.0,
      0.023090547959031257,
      -0.036138315166387214,
      0.0,
      0.02578966442067307,
      -0.025789664420673097,
      0.0,
      0.0,
      0.0,
      0.0,
      0.030044137501233237,
      0.0,
      0.0,
      0.0,
      0.0,
      0.0,
      -0.004837831726647425,
      0.0,
      0.0,
      0.0,
      0.0022956537435663057,
      0.007992258489541677,
      0.0,
      0.0,
      -0.00140255131324604,
      -0.002295653743566303,
      0.0,
      -0.05598871321956184,
      -0.06376733179910282,
      0.05979518319119773,
      -0.0007026180792700894,
      0.025799162776076568,
      0.0,
      0.005696604745960953,
      0.0,
      0.038880384800832404,
      0.07652623792603523,
      0.0,
      0.0,
      0.015022068750616643,
      0.0,
      0.0,
      0.0,
      -0.04799645473002098,
      0.0,
      -0.0022956537435663105,
      0.0,
      0.0,
      0.0629967809818733,
      0.015022068750616688,
      0.0,
      0.0,
      0.0,
      0.0,
      0.0,
      0.0,
      0.0,
      0.0,
      0.0,
      0.0,
      -0.000446551215168683,
      0.0,
      0.0,
      0.0,
      -0.00799225848954169,
      0.017553750148257066,
      -0.024632224927591068,
      0.0,
      0.020600214078199633,
      0.0,
      0.018696692376734235,
      -0.056292113353721175,
      -0.005248086530071501,
      0.0,
      0.0,
      -0.007992258489541697,
      0.023090547959031246,
      0.04042791797498083,
      0.0,
      0.0,
      -0.030044137501233376,
      -0.002295653743566308,
      0.0,
      0.0,
      0.0,
      0.0,
      0.05168302052674162,
      0.0,
      0.0,
      0.0022956537435663074,
      0.0,
      0.0,
      0.0,
      -0.005696604745960938,
      0.03888038480083232,
      0.0257896644206731,
      0.002295653743566313,
      0.04365049965769715,
      0.0,
      0.04365049965769678,
      -0.03004413750123346,
      -0.00044655121516866934,
      0.0,
      0.005248086530071528,
      0.0,
      0.0,
      0.0,
      0.0,
      0.0,
      0.0,
      0.0048378317266473386,
      0.003996129244770825,
      0.05598871321956185,
      0.0,
      0.0,
      0.0,
      0.05598871321956186,
      -0.0365847310572552,
      0.07370384190662965,
      0.0,
      0.0,
      -0.019067018708645536,
      0.0,
      0.0,
      0.0,
      0.0,
      0.002295653743566281,
      0.0,
      0.004837831726647386,
      -0.007992258489541682,
      0.0,
      0.0,
      0.006267824298196597,
      -0.017553750148257052,
      0.0,
      0.0,
      -0.0022956537435662875,
      -0.019067018708645554,
      -0.07934757094236375,
      0.0,
      0.0,
      0.0,
      0.0,
      0.0,
      0.0,
      -0.0026991164616436423,
      -0.005285943603400281,
      0.004837831726647335,
      0.0,
      0.0,
      0.0,
      0.0,
      0.0,
      0.0,
      0.07370384190663028,
      0.0,
      0.0,
      -0.018067906249617696,
      0.0,
      0.014003655913343476,
      0.0,
      0.014335301925297842,
      0.0,
      0.10637192565638445,
      0.0,
      0.0,
      0.007992258489541628,
      0.027045865678381152,
      0.0,
      0.0,
      -0.05598871321956183,
      0.0,
      0.0,
      0.0,
      0.140067130852242,
      0.0,
      -0.007992258489541664,
      0.055988713219561836,
      0.0,
      0.0,
      0.0,
      0.0007026180792700391,
      -0.0048378317266473715,
      0.0,
      0.0,
      0.0,
      -0.004837831726647334,
      0.025789664420673063,
      0.0,
      0.0,
      0.0,
      -0.004837831726647376,
      0.0,
      0.004837831726647366,
      0.05598871321956202,
      0.0,
      -0.007992258489541606,
      0.0,
      0.0,
      0.0,
      0.0,
      -0.004837831726647338,
      0.007978846969753957,
      0.0,
      0.06571158341708556,
      -0.009533509354322766,
      -0.020245733794859392,
      0.0,
      0.0,
      0.0,
      0.0,
      0.0,
      0.0,
      0.0,
      0.03888038480083237,
      0.02799435660978091,
      0.0,
      -0.018364400629366902,
      0.0,
      0.0,
      0.0,
      0.0,
      0.0,
      0.0,
      0.012894832210336486,
      -0.07370384190663058,
      0.0,
      0.05598871321956199,
      0.0,
      -0.025789664420672972,
      0.0,
      0.0,
      0.00812963722713717,
      0.0,
      0.025789664420673014,
      0.0159025671624179,
      0.0,
      0.0,
      -0.0022956537435662944,
      0.0,
      0.0,
      0.0,
      0.0,
      0.0,
      0.0,
      0.0,
      0.0,
      0.0,
      0.0,
      0.0,
      -0.004837831726647352,
      0.0,
      0.0,
      0.0,
      -0.0802328789117473,
      0.0,
      0.0027375022757910347,
      0.0,
      -0.05598871321956193,
      0.0,
      0.04365049965769711,
      -0.0027086148170459953,
      -0.07370384190663049,
      0.0,
      -0.0008931024303373483,
      -0.002295653743566289,
      0.0,
      0.0,
      0.0,
      0.0,
      0.0,
      0.0,
      0.12772891729041638,
      0.0,
      0.0,
      0.011928519618610108,
      0.0,
      0.0,
      0.0,
      0.000702618079270198,
      0.0,
      0.004837831726647296,
      0.0,
      0.0,
      0.0,
      0.0,
      0.004837831726647313,
      0.055988713219561836,
      0.0,
      0.0,
      0.0,
      0.0,
      0.0,
      -0.0021407424459120635,
      0.0007026180792701621,
      -0.028146056676860792,
      -0.04365049965769719,
      0.0,
      0.0,
      0.03888038480083242,
      0.0,
      -0.004837831726647332,
      0.07937269527868226,
      0.0,
      -0.0024189158633236836,
      0.0,
      -0.019067018708645453,
      0.0,
      0.0,
      0.0,
      0.0,
      -0.0574315747629475,
      0.007992258489541607,
      0.002418915863323658,
      -0.05141033388294036,
      0.0,
      0.0,
      0.0,
      0.019067018708645484,
      0.0,
      0.0,
      0.0,
      -0.03888038480083248,
      0.000702618079270172,
      0.0,
      0.055505798023134933,
      0.0,
      -0.004837831726647329,
      0.0,
      0.0,
      0.0,
      -0.07934757094236343,
      -0.09714497687351822,
      0.0,
      0.0027422049587160495,
      -0.044379439426541656,
      0.0,
      0.0,
      0.0,
      0.0,
      0.05509561078915874,
      0.0,
      0.0,
      -0.01755375014825713,
      -0.03888038480083249,
      0.0,
      0.0,
      -0.055286095140278185,
      0.0,
      0.0,
      0.0,
      0.0882368972139484,
      -0.06171964737656042,
      0.0,
      0.0,
      0.14214760378202812,
      0.0,
      -0.05598871321956202,
      -0.019067018708645505,
      0.0,
      -0.01906701870864548,
      0.0,
      -0.0024189158633236957,
      0.0,
      0.004837831726647339,
      0.025789664420672993,
      0.0,
      0.0,
      0.0,
      0.0,
      0.0,
      0.0,
      0.0,
      -0.05115088149290385,
      0.0,
      0.0,
      0.0,
      0.0,
      0.0,
      0.004837831726647393,
      -0.04437943942654166,
      0.002295653743566287,
      0.0,
      0.0,
      0.07370384190663043,
      -0.023156524883126948,
      -0.0713553124528193,
      0.0,
      -0.01422918698199595,
      0.0,
      0.004797318300393302,
      -0.043650499657696976,
      0.0,
      0.0,
      0.0,
      0.0,
      0.0,
      -0.055988713219561885,
      0.0,
      0.0,
      0.0,
      0.004701065157693689,
      0.0,
      0.0,
      0.039245062352679404,
      -0.03836455605430922,
      0.0,
      0.012894832210336502,
      0.0,
      0.0,
      0.03836455605430917,
      0.0,
      0.0,
      0.025789664420673045,
      0.0,
      -0.07370384190663011,
      0.0,
      0.05598871321956199,
      0.0,
      0.0,
      0.0,
      0.0,
      0.0022956537435662775,
      0.0,
      0.002418915863323688,
      0.043650499657696885,
      0.0,
      0.0008931024303373586,
      0.01906701870864542,
      0.0,
      0.0,
      0.0,
      -0.04774054144061747,
      0.0,
      0.0,
      0.0,
      0.003996129244770762,
      0.0,
      0.0,
      0.0,
      0.0,
      0.0,
      0.0,
      0.0,
      0.0,
      0.0048378317266472536,
      0.05141033388294064,
      0.0,
      0.03888038480083239,
      0.0,
      0.0,
      0.0,
      0.0,
      -0.03836455605430916,
      0.0,
      0.0,
      0.0,
      -0.005285943603400419,
      0.0,
      0.0,
      0.0,
      0.01906701870864537,
      0.0,
      0.0,
      0.0,
      0.0,
      0.0,
      0.0,
      0.0,
      0.0,
      0.0,
      0.0,
      0.0,
      0.00483783172664729,
      0.07370384190663003,
      0.0,
      0.0,
      0.0,
      0.0,
      0.0,
      0.0,
      0.0,
      0.0,
      0.0,
      -0.0026429718017002236,
      0.0,
      0.030044137501233387,
      -0.055988713219561934,
      -0.024632224927590974,
      0.0,
      0.0,
      0.0,
      0.0,
      0.0,
      -0.025799162776076648,
      -0.019067018708645477,
      0.07370384190663062,
      0.0,
      -0.0022956537435662888,
      0.004837831726647264,
      0.0,
      0.0,
      -0.03836455605430926,
      0.0,
      0.0,
      0.0,
      0.0,
      0.0,
      0.0,
      0.005540449805915381,
      0.0,
      0.0,
      0.0,
      -0.07934757094236324,
      0.0,
      0.0,
      0.0,
      0.0,
      -0.060941468560227106,
      -0.028146056676860737,
      0.0,
      0.0,
      0.0,
      -0.023793166038314696,
      0.0,
      0.0,
      0.0,
      0.0,
      0.13533628416191068,
      -0.004837831726647344,
      -0.07370384190663039,
      0.0,
      0.0,
      -0.05141033388294041,
      0.0,
      0.0,
      0.0,
      -0.002418915863323638,
      0.0,
      0.0,
      0.0,
      0.0,
      -0.05598871321956182,
      0.0,
      0.0,
      -0.0014025513132460803,
      0.0024189158633236294,
      0.0,
      0.0,
      -0.0216949641995625,
      0.0,
      0.0,
      0.027045865678381093,
      0.0,
      -0.027994356609780894,
      0.0,
      0.0,
      -0.0008931024303373562,
      0.04818709265585398,
      -0.0022956537435662944,
      0.003551257890504746,
      -0.0024189158633236537,
      -0.06082654494620058,
      0.021262156294329784,
      0.0,
      0.0,
      0.00524808653007154,
      0.0,
      0.0,
      0.0,
      0.0,
      0.0,
      0.04485668312932793,
      0.0,
      0.0,
      0.0,
      0.0,
      0.0,
      0.0,
      0.0,
      0.0,
      0.0,
      0.004837831726647311,
      0.0,
      -0.030044137501233227,
      0.0,
      0.0,
      0.0,
      0.0,
      0.0,
      0.04365049965769703,
      0.0,
      -0.0022956537435663052,
      0.0,
      0.0,
      0.0,
      0.0,
      0.0,
      -0.03836455605430915,
      0.0,
      -0.01906701870864546,
      0.0,
      0.0,
      0.0,
      -0.04995514501992828,
      0.0,
      0.0,
      0.05211295196221757,
      -0.004837831726647279,
      0.0,
      -0.0024189158633236806,
      0.0,
      0.0,
      0.0,
      0.0,
      0.0,
      0.0,
      0.0022956537435662987,
      0.0,
      -0.004837831726647284,
      0.0,
      0.0022956537435662996,
      0.04042791797498096,
      -0.00420857633472118,
      0.0,
      0.030044137501233307,
      -0.10637192565638447,
      0.023213810078786416,
      0.0,
      0.0,
      0.0,
      0.051410333882940376,
      0.0,
      -0.004837831726647321,
      -0.05598871321956183,
      0.0,
      0.0,
      0.0,
      0.00799225848954152,
      -0.03004413750123332,
      0.0,
      -0.002418915863323611,
      0.0,
      0.0,
      -0.007992258489541534,
      0.0,
      0.05828436696311942,
      -0.04437943942654167,
      0.0,
      0.0,
      0.0,
      0.05598871321956192,
      -0.09949350632730596,
      0.0,
      0.0,
      0.0,
      -0.008218887672375672,
      -0.002418915863323625,
      0.0,
      0.025789664420673052,
      0.0,
      0.0,
      0.0,
      0.0,
      0.0,
      0.07256044973960829,
      0.0,
      0.0,
      0.0007026180792701295,
      0.0,
      -0.030044137501233317,
      0.0,
      0.0,
      0.0,
      0.0792494331589293,
      -0.15841399793064645,
      0.04437943942654162,
      -0.07934757094236332,
      -0.0022956537435663334,
      -0.0022956537435663356,
      0.06571158341708597,
      -0.007992258489541501,
      0.0,
      0.0,
      0.0,
      0.0,
      0.0011478268717831659,
      -0.007992258489541501,
      -0.021825249828848516,
      0.0,
      0.0,
      -0.0024189158633236394,
      0.027045865678381093,
      0.005285943603400449,
      0.023090547959031198,
      0.023090547959031236,
      0.0,
      0.0,
      0.0,
      0.0,
      0.032435659485454654,
      0.0,
      0.0,
      -0.007543740273637053,
      -0.05903418298816051,
      0.0,
      0.0,
      0.0,
      0.0,
      0.0,
      0.0,
      0.0,
      -0.07370384190663014,
      -0.012830090216184632,
      0.0,
      -0.0053747218680010875,
      -0.013090720380157508,
      0.0,
      0.0,
      0.0,
      0.0,
      0.0,
      0.0,
      -0.026825689278251786,
      0.0,
      0.0,
      0.0,
      -0.0052480865300715464,
      0.0,
      0.0,
      0.0,
      0.0,
      -0.016112788830465942,
      0.0,
      0.0,
      -0.0022956537435663304,
      0.0,
      0.0,
      0.0062678242981964866,
      -0.12772891729041633,
      0.0,
      -0.019067018708645474,
      0.04791417748595007,
      -0.042475396129459754,
      0.0,
      0.003996129244770763,
      -0.005285943603400423,
      0.0048378317266471954,
      -0.027045865678381156,
      0.0,
      0.0,
      0.0,
      0.0,
      -0.0008931024303373595,
      -0.0024189158633235908,
      -0.05141033388294037,
      0.0,
      0.04365049965769706,
      0.0,
      0.0,
      -0.08407841763270746,
      0.0,
      -0.027994356609780894,
      0.0,
      0.0,
      -0.0793475709423632,
      0.0,
      0.0,
      0.0,
      0.038880384800832654,
      0.002295653743566329,
      0.0,
      0.025789664420673063,
      0.10282066776588057,
      0.010734328123965308,
      -0.014335301925297883,
      -0.02814605667686082,
      0.0,
      0.007992258489541557,
      0.0209923461202861,
      0.0,
      0.0,
      -0.006970442377522169,
      0.0,
      -0.07934757094236326,
      -0.004837831726647179,
      0.0,
      -0.06360044277262174,
      0.04739103703728182,
      0.0,
      0.0,
      0.0,
      0.0,
      0.0,
      -0.04365049965769711,
      0.022387929879760533,
      0.05722305787708213,
      0.0,
      -0.08166834902225731,
      -0.014757129425196186,
      0.0,
      0.02029664980465077,
      0.0,
      0.0,
      0.0,
      0.0,
      0.0,
      0.037368245726055745,
      0.0,
      0.0,
      0.0,
      0.043650499657697024,
      0.0,
      0.0,
      -0.0022956537435663395,
      0.0,
      -0.002104288167360628,
      0.0,
      0.0,
      0.0,
      0.0,
      0.0,
      0.0022956537435663395,
      0.0,
      -0.04818709265585408,
      0.0,
      0.017553750148257104,
      0.0,
      -0.0007026180792700607,
      -0.004208576334721266,
      0.0,
      0.0,
      0.030044137501233307,
      -0.023090547959031288,
      0.0,
      -0.007591731371277189,
      0.03188366589955137,
      -0.059402592372482965,
      0.002418915863323588,
      0.0,
      0.0,
      0.0,
      0.0018491025284294413,
      0.0,
      -0.021762326482969767,
      -0.03029001035334403,
      0.055286095140278026,
      0.0,
      -0.002295653743566342,
      0.03188366589955136,
      -0.0024189158633236146,
      0.0,
      0.017797405931141985,
      0.0,
      -0.0335267243276674,
      0.0,
      0.07370384190663004,
      0.0,
      0.015444063155647888,
      0.0011478268717831732,
      0.0,
      0.0,
      -0.03836455605430917,
      -0.08229846019423545,
      -0.07370384190663014,
      0.0,
      0.0,
      0.0,
      0.06497051768285962,
      0.015744259590214367,
      -0.002295653743566348,
      0.0,
      0.0,
      0.0,
      0.00888536091987022,
      -0.007992258489541503,
      -0.05598871321956189,
      0.0,
      0.0,
      -0.03888038480083248,
      -0.028572247481364662,
      0.0,
      0.0007026180792701111,
      -0.03004413750123327,
      -0.08407841763270757,
      -0.06127465682295961,
      0.0,
      0.0,
      0.0,
      0.004837831726647181,
      0.0,
      -0.0022956537435663443,
      0.031191964373015635,
      0.0,
      0.0,
      0.0,
      0.023090547959031295,
      -0.0048378317266471425,
      0.0,
      0.010734328123965303,
      0.0,
      0.0,
      -0.012701993521211343,
      0.0,
      0.0,
      0.0,
      -0.0022956537435663425,
      0.0,
      0.0,
      0.0,
      0.0,
      0.0,
      0.0,
      0.0,
      0.023090547959031302,
      0.0,
      -0.025312420717877437,
      -0.030755667447364576,
      0.0750557319281908,
      0.0,
      0.0,
      0.06179382079409776,
      0.0,
      0.0,
      0.0,
      0.0,
      -0.01621181973805706,
      -0.0052480865300715525,
      0.0,
      0.0,
      0.0,
      0.0,
      0.0,
      0.007992258489541536,
      0.007992258489541559,
      0.0,
      0.0,
      -0.03676443378430141,
      0.0,
      0.0,
      0.0,
      -0.07934757094236315,
      0.0,
      -0.0008931024303373567,
      0.0,
      0.007099156059180752,
      0.0036499611520828595,
      0.0,
      0.0,
      0.0,
      -0.07370384190663,
      -0.007992258489541534,
      0.019067018708645432,
      0.002295653743566369,
      0.08407841763270757,
      0.0,
      -0.11287429527001021,
      0.011105656024862864,
      0.0,
      0.0,
      0.0,
      0.0,
      0.0,
      0.030044137501233255,
      0.0,
      0.0,
      0.012894832210336523,
      0.0,
      0.0,
      0.0,
      0.0,
      0.0,
      0.03888038480083247,
      0.0,
      0.0,
      -0.006267824298196454,
      -0.012894832210336512,
      0.0,
      0.0,
      -0.03565824116816542,
      0.0,
      0.0,
      0.04887865248529954,
      0.0,
      0.0,
      0.0,
      0.005285943603400351,
      0.06376733179910275,
      0.043650499657697024,
      0.0,
      0.0,
      0.0,
      0.0,
      0.0,
      0.04851778092644415,
      0.0,
      0.0,
      0.01906701870864541,
      0.0,
      -0.02309054795903138,
      0.0,
      0.0,
      0.0,
      0.005696604745960968,
      -0.0007026180792701206,
      0.0,
      0.0,
      0.0,
      0.0,
      0.0,
      0.004837831726647193,
      0.0,
      -0.03188366589955135,
      -0.0008931024303373635,
      0.0,
      -0.031883665899551356,
      0.0,
      0.0,
      -0.004837831726647098,
      0.0,
      0.010287912233109374,
      0.0,
      -0.005248086530071543,
      0.0,
      0.0,
      -0.0022956537435663378,
      -0.0491146801393666,
      0.0,
      0.0,
      0.002295653743566328,
      0.023090547959031368,
      0.0,
      -0.002295653743566328,
      0.0,
      -0.04175952623756648,
      0.0,
      0.05598871321956189,
      0.0,
      0.0026429718017002145,
      0.0,
      -0.0017862048606746754,
      0.0,
      0.004837831726647119,
      0.07370384190662996,
      0.0,
      0.0,
      0.03696992705378,
      0.0,
      0.0,
      0.0,
      0.0,
      0.0,
      0.0,
      -0.07370384190663008,
      0.0,
      0.006267824298196427,
      0.0007026180792701495,
      0.02561450354123596,
      0.0,
      0.0007026180792701631,
      0.0,
      0.0,
      0.0,
      0.024632224927590738,
      0.0,
      0.05598871321956191,
      0.03558608798105556,
      0.0,
      0.0,
      0.0,
      0.0,
      -0.0022956537435663174,
      -0.055988713219561906,
      -0.04365049965769705,
      0.0,
      -0.019067018708645404,
      0.07370384190663003,
      0.051882574756591505,
      0.0,
      0.00524808653007156,
      0.026935775804024044,
      0.030372297564775913,
      -0.004322002980120217,
      0.0,
      0.0,
      0.0011478268717831659,
      0.0,
      0.0,
      0.0,
      -0.03720711656120269,
      -0.055988713219561906,
      -0.0022956537435663265,
      0.0,
      0.0,
      0.0,
      0.0,
      0.0,
      0.0,
      0.0,
      -0.004208576334721284,
      0.004837831726647155,
      0.0,
      -0.07370384190663007,
      0.038364556054309364,
      0.027267538025221586,
      -0.0007026180792701259,
      0.0,
      -0.05343544551817702,
      0.008793117940510756,
      0.0,
      0.0,
      -0.04437943942654166,
      -0.034525054415694596,
      -0.05598871321956193,
      -0.0013396536453645514,
      -0.025799162776076544,
      0.03836455605430936,
      0.0,
      0.0,
      0.0,
      -0.031883665899551356,
      -0.08851156903593366,
      0.0,
      -0.0022956537435663204,
      0.0,
      0.0,
      0.0,
      0.031883665899551356,
      0.05141033388294042,
      0.0,
      0.0,
      0.0,
      0.0,
      0.0,
      0.02220803395174978,
      0.0,
      0.0,
      0.025789664420673042,
      0.0,
      0.0,
      0.0,
      -0.051410333882940404,
      0.0,
      0.0,
      0.0,
      0.0,
      0.026614721955663535,
      0.07636475926209782,
      -0.053054496179043585,
      -0.17503313030115117,
      -0.15066705467095912,
      0.01040586400895287,
      0.010405864008952707,
      -2.477314945035083e-13,
      -2.4765513221767176e-13,
      -1.7399629500813192e-16,
      -1.298172291197851e-16,
      -1.2761026256263522e-17,
      0.4946900214879256,
      -0.010692296465191544,
      0.02093674714057896,
      0.32517247867778115,
      0.045905160768485366
    ],
    "duplicate": [
      0.0,
      0.0,
      0.0,
      0.0,
      0.0,
      0.00982348152926693,
      0.006981256710099119,
      -0.011943589678839062,
      -0.001770841774833875,
      0.0,
      0.0,
      0.0,
      0.0,
      -0.004798888782157897,
      0.007144700896543536,
      0.0,
      -0.006981256710101846,
      0.007308145083084926,
      0.0020792237605184445,
      0.004083227811574607,
      0.0034373155597303665,
      0.0,
      0.0,
      0.0,
      0.0,
      0.0,
      0.0,
      0.0,
      0.003437315559733258,
      0.004008310327168242,
      0.0020792237605963297,
      0.0,
      -0.0023994443910922525,
      0.0,
      0.002304645524116188,
      0.0,
      0.0,
      0.0,
      0.0056962761446825595,
      0.0,
      -0.00388183003948433,
      0.0,
      0.002452869129278055,
      -0.00651199063299442,
      0.0,
      0.005163798004946957,
      0.007144700896574764,
      0.0,
      0.006525741714145097,
      0.0,
      0.0,
      0.0,
      0.005460068021027515,
      -0.002800517295268155,
      -0.0037049254885787733,
      0.0,
      0.0,
      0.0,
      -0.004083227811644077,
      0.0,
      0.0001634441864968877,
      0.0,
      0.0,
      -0.006525741714137643,
      -0.002616520854294326,
      0.014332274842458893,
      0.0023553913370993615,
      -0.0016959242904232943,
      -0.0034373155597301206,
      0.0,
      0.0,
      0.0011705434610111943,
      0.0,
      0.0,
      0.0,
      0.0,
      -0.004234649404533644,
      0.0,
      0.001133024568931883,
      -0.004403035500451478,
      0.0,
      0.0,
      0.0,
      0.0,
      0.001859166229124232,
      0.0,
      0.0,
      0.007144700896565491,
      0.007144700896565642,
      0.012308498901503338,
      0.0,
      0.0,
      0.0,
      0.007144700896566895,
      0.0,
      0.0,
      -0.00516379800492245,
      0.0,
      -0.002719665021586918,
      -0.005696276144703073,
      -0.003248767623643655,
      0.0,
      0.013051483428294425,
      0.0,
      0.0,
      0.0,
      0.0,
      0.0,
      0.0,
      0.0,
      0.0011719362326178381,
      0.0,
      0.0,
      -0.00631339218388389,
      -0.0008640666166492809,
      0.0,
      0.004172933908312665,
      0.007144700896564377,
      -0.004798888782186361,
      0.0,
      0.0,
      0.0,
      0.0,
      -0.009533386060270503,
      0.001718657779864068,
      -0.007049067394877885,
      0.0006459122519052884,
      -0.0017281332333010315,
      0.0,
      0.0,
      -0.0021831671546768874,
      0.0,
      0.0,
      -0.002046192216404677,
      0.0,
      0.0,
      0.0,
      0.0,
      0.0026595507257030984,
      0.0,
      0.0,
      -0.0008640666166499785,
      -0.00860116730760642,
      0.0,
      0.0,
      0.0,
      0.0,
      0.0,
      0.0,
      0.0,
      -0.008971822690478509,
      -0.0017278364745554639,
      -0.0020792237605840253,
      0.003221340273136876,
      0.0,
      -0.0028983141980746304,
      0.0,
      0.0,
      0.0,
      0.0,
      0.007144700896565819,
      0.0,
      0.004308041736076447,
      0.004798888782186745,
      0.0,
      0.0,
      0.0034373155597303244,
      0.0,
      7.491748452358635e-05,
      0.0,
      0.0,
      -1.392771566086565e-06,
      0.0,
      0.0,
      0.0,
      0.0,
      -0.005163798004922132,
      0.0,
      0.0,
      0.0,
      0.0,
      0.0,
      0.0,
      0.0,
      0.0,
      0.0,
      0.0,
      0.0,
      -0.004391609797284888,
      0.0,
      0.0,
      0.004083227811641971,
      -0.003437315559730377,
      0.0,
      0.0,
      -0.005227140461714904,
      0.0,
      0.0,
      0.0,
      0.0,
      -0.005163798004922065,
      0.0,
      0.0,
      0.0,
      -0.007144700896566241,
      0.0,
      0.0,
      0.0,
      0.0,
      0.013400056089800267,
      -0.004083227811641962,
      0.0,
      0.0,
      0.0,
      0.0,
      0.0,
      0.0,
      0.0,
      0.0,
      0.0032628708570729627,
      0.0,
      0.0,
      0.0,
      -0.003437315559730853,
      -1.3927715664418423e-06,
      0.0,
      0.0,
      -0.003437315559729946,
      0.0020792237605841164,
      0.0034373155597302173,
      0.0,
      -0.006080296645343496,
      0.0,
      0.0,
      0.0,
      -0.004798888782186214,
      0.007144700896566417,
      0.007144700896566191,
      -0.002041613905820994,
      -0.0034373155597303947,
      0.0,
      0.0,
      0.0023492808364876925,
      0.0,
      -0.0020416139058209376,
      -0.003572350448283237,
      0.006525741714144312,
      0.0,
      0.007273291348865084,
      0.0,
      0.0,
      0.0,
      0.0,
      0.0,
      -0.0027218270815361086,
      0.0,
      0.0,
      0.0,
      0.0027208718647542675,
      0.007144700896566314,
      0.00491174076466834,
      0.0,
      0.0,
      0.0,
      -0.004798888782186104,
      0.0027218270815380797,
      0.0,
      0.0,
      0.00574196108383183,
      0.0,
      0.0,
      0.004798888782185665,
      0.0057419610838279735,
      0.0,
      0.0,
      0.0,
      0.0,
      0.0,
      0.0017708417749257436,
      0.0,
      0.0,
      0.004083227811641925,
      0.0,
      0.0,
      0.0,
      0.0,
      0.0,
      0.0,
      0.0,
      0.0,
      -0.007511299969468804,
      0.0,
      0.0,
      0.0,
      -0.0040832278116418735,
      0.0,
      -0.005163798004922161,
      -0.0034373155597303656,
      0.0020416139058210083,
      0.0,
      0.0,
      0.0,
      0.0,
      0.0,
      0.0,
      0.0,
      0.0,
      0.0,
      0.0,
      0.0,
      0.0,
      0.0,
      0.0,
      0.0,
      0.006429247464566787,
      -1.3927715670480466e-06,
      0.00652574171414632,
      0.0,
      0.0,
      0.0,
      0.00016344418648939747,
      0.0,
      0.0002687809628333755,
      0.0,
      -0.0026595507257086456,
      0.0,
      -0.0071447008965663935,
      0.0,
      0.0,
      -0.0017708417749267554,
      0.0,
      -0.0011296536100022345,
      0.0,
      0.0069895167889719185,
      -0.005163798004921776,
      0.0,
      0.0,
      0.0013763226681613359,
      0.0,
      0.0,
      0.0,
      0.0,
      0.0,
      -0.005838152722392765,
      0.0,
      0.0,
      0.0051637980049218934,
      0.0,
      0.005163798004921741,
      -0.0020416139058209446,
      0.0,
      0.0,
      0.0,
      0.0,
      0.0,
      -0.003437315559730437,
      0.0031321270881914955,
      0.0,
      -0.004798888782186589,
      0.0,
      0.0,
      0.0,
      0.0024248947068111464,
      0.0,
      -0.00408322781164195,
      0.0,
      -0.015705018357731738,
      0.0018591662291248907,
      0.0,
      0.0,
      -0.007144700896566613,
      0.0,
      0.016759809050089523,
      -0.004798888782186611,
      0.004987797578214179,
      0.0,
      0.0,
      0.007799144043803383,
      0.0,
      -0.004133838073468408,
      0.0,
      0.004398093590990049,
      0.0,
      0.003437315559730335,
      -0.001171936232607771,
      0.0,
      0.0,
      0.0,
      -0.0032194579537502487,
      -7.352471296740144e-05,
      0.004599131337323426,
      1.3927715655853554e-06,
      0.0,
      0.0,
      0.0,
      0.0034373155597305217,
      -0.0028033225548307708,
      0.0,
      0.0,
      -0.0005937029001429761,
      0.0,
      0.0,
      0.0,
      0.0,
      -0.00258189900246098,
      0.0,
      -0.0024528691292562427,
      0.0,
      0.0,
      0.0,
      0.0,
      -1.3927715652129251e-06,
      0.0,
      0.011392552289408513,
      0.009247568795615743,
      0.0034373155597302763,
      0.0,
      0.0,
      0.0,
      -0.011072744600583058,
      0.004895017042110904,
      -0.0026595507257086482,
      0.0,
      0.0,
      0.00343731555973046,
      0.0,
      0.0,
      0.0,
      -0.0012503961367554726,
      0.0,
      0.0,
      0.0,
      -0.0018591662291246765,
      -0.006525741714143209,
      0.0,
      0.002452869129256695,
      0.005163798004922203,
      0.0,
      0.0,
      0.007144700896566555,
      -0.002201517750226571,
      0.0,
      0.0032487676236455185,
      0.0,
      0.0,
      -0.0027218270815355357,
      0.0003476481660090062,
      -0.006525741714143458,
      0.0,
      0.0,
      0.0,
      0.0,
      0.0,
      0.009533386060268748,
      -0.0024235019352556388,
      0.0,
      0.0,
      0.0,
      -7.352471296641206e-05,
      0.0,
      0.009033538186715595,
      0.0,
      0.0,
      0.0034373693026766867,
      -0.008601167307610524,
      0.0,
      0.0,
      -0.002424894706811581,
      -0.006580461518907117,
      0.0,
      -0.0024528691292569223,
      0.0,
      0.004083227811641851,
      0.0,
      0.006989516788956222,
      0.0,
      0.0018591662291242619,
      0.004798888782186408,
      0.007144700896566666,
      0.003248767623645532,
      0.004798888782186355,
      -0.005741961083827978,
      -0.0015594119586936268,
      0.0024248947068115263,
      7.49174845239704e-05,
      0.0,
      -0.007144700896566743,
      0.007144700896566683,
      -7.491748452389129e-05,
      0.0,
      -1.3927715656166907e-06,
      0.0,
      0.0,
      7.491748452400715e-05,
      0.0,
      0.009247568795624182,
      0.0,
      0.0,
      -0.005696276144704579,
      -0.0009430723016265254,
      0.0,
      0.0,
      0.0,
      0.0,
      -0.001859166229124516,
      -0.0041729339083076585,
      7.49174845238312e-05,
      0.0065257417141435115,
      0.0,
      0.0,
      0.0,
      -0.004172933908314554,
      -0.0017842487445862822,
      0.0,
      -0.0035723504482834067,
      0.0,
      -0.002659550725708691,
      0.0,
      -0.011560436706445623,
      0.0,
      0.00023876347237242266,
      0.0017708417749267933,
      0.0,
      0.0,
      -0.0001634441864892782,
      -0.001027510803142198,
      -0.0027218270815347174,
      -0.011392552289408846,
      -0.0014027398127456224,
      0.0,
      0.0,
      0.0,
      -8.172209324463486e-05,
      -0.002581899002460655,
      0.0,
      -0.005741961083828028,
      -0.0008908901376306109,
      0.01367044261072396,
      0.0,
      -0.006525741714143641,
      0.004798888782186534,
      0.006525741714143616,
      0.0,
      0.0,
      0.0,
      -0.0010984115196315692,
      -0.001899860498382879,
      0.0,
      0.0,
      0.0,
      0.0,
      -0.0020416139058208552,
      0.0,
      0.0011542678768464547,
      0.0,
      0.0,
      -0.001859166229124905,
      0.0,
      -0.010294140769768504,
      0.0,
      0.0008497960279919009,
      0.0,
      0.0028005172952842087,
      0.0,
      0.0,
      -0.004083227811641869,
      0.0,
      -0.005285534667450479,
      0.004798888782185695,
      0.0034373155597303253,
      0.0,
      -0.004798888782185843,
      0.0,
      0.0,
      0.0,
      0.0,
      -0.005854069586589287,
      0.0,
      0.007144700896566834,
      0.0,
      0.01139255228940913,
      -0.002611969359205268,
      0.003919783625157428,
      0.0,
      -0.004798888782186292,
      0.0,
      0.0,
      0.0,
      0.0,
      0.0,
      0.0,
      0.0,
      0.0,
      0.0,
      0.0,
      0.0,
      -0.011392552289409242,
      -0.0020792237605839928,
      0.0,
      0.0,
      0.0,
      0.007144700896566815,
      0.0,
      0.010370797562698923,
      0.0,
      0.007144700896566822,
      0.0,
      0.0,
      0.0,
      7.491748452425012e-05,
      0.01639226969225319,
      0.0,
      0.0,
      0.0,
      0.0,
      0.0,
      0.0,
      0.0,
      0.0013763226681608902,
      0.0015246426687987424,
      0.0,
      0.0,
      0.008601167307610015,
      0.007302658542888219,
      0.0,
      0.0,
      0.0,
      0.0,
      0.004083227811641731,
      0.0,
      -0.004083227811641704,
      0.0,
      0.0,
      0.0,
      0.0003268883729806286,
      -0.005163798004921714,
      -0.004083227811641465,
      0.008601167307606695,
      0.0018591662291247203,
      0.0,
      0.0,
      0.0,
      -0.0032628708570721027,
      0.0,
      0.0,
      0.0,
      0.0003583215721953627,
      0.0002459907708161762,
      -0.004172933908313726,
      -0.005741961083828302,
      -0.004570024851191059,
      0.0,
      0.009033538186715526,
      0.00860116730761307,
      0.0,
      0.0,
      0.0,
      -0.0034373155597303036,
      0.0,
      0.0,
      0.004403035500455781,
      0.0,
      0.0,
      0.0,
      0.0,
      0.0034373155597303352,
      1.392771566327648e-06,
      0.0,
      0.0024248947068112917,
      0.005163798004921884,
      0.0,
      0.0,
      0.0,
      0.0,
      -0.012886661980398709,
      0.0,
      0.0,
      0.002346019652932615,
      0.0,
      0.002452869129258461,
      -0.002861157802200867,
      0.0,
      -8.172209324459252e-05,
      0.004083227811641714,
      0.0,
      -0.007144700896567277,
      -0.0051637980049219065,
      0.0,
      0.0,
      -0.001859166229124867,
      0.0006225151304583803,
      0.007146093668122971,
      0.0,
      0.0,
      -0.009247568795626224,
      0.0,
      -0.009550524845873126,
      0.0,
      0.0,
      -0.0050888805204119805,
      -0.0034373155597302286,
      0.0,
      0.003248767623645779,
      0.0,
      -0.0042346494045419625,
      0.0,
      0.0,
      0.006525741714144292,
      0.0,
      0.0,
      0.0028248861698595322,
      0.004234649404542066,
      0.0,
      0.004798888782186281,
      -0.00523871548945674,
      0.0018554795549687129,
      0.002041613905820858,
      0.0,
      -0.004083227811641844,
      0.0,
      -0.005163798004921913,
      0.0,
      0.005163798004921953,
      0.0,
      0.0,
      0.0,
      -0.011392552289408357,
      -0.00479888878218628,
      -0.002452869129258497,
      0.01653222519136059,
      0.0037049254885542864,
      0.0,
      0.0,
      0.004083227811641642,
      0.0,
      0.0,
      8.172209324460412e-05,
      0.0,
      -0.0025732489430824,
      0.0,
      0.0,
      0.0,
      -0.010463369139238433,
      0.0,
      0.0,
      0.0,
      0.0,
      0.0008854208874634639,
      0.0,
      -0.007144700896567205,
      0.00016344418648920765,
      0.0,
      0.0,
      0.0019921002639670263,
      -0.005163798004922039,
      -0.009033538186715614,
      -0.01562720169393303,
      -0.004798888782186189,
      0.0,
      0.0,
      -0.005662955398834278,
      0.0,
      0.0,
      0.0051637980049220305,
      0.0,
      -0.007144700896567233,
      0.0,
      0.004798888782186222,
      0.0,
      0.0,
      0.0,
      -0.007144700896567232,
      0.0,
      0.0,
      -0.004798888782186227,
      0.004717166688928102,
      0.0,
      0.0,
      0.0,
      0.002452869129258114,
      0.0,
      0.0,
      0.0,
      -0.007144700896567198,
      0.0,
      0.0,
      0.0,
      0.0,
      -0.009350938383582056,
      0.0,
      0.0,
      0.0,
      7.49174845234729e-05,
      0.0024528691292583452,
      -0.003437315559730107,
      0.007144700896567227,
      0.0,
      0.007144700896567206,
      0.0,
      0.002041613905820784,
      0.0,
      -0.009533386060267298,
      -0.0004468378403822426,
      0.0,
      -0.004403035500455602,
      0.0,
      0.0,
      0.00860116730760981,
      0.0,
      -0.0052674498361524255,
      0.0,
      0.0,
      0.0008640666166507911,
      -0.01667808695685005,
      -0.005741961083828045,
      0.0,
      0.002721827081536185,
      0.004798888782186236,
      0.003437315559730163,
      0.0,
      -0.01148640731598543,
      0.0,
      -0.0015594119586934687,
      -1.3927715663707122e-06,
      0.0,
      0.002659550725708315,
      0.001709980575128271,
      0.0,
      0.002452869129258388,
      0.005741961083828077,
      -0.009123244283373888,
      0.0,
      0.0,
      -0.0057419610838280915,
      0.0,
      0.0,
      -0.0024528691292581757,
      0.0,
      -0.0051637980049220435,
      0.0,
      0.0,
      0.007144700896567191,
      -0.0024528691292582663,
      0.0,
      0.0,
      0.0,
      0.0,
      0.0,
      -0.007708940274247392,
      -0.002800517295283724,
      0.00048664588526648844,
      -0.0018591662291247346,
      0.004083227811641825,
      0.0,
      0.0,
      0.0,
      -0.00177084177492685,
      0.0,
      0.00016344418648915883,
      0.005890184688997875,
      0.0028035491747450884,
      -0.0034373155597302403,
      -0.004873806266714556,
      0.0,
      0.0,
      -0.003437315559730188,
      0.0,
      0.0,
      0.0,
      -0.007144700896567242,
      -0.003585648674300833,
      0.0,
      0.005163798004922047,
      0.0,
      0.0,
      0.0,
      0.0,
      0.0,
      0.0,
      0.0,
      -0.0056629553988343205,
      0.0,
      0.0,
      0.002710928875682375,
      0.0,
      0.0,
      0.0,
      0.0,
      0.0,
      -0.003437315559730164,
      -0.005741961083828056,
      0.007616667134187469,
      0.0,
      0.0008908901376302257,
      -0.004798888782186251,
      -0.00016344418648915482,
      -0.003437315559730154,
      0.0,
      0.0,
      0.0,
      0.0013657652853332949,
      0.0,
      0.0,
      1.3927715663982594e-06,
      0.004353443713383952,
      0.0,
      -0.005163798004922049,
      0.005163798004921992,
      0.0,
      0.0,
      0.0,
      0.0,
      0.011392552289408558,
      0.0,
      0.0,
      0.0,
      0.0,
      0.0,
      -0.004083227811641884,
      0.0,
      0.0,
      0.0,
      0.00714470089656724,
      -0.004798888782186226,
      0.0,
      0.0,
      -0.0069812567100890855,
      -0.007144700896567211,
      0.0,
      0.0034373155597300924,
      -0.004849789413622607,
      0.01575609031345442,
      -7.491748452313438e-05,
      0.001171936232606207,
      0.0,
      -0.011943589678738374,
      0.0,
      0.0042346494045422435,
      0.006413369483483213,
      0.0,
      0.0,
      0.005696276144704153,
      0.0,
      0.0,
      0.0,
      -0.0013615732224577595,
      0.0,
      -0.0071447008965672505,
      0.0,
      0.0,
      0.0020370355952616147,
      0.005696276144704204,
      0.0,
      0.0,
      0.0,
      0.0,
      0.0,
      0.0,
      0.0,
      0.0,
      0.0,
      0.0,
      -8.172209324457058e-05,
      0.0,
      0.0,
      0.0,
      0.004798888782186206,
      0.003248767623646144,
      0.0037049254885545752,
      0.0,
      0.006687726072336291,
      0.0,
      0.0011721941457491097,
      -0.0008908901376301222,
      -0.0020792237605841224,
      0.0,
      0.0,
      0.004798888782186199,
      1.392771566403233e-06,
      0.009247568795626193,
      0.0,
      0.0,
      -0.011392552289408334,
      -0.007144700896567174,
      0.0,
      0.0,
      0.0,
      0.0,
      0.0018902300616986866,
      0.0,
      0.0,
      0.007144700896567181,
      0.0,
      0.0,
      0.0,
      0.011943589678738339,
      0.004234649404542217,
      -0.005163798004922025,
      0.007144700896567183,
      -0.0065257417141444535,
      0.0,
      -0.006525741714144276,
      -0.01139255228940825,
      -8.172209324456719e-05,
      0.0,
      0.0020792237605841233,
      0.0,
      0.0,
      0.0,
      0.0,
      0.0,
      0.0,
      0.004083227811641734,
      -0.0023994443910931103,
      -0.0034373155597300833,
      0.0,
      0.0,
      0.0,
      -0.0034373155597301397,
      0.0029100514920504016,
      -0.0024528691292584888,
      0.0,
      0.0,
      0.001859166229124876,
      0.0,
      0.0,
      0.0,
      0.0,
      0.0071447008965672175,
      0.0,
      0.004083227811641727,
      0.0047988887821861755,
      0.0,
      0.0,
      -0.0017708417749269147,
      -0.0032487676236462384,
      0.0,
      0.0,
      -0.0071447008965671984,
      0.0018591662291249475,
      -0.008601167307609965,
      0.0,
      0.0,
      0.0,
      0.0,
      0.0,
      0.0,
      0.005165190776505212,
      0.012267702797974102,
      0.004083227811641783,
      0.0,
      0.0,
      0.0,
      0.0,
      0.0,
      0.0,
      -0.002452869129258359,
      0.0,
      0.0,
      -0.010853871640771517,
      0.0,
      0.003035850812992319,
      0.0,
      -0.006989516788955696,
      0.0,
      0.0011330245689313608,
      0.0,
      0.0,
      -0.0047988887821862345,
      0.0041729339083138505,
      0.0,
      0.0,
      0.003437315559730193,
      0.0,
      0.0,
      0.0,
      -0.0007154884782191209,
      0.0,
      0.004798888782186225,
      -0.003437315559730193,
      0.0,
      0.0,
      0.0,
      7.49174845229685e-05,
      -0.004083227811641784,
      0.0,
      0.0,
      0.0,
      -0.004083227811641793,
      -0.005163798004922039,
      0.0,
      0.0,
      0.0,
      -0.004083227811641737,
      0.0,
      0.004083227811641788,
      -0.00343731555973026,
      0.0,
      0.004798888782186237,
      0.0,
      0.0,
      0.0,
      0.0,
      -0.004083227811641692,
      0.0060321001374197625,
      0.0,
      0.0023460196529324954,
      0.000929583114562495,
      -0.005152600632604794,
      0.0,
      0.0,
      0.0,
      0.0,
      0.0,
      0.0,
      0.0,
      0.004234649404542246,
      -0.0017186577798651089,
      0.0,
      0.0019340837136514806,
      0.0,
      0.0,
      0.0,
      0.0,
      0.0,
      0.0,
      -0.0025818990024610187,
      0.0024528691292585404,
      0.0,
      -0.0034373155597301657,
      0.0,
      0.0051637980049220435,
      0.0,
      0.0,
      0.00028790885913104384,
      0.0,
      -0.005163798004922022,
      0.010838009915748075,
      0.0,
      0.0,
      -0.007144700896567191,
      0.0,
      0.0,
      0.0,
      0.0,
      0.0,
      0.0,
      0.0,
      0.0,
      0.0,
      0.0,
      0.0,
      -0.0040832278116415726,
      0.0,
      0.0,
      0.0,
      0.004658572510979988,
      0.0,
      -0.002762911000190956,
      0.0,
      0.0034373155597301704,
      0.0,
      -0.006525741714144079,
      -0.0011705434610335672,
      0.0024528691292583517,
      0.0,
      -0.00016344418648917052,
      -0.007144700896567187,
      0.0,
      0.0,
      0.0,
      0.0,
      0.0,
      0.0,
      -0.0038039146326677765,
      0.0,
      0.0,
      -0.007472507928467959,
      0.0,
      0.0,
      0.0,
      7.491748452278683e-05,
      0.0,
      0.004083227811641725,
      0.0,
      0.0,
      0.0,
      0.0,
      0.004083227811641736,
      -0.003437315559730171,
      0.0,
      0.0,
      0.0,
      0.0,
      0.0,
      -0.016810770740761743,
      7.49174845228887e-05,
      -0.000445445068815048,
      0.006525741714143847,
      0.0,
      0.0,
      0.004234649404542243,
      0.0,
      -0.004083227811641694,
      0.002332848076022163,
      0.0,
      -0.0020416139058208457,
      0.0,
      0.0018591662291248174,
      0.0,
      0.0,
      0.0,
      0.0,
      -0.0038827948547210094,
      -0.004798888782186169,
      0.002041613905820875,
      0.0008640666166506696,
      0.0,
      0.0,
      0.0,
      -0.0018591662291248512,
      0.0,
      0.0,
      0.0,
      -0.00423464940454224,
      7.491748452281701e-05,
      0.0,
      0.006002097331311571,
      0.0,
      -0.004083227811641666,
      0.0,
      0.0,
      0.0,
      -0.008601167307610222,
      -0.008236258084847946,
      0.0,
      0.0072264229898223245,
      -0.004403035500455719,
      0.0,
      0.0,
      0.0,
      0.0,
      -0.0036007597462224153,
      0.0,
      0.0,
      -0.003248767623646425,
      -0.004234649404542227,
      0.0,
      0.0,
      0.0035122330442601242,
      0.0,
      0.0,
      0.0,
      -0.003219457953749706,
      -0.0008093564383980344,
      0.0,
      0.0,
      0.0025882382644103496,
      0.0,
      0.0034373155597301796,
      0.00185916622912491,
      0.0,
      0.0018591662291249195,
      0.0,
      -0.002041613905820831,
      0.0,
      0.004083227811641664,
      -0.005163798004922055,
      0.0,
      0.0,
      0.0,
      0.0,
      0.0,
      0.0,
      0.0,
      0.007520543371374485,
      0.0,
      0.0,
      0.0,
      0.0,
      0.0,
      0.004083227811641835,
      -0.004403035500455731,
      0.007144700896567182,
      0.0,
      0.0,
      -0.002452869129258539,
      0.005801885591507808,
      -0.013400056089800017,
      0.0,
      0.005942394040776444,
      0.0,
      -0.013480693047241046,
      0.006525741714143954,
      0.0,
      0.0,
      0.0,
      0.0,
      0.0,
      0.003437315559730193,
      0.0,
      0.0,
      0.0,
      -0.005334946198848126,
      0.0,
      0.0,
      0.00423506000225343,
      -0.00574196108382811,
      0.0,
      -0.0025818990024610183,
      0.0,
      0.0,
      0.005741961083828097,
      0.0,
      0.0,
      -0.005163798004922053,
      0.0,
      0.0024528691292585243,
      0.0,
      -0.003437315559730249,
      0.0,
      0.0,
      0.0,
      0.0,
      0.0071447008965672115,
      0.0,
      0.002041613905820906,
      -0.006525741714143903,
      0.0,
      0.00016344418648918854,
      -0.0018591662291249037,
      0.0,
      0.0,
      0.0,
      -0.0010166894264252938,
      0.0,
      0.0,
      0.0,
      -0.002399444391093087,
      0.0,
      0.0,
      0.0,
      0.0,
      0.0,
      0.0,
      0.0,
      0.0,
      0.004083227811641885,
      -0.0008640666166506658,
      0.0,
      0.004234649404542222,
      0.0,
      0.0,
      0.0,
      0.0,
      -0.005741961083828099,
      0.0,
      0.0,
      0.0,
      0.012267702797974026,
      0.0,
      0.0,
      0.0,
      -0.0018591662291248929,
      0.0,
      0.0,
      0.0,
      0.0,
      0.0,
      0.0,
      0.0,
      0.0,
      0.0,
      0.0,
      0.0,
      0.004083227811641913,
      -0.0024528691292584844,
      0.0,
      0.0,
      0.0,
      0.0,
      0.0,
      0.0,
      0.0,
      0.0,
      0.0,
      0.006133851398986974,
      0.0,
      0.011392552289408206,
      0.0034373155597301874,
      0.003704925488554875,
      0.0,
      0.0,
      0.0,
      0.0,
      0.0,
      -0.001171936232606213,
      0.0018591662291248985,
      -0.0024528691292585204,
      0.0,
      -0.007144700896567219,
      0.0040832278116419,
      0.0,
      0.0,
      -0.005741961083828088,
      0.0,
      0.0,
      0.0,
      0.0,
      0.0,
      0.0,
      0.004158145296175556,
      0.0,
      0.0,
      0.0,
      -0.008601167307610007,
      0.0,
      0.0,
      0.0,
      0.0,
      -0.013106410771615342,
      -0.00044544506881508795,
      0.0,
      0.0,
      0.0,
      -7.631025610498121e-05,
      0.0,
      0.0,
      0.0,
      0.0,
      0.0051638517478646,
      -0.00408322781164181,
      0.0024528691292584753,
      0.0,
      0.0,
      0.0008640666166506531,
      0.0,
      0.0,
      0.0,
      -0.002041613905820954,
      0.0,
      0.0,
      0.0,
      0.0,
      0.0034373155597302142,
      0.0,
      0.0,
      -0.0069812567100890595,
      0.002041613905820903,
      0.0,
      0.0,
      -0.008391812526851864,
      0.0,
      0.0,
      0.00417293390831389,
      0.0,
      0.0017186577798651058,
      0.0,
      0.0,
      -0.00016344418648915054,
      0.0010984115196324617,
      -0.007144700896567221,
      0.002861157802201209,
      -0.0020416139058209316,
      -0.0006459122519041551,
      -0.004124897710930354,
      0.0,
      0.0,
      0.002079223760584092,
      0.0,
      0.0,
      0.0,
      0.0,
      0.0,
      -0.00702296423404771,
      0.0,
      0.0,
      0.0,
      0.0,
      0.0,
      0.0,
      0.0,
      0.0,
      0.0,
      0.004083227811641887,
      0.0,
      -0.011392552289408163,
      0.0,
      0.0,
      0.0,
      0.0,
      0.0,
      -0.006525741714143987,
      0.0,
      -0.007144700896567241,
      0.0,
      0.0,
      0.0,
      0.0,
      0.0,
      -0.005741961083828092,
      0.0,
      0.0018591662291248625,
      0.0,
      0.0,
      0.0,
      -0.0071743719576037885,
      0.0,
      0.0,
      -0.0007891491321256409,
      -0.004083227811641815,
      0.0,
      -0.0020416139058210014,
      0.0,
      0.0,
      0.0,
      0.0,
      0.0,
      0.0,
      0.007144700896567231,
      0.0,
      -0.004083227811641891,
      0.0,
      0.007144700896567208,
      0.009247568795626217,
      -0.0028005172952837876,
      0.0,
      0.011392552289408147,
      -0.0011330245689313875,
      -0.005101694219195092,
      0.0,
      0.0,
      0.0,
      -0.0008640666166506854,
      0.0,
      -0.0040832278116419195,
      0.003437315559730234,
      0.0,
      0.0,
      0.0,
      -0.004798888782186136,
      -0.011392552289408267,
      0.0,
      -0.0020416139058209814,
      0.0,
      0.0,
      0.004798888782186139,
      0.0,
      0.0037073853368325624,
      -0.004403035500455797,
      0.0,
      0.0,
      0.0,
      -0.0034373155597302147,
      0.007616667134187672,
      0.0,
      0.0,
      0.0,
      -0.01465542314648062,
      -0.0020416139058209728,
      0.0,
      -0.005163798004922059,
      0.0,
      0.0,
      0.0,
      0.0,
      0.0,
      0.007273291348865246,
      0.0,
      0.0,
      7.491748452288057e-05,
      0.0,
      -0.011392552289408352,
      0.0,
      0.0,
      0.0,
      0.007435935066768442,
      0.024819598489411017,
      0.004403035500455732,
      -0.008601167307610149,
      -0.007144700896567275,
      -0.007144700896567237,
      0.00234601965293248,
      0.004798888782186104,
      0.0,
      0.0,
      0.0,
      0.0,
      0.0035723504482836235,
      0.004798888782186105,
      0.0032628708570719965,
      0.0,
      0.0,
      -0.0020416139058209966,
      0.0041729339083139165,
      -0.01226770279797396,
      1.3927715665299695e-06,
      1.3927715665643647e-06,
      0.0,
      0.0,
      0.0,
      0.0,
      0.014046457577871471,
      0.0,
      0.0,
      -0.009223924657165086,
      -0.009478983255540365,
      0.0,
      0.0,
      0.0,
      0.0,
      0.0,
      0.0,
      0.0,
      0.002452869129258424,
      0.0007156609705392726,
      0.0,
      0.0019342859614947365,
      -0.009398447409451859,
      0.0,
      0.0,
      0.0,
      0.0,
      0.0,
      0.0,
      -0.0011542678768469386,
      0.0,
      0.0,
      0.0,
      -0.0020792237605840773,
      0.0,
      0.0,
      0.0,
      0.0,
      0.0010633214843642964,
      0.0,
      0.0,
      -0.007144700896567221,
      0.0,
      0.0,
      -0.0017708417749269204,
      0.0038039146326681074,
      0.0,
      0.0018591662291248768,
      0.00271092887568206,
      -0.0019629618869326463,
      0.0,
      -0.002399444391093074,
      0.012267702797973892,
      0.004083227811642146,
      -0.004172933908313898,
      0.0,
      0.0,
      0.0,
      0.0,
      -0.00016344418648917683,
      -0.002041613905821004,
      0.0008640666166506662,
      0.0,
      -0.006525741714143889,
      0.0,
      0.0,
      -0.002721827081536156,
      0.0,
      0.0017186577798651164,
      0.0,
      0.0,
      -0.00860116730761023,
      0.0,
      0.0,
      0.0,
      0.004234649404542215,
      0.007144700896567246,
      0.0,
      -0.0051637980049220955,
      -0.0017281332333013379,
      0.003789204335712118,
      0.006989516788955651,
      -0.0004454450688151067,
      0.0,
      -0.004798888782186134,
      0.008316895042336256,
      0.0,
      0.0,
      0.001695924290431164,
      0.0,
      -0.00860116730761022,
      -0.0040832278116419984,
      0.0,
      0.0013763226681606578,
      0.00038109561107827654,
      0.0,
      0.0,
      0.0,
      0.0,
      0.0,
      0.006525741714143991,
      -7.352471296481695e-05,
      0.0007264404269576288,
      0.0,
      -0.009477548972596707,
      -0.005130040060231167,
      0.0,
      -0.005111910556870011,
      0.0,
      0.0,
      0.0,
      0.0,
      0.0,
      -0.0014964272373525777,
      0.0,
      0.0,
      0.0,
      -0.006525741714143928,
      0.0,
      0.0,
      -0.007144700896567235,
      0.0,
      -0.001400258647641902,
      0.0,
      0.0,
      0.0,
      0.0,
      0.0,
      0.007144700896567204,
      0.0,
      -0.0010984115196326647,
      0.0,
      0.00324876762364622,
      0.0,
      -7.491748452281773e-05,
      -0.0028005172952838366,
      0.0,
      0.0,
      0.011392552289408279,
      -1.3927715665004635e-06,
      0.0,
      -0.004378208505573746,
      0.002424894706811334,
      0.005662955398834066,
      0.0020416139058210014,
      0.0,
      0.0,
      0.0,
      0.007062978803319781,
      0.0,
      -0.006049284918922943,
      -0.0054260431167005305,
      -0.003512233044260125,
      0.0,
      -0.007144700896567219,
      0.0024248947068113255,
      -0.0020416139058210448,
      0.0,
      -0.00036490922273918854,
      0.0,
      -0.0016587332721860887,
      0.0,
      -0.002452869129258509,
      0.0,
      0.0045167690933578305,
      0.0035723504482836088,
      0.0,
      0.0,
      -0.005741961083828124,
      -0.008169471570037539,
      0.0024528691292584654,
      0.0,
      0.0,
      0.0,
      0.013556259392396377,
      0.0062376712817528495,
      -0.007144700896567253,
      0.0,
      0.0,
      0.0,
      -0.004635444595685581,
      0.004798888782186108,
      0.0034373155597302294,
      0.0,
      0.0,
      -0.004234649404542203,
      -0.020988215971840172,
      0.0,
      7.491748452286493e-05,
      -0.011392552289408333,
      -0.002721827081536158,
      0.015705018357731516,
      0.0,
      0.0,
      0.0,
      0.004083227811642136,
      0.0,
      -0.00714470089656719,
      0.01496490273768026,
      0.0,
      0.0,
      0.0,
      1.3927715664749716e-06,
      -0.004083227811641987,
      0.0,
      0.003789204335712122,
      0.0,
      0.0,
      0.004071324024542913,
      0.0,
      0.0,
      0.0,
      -0.0071447008965672,
      0.0,
      0.0,
      0.0,
      0.0,
      0.0,
      0.0,
      0.0,
      1.3927715664753428e-06,
      0.0,
      -0.006262201729587671,
      0.00394384271170163,
      -0.005296481788854981,
      0.0,
      0.0,
      0.005352399683949852,
      0.0,
      0.0,
      0.0,
      0.0,
      -0.009548372458351767,
      -0.0020792237605840647,
      0.0,
      0.0,
      0.0,
      0.0,
      0.0,
      -0.004798888782186173,
      -0.004798888782186173,
      0.0,
      0.0,
      0.004641798972814272,
      0.0,
      0.0,
      0.0,
      -0.008601167307610106,
      0.0,
      -0.00016344418648920288,
      0.0,
      -0.004962332968666226,
      0.007729972627106071,
      0.0,
      0.0,
      0.0,
      0.0024528691292585165,
      0.004798888782186146,
      -0.0018591662291249024,
      0.007144700896567198,
      0.0027218270815361355,
      0.0,
      -0.010259900579795424,
      0.002312386036694501,
      0.0,
      0.0,
      0.0,
      0.0,
      0.0,
      0.011392552289408336,
      0.0,
      0.0,
      -0.0025818990024610204,
      0.0,
      0.0,
      0.0,
      0.0,
      0.0,
      0.004234649404542211,
      0.0,
      0.0,
      0.001770841774926915,
      0.0025818990024611167,
      0.0,
      0.0,
      0.001726852931979007,
      0.0,
      0.0,
      0.001583441904387737,
      0.0,
      0.0,
      0.0,
      -0.01226770279797418,
      0.004849789413622795,
      -0.0065257417141441005,
      0.0,
      0.0,
      0.0,
      0.0,
      0.0,
      0.011696493226453027,
      0.0,
      0.0,
      -0.0018591662291248376,
      0.0,
      -1.392771566536398e-06,
      0.0,
      0.0,
      0.0,
      -0.011943589678738277,
      -7.49174845228053e-05,
      0.0,
      0.0,
      0.0,
      0.0,
      0.0,
      0.004083227811642141,
      0.0,
      -0.0024248947068113533,
      -0.00016344418648918526,
      0.0,
      -0.002424894706811368,
      0.0,
      0.0,
      -0.00408322781164216,
      0.0,
      0.0023458121143720883,
      0.0,
      -0.002079223760584066,
      0.0,
      0.0,
      -0.007144700896567197,
      0.008008767513211694,
      0.0,
      0.0,
      0.007144700896567198,
      1.3927715665215711e-06,
      0.0,
      -0.007144700896567193,
      0.0,
      -0.002505078481035784,
      0.0,
      -0.003437315559730231,
      0.0,
      -0.006133851398987028,
      0.0,
      -0.0003268883729783824,
      0.0,
      0.004083227811642051,
      -0.0024528691292584853,
      0.0,
      0.0,
      -0.008684770303254253,
      0.0,
      0.0,
      0.0,
      0.0,
      0.0,
      0.0,
      0.002452869129258495,
      0.0,
      -0.001770841774926964,
      7.491748452277168e-05,
      -8.254658432574722e-05,
      0.0,
      7.491748452280949e-05,
      0.0,
      0.0,
      0.0,
      -0.003704925488554675,
      0.0,
      -0.0034373155597302216,
      0.0026595507257082805,
      0.0,
      0.0,
      0.0,
      0.0,
      -0.007144700896567189,
      0.003437315559730208,
      0.00652574171414413,
      0.0,
      0.0018591662291249297,
      -0.0024528691292585005,
      0.0018842275683627803,
      0.0,
      0.002079223760584067,
      0.002066573134622212,
      0.010540849866000533,
      -0.005590539490940727,
      0.0,
      0.0,
      0.003572350448283611,
      0.0,
      0.0,
      0.0,
      -0.007200833600153993,
      0.0034373155597302216,
      -0.007144700896567206,
      0.0,
      0.0,
      0.0,
      0.0,
      0.0,
      0.0,
      0.0,
      -0.0028005172952838167,
      0.004083227811642022,
      0.0,
      0.002452869129258473,
      0.005741961083828125,
      -0.004845419604545066,
      -7.49174845227799e-05,
      0.0,
      -0.006282239245813267,
      0.0024235019352557012,
      0.0,
      0.0,
      -0.00440303550045577,
      -0.007676151556304009,
      0.003437315559730221,
      -0.0002451662797583886,
      -0.0011719362326061261,
      0.00574196108382814,
      0.0,
      0.0,
      0.0,
      -0.002424894706811363,
      0.009370466198593358,
      0.0,
      -0.007144700896567194,
      0.0,
      0.0,
      0.0,
      0.0024248947068113624,
      -0.0008640666166506569,
      0.0,
      0.0,
      0.0,
      0.0,
      0.0,
      8.970609665875532e-05,
      0.0,
      0.0,
      -0.0051637980049222525,
      0.0,
      0.0,
      0.0,
      0.0008640666166506536,
      0.0,
      0.0,
      0.0,
      0.0,
      -0.008538331269044065,
      -0.008969233797694478,
      0.03049578623862129,
      0.10869848376434728,
      0.15063941512809215,
      0.26656914715654156,
      0.26656914715654145,
      3.582053312787039e-13,
      3.5812510037394673e-13,
      2.3920406163497677e-16,
      2.1800484635700122e-16,
      -5.5317834783643885e-18,
      0.03394275950458255,
      0.016434825973416646,
      -0.06989500704008261,
      0.0383338956405782,
      0.23162536659277783
    ],
    "new_intent": [
      0.0,
      0.0,
      0.0,
      0.0,
      0.0,
      0.03082462526532036,
      -0.008383808023488717,
      0.006246984932878065,
      -0.004496982523347754,
      0.0,
      0.0,
      0.0,
      0.0,
      -0.003193369707215121,
      -0.009440354640163191,
      0.0,
      0.008383808023430209,
      -0.010496901256826782,
      -0.007327310290608132,
      -0.008921059538346916,
      0.052551397659865925,
      0.0,
      0.0,
      0.0,
      0.0,
      0.0,
      0.0,
      0.0,
      0.0525513976598642,
      -0.008143523974387135,
      -0.007327310290610033,
      0.0,
      -0.0015966848536191243,
      0.0,
      -0.09665791479837717,
      0.0,
      0.0,
      0.0,
      -0.020718344895418052,
      0.0,
      0.0280027336119314,
      0.0,
      0.07125097277749952,
      -0.06315080161259155,
      0.0,
      0.02062586641584136,
      -0.009440354640128953,
      0.0,
      0.03712475794365189,
      0.0,
      0.0,
      0.0,
      -0.04525473233667514,
      0.007009093629828418,
      -0.020927299439213363,
      0.0,
      0.0,
      0.0,
      0.008921059538292513,
      0.0,
      -0.0010565466166926757,
      0.0,
      0.0,
      -0.0371247579436537,
      -0.014770547437631183,
      -0.05545117256312328,
      0.03447117199391077,
      -0.005274518087247559,
      -0.05255139765987323,
      0.0,
      0.0,
      -0.0038791582784833342,
      0.0,
      0.0,
      0.0,
      0.0,
      0.04311503420531183,
      0.0,
      -0.10750495022536509,
      0.04878247492717214,
      0.0,
      0.0,
      0.0,
      0.0,
      0.01720785247954015,
      0.0,
      0.0,
      -0.009440354640117452,
      -0.009440354640117216,
      0.011185511775613525,
      0.0,
      0.0,
      0.0,
      -0.00944035464011611,
      0.0,
      0.0,
      -0.020625866415778023,
      0.0,
      -0.01052067999785447,
      0.0207183448954394,
      0.020802517772040965,
      0.0,
      0.07424951588730153,
      0.0,
      0.0,
      0.0,
      0.0,
      0.0,
      0.0,
      0.0,
      -0.02697109900912637,
      0.0,
      0.0,
      0.011184174912753902,
      -0.050546267266309286,
      0.0,
      -0.031218799587018273,
      -0.009440354640122297,
      -0.003193369707231731,
      0.0,
      0.0,
      0.0,
      0.0,
      0.058644542270430394,
      0.026275698829937046,
      0.05498160252303422,
      -0.06147245719816882,
      -0.10109253453261438,
      0.0,
      0.0,
      -0.06474226676197636,
      0.0,
      0.0,
      -0.056112757039335104,
      0.0,
      0.0,
      0.0,
      0.0,
      -0.03824563870674098,
      0.0,
      0.0,
      -0.05054626726631283,
      0.08794873824940765,
      0.0,
      0.0,
      0.0,
      0.0,
      0.0,
      0.0,
      0.0,
      0.02802542987964178,
      0.0433922315321662,
      0.007327310290624339,
      -0.0972653694829631,
      0.0,
      -0.04265947103178883,
      0.0,
      0.0,
      0.0,
      0.0,
      -0.009440354640122335,
      0.0,
      0.04021457645984763,
      0.0031933697072305677,
      0.0,
      0.0,
      0.052551397659877194,
      0.0,
      -0.0007775355638029959,
      0.0,
      0.0,
      0.02309194073050866,
      0.0,
      0.0,
      0.0,
      0.0,
      -0.020625866415777756,
      0.0,
      0.0,
      0.0,
      0.0,
      0.0,
      0.0,
      0.0,
      0.0,
      0.0,
      0.0,
      0.0,
      0.02074535235222418,
      0.0,
      0.0,
      -0.008921059538292682,
      -0.05255139765987691,
      0.0,
      0.0,
      0.0621061719890482,
      0.0,
      0.0,
      0.0,
      0.0,
      -0.020625866415777724,
      0.0,
      0.0,
      0.0,
      0.00944035464012259,
      0.0,
      0.0,
      0.0,
      0.0,
      -0.08475536854215375,
      0.00892105953829255,
      0.0,
      0.0,
      0.0,
      0.0,
      0.0,
      0.0,
      0.0,
      0.0,
      0.018562378971827935,
      0.0,
      0.0,
      0.0,
      -0.05255139765987687,
      0.023091940730508485,
      0.0,
      0.0,
      -0.05255139765987718,
      -0.007327310290624033,
      0.05255139765987735,
      0.0,
      -0.06571625968936604,
      0.0,
      0.0,
      0.0,
      -0.0031933697072309415,
      -0.009440354640122758,
      -0.009440354640122545,
      0.004460529769146305,
      -0.052551397659876764,
      0.0,
      0.0,
      -0.021985054677224454,
      0.0,
      0.004460529769146243,
      0.00472017732006125,
      0.037124757943654385,
      0.0,
      -0.07983374108829172,
      0.0,
      0.0,
      0.0,
      0.0,
      0.0,
      0.08680024471423563,
      0.0,
      0.0,
      0.0,
      -0.014136645403624441,
      -0.009440354640122545,
      0.015412312632692975,
      0.0,
      0.0,
      0.0,
      -0.003193369707230992,
      -0.0868002447142459,
      0.0,
      0.0,
      -0.04410651713848407,
      0.0,
      0.0,
      0.0031933697072309667,
      -0.0441065171384909,
      0.0,
      0.0,
      0.0,
      0.0,
      0.0,
      0.0044969825233631,
      0.0,
      0.0,
      -0.008921059538292616,
      0.0,
      0.0,
      0.0,
      0.0,
      0.0,
      0.0,
      0.0,
      0.0,
      -0.06193325035792858,
      0.0,
      0.0,
      0.0,
      0.008921059538292465,
      0.0,
      -0.020625866415777575,
      -0.05255139765987763,
      -0.00446052976914624,
      0.0,
      0.0,
      0.0,
      0.0,
      0.0,
      0.0,
      0.0,
      0.0,
      0.0,
      0.0,
      0.0,
      0.0,
      0.0,
      0.0,
      0.0,
      -0.07697866260852038,
      0.023091940730510227,
      0.03712475794365603,
      0.0,
      0.0,
      0.0,
      -0.0010565466167123734,
      0.0,
      0.02045752066250651,
      0.0,
      0.03824563870675118,
      0.0,
      0.00944035464012243,
      0.0,
      0.0,
      -0.00449698252336355,
      0.0,
      -0.023722106247137123,
      0.0,
      0.007345785136378238,
      -0.020625866415777717,
      0.0,
      0.0,
      0.062224120103979784,
      0.0,
      0.0,
      0.0,
      0.0,
      0.0,
      -0.031056141782908154,
      0.0,
      0.0,
      0.020625866415777704,
      0.0,
      0.020625866415777717,
      0.004460529769146232,
      0.0,
      0.0,
      0.0,
      0.0,
      0.0,
      -0.05255139765987729,
      0.06157485714294834,
      0.0,
      -0.003193369707230916,
      0.0,
      0.0,
      0.0,
      -0.034308560606279286,
      0.0,
      0.008921059538292513,
      0.0,
      -0.04556963846498385,
      0.01720785247954333,
      0.0,
      0.0,
      0.009440354640122498,
      0.0,
      -0.06861317021912361,
      -0.0031933697072309753,
      0.08653956843242015,
      0.0,
      0.0,
      -0.06095347702593595,
      0.0,
      -0.038353755470726336,
      0.0,
      -0.04417158082185436,
      0.0,
      0.052551397659877035,
      0.02697109900912222,
      0.0,
      0.0,
      0.0,
      -0.0850174392601817,
      -0.02231440516669251,
      -0.11110785460365435,
      -0.023091940730510113,
      0.0,
      0.0,
      0.0,
      0.05255139765987732,
      -0.0077889839736540204,
      0.0,
      0.0,
      -0.054043120297961954,
      0.0,
      0.0,
      0.0,
      0.0,
      -0.010312933207888998,
      0.0,
      -0.07125097277748242,
      0.0,
      0.0,
      0.0,
      0.0,
      0.02309194073050984,
      0.0,
      -0.0414366897908785,
      -0.0496754867706032,
      0.05255139765987732,
      0.0,
      0.0,
      0.0,
      0.0015752744020324709,
      0.00016834575322459367,
      0.03824563870675135,
      0.0,
      0.0,
      0.052551397659877146,
      0.0,
      0.0,
      0.0,
      0.031004981109192184,
      0.0,
      0.0,
      0.0,
      -0.01720785247954365,
      -0.037124757943656314,
      0.0,
      0.07125097277748219,
      0.020625866415777714,
      0.0,
      0.0,
      -0.009440354640122729,
      0.02439123746358692,
      0.0,
      -0.020802517772041583,
      0.0,
      0.0,
      0.08680024471423832,
      -0.07826006640739012,
      -0.03712475794365573,
      0.0,
      0.0,
      0.0,
      0.0,
      0.0,
      -0.05864454227042832,
      0.011216619875764436,
      0.0,
      0.0,
      0.0,
      -0.022314405166692797,
      0.0,
      -0.039921664498050756,
      0.0,
      0.0,
      -0.10857460466513888,
      0.0879487382494067,
      0.0,
      0.0,
      0.03430856060627976,
      0.05574875855268272,
      0.0,
      -0.07125097277748244,
      0.0,
      -0.008921059538292581,
      0.0,
      0.0073457851363865284,
      0.0,
      0.017207852479543817,
      0.003193369707231263,
      -0.009440354640122689,
      -0.020802517772041697,
      0.003193369707231231,
      0.04410651713849066,
      0.011695397614142343,
      -0.034308560606279535,
      -0.0007775355638028331,
      0.0,
      0.009440354640122673,
      -0.009440354640122644,
      0.0007775355638027853,
      0.0,
      0.023091940730510067,
      0.0,
      0.0,
      -0.0007775355638027273,
      0.0,
      -0.04967548677060528,
      0.0,
      0.0,
      0.020718344895439545,
      0.04729988684575271,
      0.0,
      0.0,
      0.0,
      0.0,
      -0.017207852479543394,
      0.031218799587033084,
      -0.0007775355638029256,
      0.037124757943656043,
      0.0,
      0.0,
      0.0,
      0.031218799587021624,
      -0.017985388043354797,
      0.0,
      0.004720177320061216,
      0.0,
      0.038245638706751406,
      0.0,
      0.06142160286132312,
      0.0,
      0.08090510973854545,
      0.004496982523363185,
      0.0,
      0.0,
      0.0010565466167122921,
      -0.0494897206497774,
      0.08680024471423947,
      0.04143668979087987,
      -0.034666162498414435,
      0.0,
      0.0,
      0.0,
      0.0005282733083561453,
      -0.010312933207888678,
      0.0,
      0.0441065171384907,
      0.057183003491393755,
      0.02768440330355184,
      0.0,
      -0.037124757943656675,
      0.0031933697072317802,
      0.037124757943656425,
      0.0,
      0.0,
      0.0,
      0.04928550417571999,
      -0.07365678590258987,
      0.0,
      0.0,
      0.0,
      0.0,
      0.004460529769146325,
      0.0,
      -0.02797995715512715,
      0.0,
      0.0,
      -0.017207852479543793,
      0.0,
      -0.007848814384861194,
      0.0,
      -0.029439165107727625,
      0.0,
      -0.007009093629879311,
      0.0,
      0.0,
      0.008921059538292742,
      0.0,
      0.02664820711963984,
      0.0031933697072317833,
      0.05255139765987718,
      0.0,
      -0.003193369707231894,
      0.0,
      0.0,
      0.0,
      0.0,
      0.0044240770149053385,
      0.0,
      -0.009440354640122179,
      0.0,
      -0.04143668979088002,
      0.0803630090617666,
      -0.007864512921632611,
      0.0,
      -0.003193369707232068,
      0.0,
      0.0,
      0.0,
      0.0,
      0.0,
      0.0,
      0.0,
      0.0,
      0.0,
      0.0,
      0.0,
      0.04143668979088015,
      0.00732731029062361,
      0.0,
      0.0,
      0.0,
      -0.009440354640122228,
      0.0,
      -0.03303492535441885,
      0.0,
      -0.009440354640122224,
      0.0,
      0.0,
      0.0,
      -0.0007775355638030152,
      -0.059115841410711786,
      0.0,
      0.0,
      0.0,
      0.0,
      0.0,
      0.0,
      0.0,
      0.06222412010397943,
      0.08981251956862246,
      0.0,
      0.0,
      -0.08794873824940695,
      0.002633851564932177,
      0.0,
      0.0,
      0.0,
      0.0,
      -0.008921059538292522,
      0.0,
      0.008921059538292598,
      0.0,
      0.0,
      0.0,
      -0.0021130932334348465,
      -0.020625866415777752,
      0.008921059538292846,
      -0.08794873824940215,
      0.017207852479543803,
      0.0,
      0.0,
      0.0,
      -0.018562378971828063,
      0.0,
      0.0,
      0.0,
      -0.005306211667801953,
      0.02447541034015956,
      0.031218799587021392,
      0.04410651713849403,
      0.017135418129450686,
      0.0,
      -0.03992166449805082,
      -0.08794873824941557,
      0.0,
      0.0,
      0.0,
      -0.052551397659877166,
      0.0,
      0.0,
      -0.04878247492717377,
      0.0,
      0.0,
      0.0,
      0.0,
      0.052551397659877014,
      -0.02309194073051014,
      0.0,
      -0.034308560606278994,
      0.020625866415777648,
      0.0,
      0.0,
      0.0,
      0.0,
      0.05354687177865986,
      0.0,
      0.0,
      -0.0680576030702273,
      0.0,
      0.07125097277748088,
      0.0064124156927873105,
      0.0,
      0.000528273308356134,
      -0.008921059538292562,
      0.0,
      0.009440354640122547,
      -0.02062586641577764,
      0.0,
      0.0,
      -0.017207852479543817,
      0.02678817787081977,
      -0.03253229537065054,
      0.0,
      0.0,
      0.049675486770606375,
      0.0,
      -0.02178602680061511,
      0.0,
      0.0,
      -0.02140340197956855,
      -0.05255139765987709,
      0.0,
      -0.020802517772041864,
      0.0,
      0.043115034205307046,
      0.0,
      0.0,
      0.03712475794365619,
      0.0,
      0.0,
      -0.08412602010754203,
      -0.04311503420530688,
      0.0,
      0.0031933697072318227,
      -0.019848330851902067,
      -0.009464084496262603,
      -0.0044605297691462835,
      0.0,
      0.008921059538292536,
      0.0,
      -0.020625866415777634,
      0.0,
      0.020625866415777756,
      0.0,
      0.0,
      0.0,
      0.04143668979087946,
      -0.003193369707231907,
      -0.07125097277748105,
      0.14585398046585107,
      0.020927299439137115,
      0.0,
      0.0,
      -0.008921059538292453,
      0.0,
      0.0,
      -0.0005282733083561382,
      0.0,
      -0.0020051303935554135,
      0.0,
      0.0,
      0.0,
      -0.004569937988153083,
      0.0,
      0.0,
      0.0,
      0.0,
      0.002248491261681748,
      0.0,
      0.009440354640122446,
      -0.001056546616712252,
      0.0,
      0.0,
      0.015957979787299896,
      -0.02062586641577766,
      0.03992166449805098,
      0.0845517239961685,
      -0.003193369707231951,
      0.0,
      0.0,
      -0.053739636973558894,
      0.0,
      0.0,
      0.020625866415777735,
      0.0,
      0.009440354640122469,
      0.0,
      0.0031933697072319815,
      0.0,
      0.0,
      0.0,
      0.009440354640122465,
      0.0,
      0.0,
      -0.003193369707231988,
      0.0037216430156844582,
      0.0,
      0.0,
      0.0,
      0.07125097277748119,
      0.0,
      0.0,
      0.0,
      0.009440354640122434,
      0.0,
      0.0,
      0.0,
      0.0,
      0.03697616002172249,
      0.0,
      0.0,
      0.0,
      -0.0007775355638022349,
      0.07125097277748155,
      -0.05255139765987701,
      -0.00944035464012246,
      0.0,
      -0.009440354640122469,
      0.0,
      -0.004460529769146256,
      0.0,
      0.05864454227042847,
      0.05168344247619628,
      0.0,
      0.0487824749271745,
      0.0,
      0.0,
      -0.08794873824940706,
      0.0,
      -0.009973088075981249,
      0.0,
      0.0,
      0.05054626726631209,
      0.0680848969105309,
      0.04410651713849088,
      0.0,
      -0.08680024471423911,
      0.0031933697072319446,
      0.052551397659876896,
      0.0,
      -0.031329308279430944,
      0.0,
      0.011695397614142443,
      0.023091940730509998,
      0.0,
      -0.038245638706751385,
      -0.007196222168955298,
      0.0,
      0.07125097277748177,
      -0.0441065171384907,
      0.06221940454664991,
      0.0,
      0.0,
      0.044106517138490745,
      0.0,
      0.0,
      -0.07125097277748087,
      0.0,
      -0.020625866415777714,
      0.0,
      0.0,
      -0.009440354640122462,
      -0.07125097277748092,
      0.0,
      0.0,
      0.0,
      0.0,
      0.0,
      -0.036868049272428004,
      0.007009093629879197,
      -0.029841576826919444,
      -0.01720785247954387,
      -0.008921059538292671,
      0.0,
      0.0,
      0.0,
      -0.004496982523363451,
      0.0,
      -0.0010565466167122572,
      0.12380237043735469,
      -0.0873285180226614,
      -0.0525513976598772,
      -0.0024158341434384464,
      0.0,
      0.0,
      -0.05255139765987701,
      0.0,
      0.0,
      0.0,
      0.00944035464012246,
      0.014717678764543468,
      0.0,
      0.020625866415777655,
      0.0,
      0.0,
      0.0,
      0.0,
      0.0,
      0.0,
      0.0,
      -0.05373963697355883,
      0.0,
      0.0,
      -0.0506251063617708,
      0.0,
      0.0,
      0.0,
      0.0,
      0.0,
      -0.05255139765987693,
      0.044106517138490786,
      0.09187683919324248,
      0.0,
      -0.057183003491394116,
      -0.003193369707231985,
      0.0010565466167122433,
      -0.05255139765987707,
      0.0,
      0.0,
      0.0,
      0.11601331541015929,
      0.0,
      0.0,
      -0.02309194073051011,
      0.03178487145292742,
      0.0,
      -0.020625866415777606,
      0.020625866415777627,
      0.0,
      0.0,
      0.0,
      0.0,
      -0.04143668979087997,
      0.0,
      0.0,
      0.0,
      0.0,
      0.0,
      0.00892105953829265,
      0.0,
      0.0,
      0.0,
      -0.009440354640122406,
      -0.003193369707231967,
      0.0,
      0.0,
      0.00838380802345573,
      0.009440354640122413,
      0.0,
      0.05255139765987718,
      0.06861712121255846,
      -0.07555127350436588,
      0.0007775355638022218,
      -0.026971099009122965,
      0.0,
      0.006246984932879432,
      0.0,
      -0.043115034205306775,
      -0.08293960740957895,
      0.0,
      0.0,
      -0.02071834489543993,
      0.0,
      0.0,
      0.0,
      0.04935802795260168,
      0.0,
      0.00944035464012248,
      0.0,
      0.0,
      -0.0650338165775746,
      -0.020718344895440097,
      0.0,
      0.0,
      0.0,
      0.0,
      0.0,
      0.0,
      0.0,
      0.0,
      0.0,
      0.0,
      0.0005282733083561165,
      0.0,
      0.0,
      0.0,
      0.003193369707231997,
      -0.020802517772041826,
      0.020927299439136845,
      0.0,
      -0.02728794015067187,
      0.0,
      -0.019868886522360463,
      0.057183003491394185,
      0.0073273102906237335,
      0.0,
      0.0,
      0.003193369707232032,
      -0.02309194073050995,
      -0.04967548677060585,
      0.0,
      0.0,
      0.041436689790879985,
      0.009440354640122424,
      0.0,
      0.0,
      0.0,
      0.0,
      -0.05357325058850499,
      0.0,
      0.0,
      -0.009440354640122415,
      0.0,
      0.0,
      0.0,
      -0.006246984932879425,
      -0.04311503420530716,
      -0.020625866415777662,
      -0.009440354640122451,
      -0.037124757943655974,
      0.0,
      -0.037124757943655835,
      0.04143668979087996,
      0.0005282733083561136,
      0.0,
      -0.007327310290623754,
      0.0,
      0.0,
      0.0,
      0.0,
      0.0,
      0.0,
      -0.008921059538292633,
      -0.0015966848536159877,
      -0.05255139765987716,
      0.0,
      0.0,
      0.0,
      -0.05255139765987706,
      0.03367467956521687,
      -0.07125097277748133,
      0.0,
      0.0,
      0.017207852479543723,
      0.0,
      0.0,
      0.0,
      0.0,
      -0.009440354640122437,
      0.0,
      -0.008921059538292635,
      0.0031933697072319567,
      0.0,
      0.0,
      -0.004496982523363507,
      0.020802517772041715,
      0.0,
      0.0,
      0.009440354640122457,
      0.01720785247954372,
      0.08794873824940733,
      0.0,
      0.0,
      0.0,
      0.0,
      0.0,
      0.0,
      -0.002466074314756781,
      -0.006981759194835013,
      -0.008921059538292694,
      0.0,
      0.0,
      0.0,
      0.0,
      0.0,
      0.0,
      -0.07125097277748181,
      0.0,
      0.0,
      0.028921777890862563,
      0.0,
      -0.017039506726351423,
      0.0,
      -0.007345785136387325,
      0.0,
      -0.10750495022536798,
      0.0,
      0.0,
      -0.0031933697072319203,
      -0.03121879958702143,
      0.0,
      0.0,
      0.05255139765987722,
      0.0,
      0.0,
      0.0,
      -0.13935164237407507,
      0.0,
      0.003193369707231931,
      -0.05255139765987724,
      0.0,
      0.0,
      0.0,
      -0.0007775355638024383,
      0.00892105953829268,
      0.0,
      0.0,
      0.0,
      0.008921059538292654,
      -0.020625866415777742,
      0.0,
      0.0,
      0.0,
      0.00892105953829268,
      0.0,
      -0.008921059538292657,
      -0.05255139765987726,
      0.0,
      0.0031933697072319242,
      0.0,
      0.0,
      0.0,
      0.0,
      0.008921059538292702,
      -0.014010947107396659,
      0.0,
      -0.06805760307022699,
      0.008603926239771938,
      0.02539833442738238,
      0.0,
      0.0,
      0.0,
      0.0,
      0.0,
      0.0,
      0.0,
      -0.04311503420530702,
      -0.026275698829938545,
      0.0,
      0.016430316915728122,
      0.0,
      0.0,
      0.0,
      0.0,
      0.0,
      0.0,
      -0.010312933207888843,
      0.07125097277748138,
      0.0,
      -0.05255139765987708,
      0.0,
      0.020625866415777662,
      0.0,
      0.0,
      -0.008417546086286318,
      0.0,
      -0.02062586641577767,
      -0.026740577078936907,
      0.0,
      0.0,
      0.00944035464012239,
      0.0,
      0.0,
      0.0,
      0.0,
      0.0,
      0.0,
      0.0,
      0.0,
      0.0,
      0.0,
      0.0,
      0.008921059538292631,
      0.0,
      0.0,
      0.0,
      0.07557430640083333,
      0.0,
      2.54087239791153e-05,
      0.0,
      0.052551397659877125,
      0.0,
      -0.03712475794365601,
      0.003879158278478049,
      0.07125097277748135,
      0.0,
      0.0010565466167122305,
      0.009440354640122418,
      0.0,
      0.0,
      0.0,
      0.0,
      0.0,
      0.0,
      -0.12392500265791517,
      0.0,
      0.0,
      -0.004456011690289408,
      0.0,
      0.0,
      0.0,
      -0.0007775355638023646,
      0.0,
      -0.008921059538292649,
      0.0,
      0.0,
      0.0,
      0.0,
      -0.008921059538292619,
      -0.05255139765987721,
      0.0,
      0.0,
      0.0,
      0.0,
      0.0,
      0.018951513186860242,
      -0.0007775355638023921,
      0.028591501745697148,
      0.03712475794365602,
      0.0,
      0.0,
      -0.043115034205307184,
      0.0,
      0.008921059538292638,
      -0.08170554335461055,
      0.0,
      0.004460529769146336,
      0.0,
