{
  "bias": 0.43277301553598696,
  "config": {
    "hash_size": 8192,
    "ngram_max": 4,
    "ngram_min": 1,
    "ridge_lambda": 0.01
  },
  "extra_features": [
    "length",
    "question_tail",
    "is_final",
    "lowering_prefix",
    "contrastive_tail"
  ],
  "metadata": {
    "teacher_models": [
      "manual-anchor-v1",
      "manual-contrastive-anchor-v1",
      "manual-life-command-anchor-v1",
      "manual-referential-anchor-v1",
      "mlx-community/gemma-4-26b-a4b-it-4bit"
    ],
    "train_config": {
      "hash_size": 8192,
      "ngram_max": 4,
      "ngram_min": 1,
      "ridge_lambda": 0.01
    },
    "train_count": 4160,
    "train_metrics": {
      "binary_accuracy": 0.9995192307692308,
      "count": 4160.0,
      "mae": 0.0038234019935366576,
      "rmse": 0.00792260308373429,
      "train_count": 4160.0
    }
  },
  "model_type": "hash_ridge_saturation",
  "weights": [
    0.002130441948898581,
    -0.031054743808133247,
    -0.02116930964772192,
    0.0,
    -0.040524177380711845,
    0.29710199838189016,
    -0.08945877528892751,
    0.0,
    0.001545098584181036,
    -0.0606779177840577,
    -0.004119395271014151,
    -0.10253712251599041,
    0.0,
    0.0,
    0.0,
    -0.010489214092793691,
    0.0,
    0.06977281821608389,
    -0.15998028200962852,
    0.00667061340269243,
    0.0,
    0.0,
    0.03320795161075359,
    0.0,
    -0.03833166886936463,
    0.0,
    0.0,
    -0.017289574976997034,
    -0.006135702745051879,
    -0.0512977012717876,
    -0.03703446804229178,
    0.20033608396526692,
    -0.034821597566679005,
    0.0006316564367023859,
    -0.027293544923745697,
    0.23317405638584435,
    0.0,
    0.1169234317087368,
    -0.013708876963974933,
    0.0,
    -0.021204503078021783,
    0.0,
    -0.0675815120695178,
    0.12951133972851073,
    0.06655510959746012,
    -0.02977476354915825,
    0.03642696331436968,
    -0.00697462344302242,
    0.0,
    -0.001100895214630868,
    -0.07532498591068074,
    0.0,
    -0.06665428494364024,
    0.0,
    0.11373713603428695,
    -0.0422590062188255,
    0.042848695172535804,
    0.005578694493417109,
    -0.11204572512923794,
    0.032607731192491454,
    0.014012221363410215,
    -0.2568856656523614,
    0.05055768815868525,
    0.0,
    -0.1299731782074996,
    -0.19545651983149126,
    -0.019364639270378216,
    0.027904013505478973,
    -0.024680631298539694,
    0.0,
    -0.0183086211350323,
    -0.03675425746654967,
    -0.04772173823309329,
    0.0,
    -0.021528547306734504,
    0.0,
    -0.043164935937566956,
    -0.032514262508215604,
    0.0,
    0.0,
    -0.11345574444545356,
    0.0,
    -0.02075659326787051,
    -0.14560309066944202,
    -0.033234599649427626,
    0.0,
    0.018463532223222556,
    -0.0062846304059752806,
    0.027090673497598215,
    0.0,
    -0.2560150472608265,
    -0.05601855747831517,
    0.0,
    0.04467873564758059,
    -0.0559888461126664,
    0.0,
    0.07175720170517469,
    -0.07174961380904378,
    -0.45733588876304665,
    0.0,
    0.22985502400103802,
    -0.2357943056433971,
    0.010904127353690278,
    0.12928774710098023,
    0.008961670005469331,
    -0.01770459968014205,
    -0.09486858757876898,
    0.07054296199966402,
    -0.09233454166407089,
    -0.03955162663599246,
    -0.06762503775735984,
    0.006654895813174838,
    -0.009280479926087878,
    0.0,
    0.0,
    0.021066591770300232,
    0.019803974175645778,
    0.12846525042328133,
    0.0,
    0.0,
    -0.0033738925909108635,
    0.0,
    0.0,
    0.06348979914950173,
    -0.05637388534373616,
    0.0,
    0.10226249213525537,
    -0.10524722046790676,
    0.004223781678235112,
    0.02963141655204687,
    0.07637890355530166,
    0.0,
    0.0,
    0.0,
    0.0,
    0.0,
    0.0,
    -0.024904148685641243,
    -0.39201418708940455,
    0.0,
    0.05636757278497675,
    0.0,
    0.0,
    -0.1424095502356862,
    -0.36917518519147896,
    -0.13500559401759926,
    -0.0888163779436719,
    0.0,
    0.0,
    0.03415158412911367,
    -0.030435212133613304,
    0.022232090871342536,
    0.07823949595004417,
    0.0661986056962438,
    -0.030032743523960844,
    0.098344901659847,
    0.0,
    0.0,
    0.023390263587106584,
    -0.04255042855433992,
    0.06721356619314663,
    0.0,
    -0.060603809126553485,
    -0.25688566565435017,
    0.012945536923336914,
    -0.09741014203507259,
    0.0,
    0.13120790837752566,
    -0.07246582567638533,
    0.0,
    0.002912018941605451,
    0.0,
    -0.015333717346620368,
    0.0,
    0.05615307140025288,
    0.0,
    0.08745544888534329,
    0.01479079164106456,
    0.0,
    0.0,
    -0.04737921505591462,
    0.05146779916755837,
    0.0,
    0.0,
    0.0,
    0.028947294521248883,
    0.08917374552718506,
    0.0,
    0.017569012155150363,
    0.0,
    0.0,
    0.0521624928586984,
    -0.09560058161233623,
    0.0717307628781231,
    0.03866140372367451,
    -0.09349391876302646,
    -0.03674180954250574,
    0.0,
    0.0,
    -0.011838984904881897,
    0.02580587137068619,
    0.061263420686671795,
    -0.09992489729735723,
    0.0048906588941714235,
    0.010695945670048628,
    0.0029120189415696406,
    -0.28891838569794626,
    0.03618185410415915,
    -0.04248747339603634,
    0.019375766013510484,
    0.011615485578551224,
    0.06385365047474759,
    -0.059897716734617114,
    0.041556668085299404,
    0.0,
    -0.0020263627841782916,
    -0.028892193536481942,
    0.013314908762042183,
    -0.016973326207439576,
    -0.02873594662426069,
    0.05416983283389097,
    -0.0691202514591106,
    0.0,
    0.0,
    0.0,
    0.09987161148635593,
    -0.06452019398667377,
    0.0,
    0.0,
    0.0,
    0.0,
    -0.016959126404130626,
    0.14443901579952664,
    0.018463532223223087,
    0.08203780109925497,
    -0.09150492052295675,
    0.0,
    0.0,
    -0.09777262998928118,
    0.0,
    0.025749830171233005,
    -0.004824785205409096,
    0.08302565756804857,
    -0.09516648267595086,
    0.0,
    0.01510671851041765,
    0.0,
    0.0,
    -0.058644268898363806,
    -0.06893853527915388,
    0.0,
    0.04712553762662394,
    -0.10741009474584724,
    -0.04626289142015737,
    -0.032452011087906796,
    0.0,
    -0.042487473403573714,
    0.1252859322842502,
    0.0,
    0.0,
    0.020137933280686394,
    0.06831014296354974,
    0.017493609141586625,
    0.07327766162699345,
    0.0,
    -0.09466948145375825,
    0.0,
    0.0,
    0.0,
    -0.08627187006626268,
    -0.10709155787027726,
    0.0,
    0.1061351694787322,
    0.04834128564298615,
    -0.01587504912376,
    -0.02477566421781262,
    0.0012471169229254547,
    0.05818804228118093,
    0.02475412412628248,
    -0.045746525824842725,
    0.011827235229481722,
    0.014600185279701972,
    -0.020827732416607347,
    0.0,
    0.03251426251262354,
    0.0,
    0.13542278738432753,
    0.025181480431483657,
    -0.024460060861613293,
    -0.0008091251777932578,
    0.0903646686719611,
    0.05302075717354228,
    0.023426526402458788,
    0.0,
    -0.1394072850562937,
    0.0,
    0.005249363890016258,
    0.01936464186302954,
    0.12309758204317901,
    0.023144489011483884,
    0.0,
    -0.008269560475645124,
    0.0,
    -0.0403588598136469,
    0.01970959739247989,
    0.0,
    0.0,
    0.08596550235631809,
    0.19542195663705006,
    0.0,
    0.0,
    0.00206842682207692,
    0.06417303452122851,
    0.0,
    -0.10978878770797361,
    -0.16892256180695697,
    0.0,
    0.14031085236566354,
    -0.09068608241779351,
    0.030554964923680965,
    0.0,
    -0.025509486103110282,
    0.011346058057120748,
    0.0,
    0.03707191289554836,
    0.0,
    0.0743965038828977,
    -0.09092105847388633,
    0.053283310664658655,
    0.05944580091223071,
    0.0,
    0.29844742752737474,
    -0.04238918402633558,
    0.0,
    0.0,
    -0.0024943907356100425,
    0.04834128563723216,
    0.0,
    0.1492346427459141,
    0.03808254191660525,
    0.0,
    0.0032001272223984305,
    0.0,
    0.018023356052140067,
    0.010205914708511128,
    0.0,
    -0.012480350317364735,
    0.03386542617100934,
    -0.14584531229229528,
    0.07761919633857653,
    -0.021344947822543116,
    0.07889600464515122,
    0.04163580320421262,
    -0.02880608251101073,
    0.0,
    0.002068426812766889,
    0.0,
    0.0,
    0.0247541241257298,
    0.003971934114467512,
    -0.03341108089883502,
    -0.0013269397415701153,
    0.0,
    0.09536017265866538,
    0.0,
    0.0,
    0.2775420708803858,
    -0.05210926157682691,
    0.038677719484823785,
    0.0,
    -0.06465805789925462,
    -0.01622961724586285,
    -0.2866114390202125,
    -0.14923464274404466,
    0.0,
    0.0,
    0.0,
    0.02483163195761966,
    0.0,
    0.038295517613180896,
    0.0,
    0.0,
    -0.04574652582486356,
    0.0,
    -0.17025709307357176,
    0.0,
    0.18338786936356044,
    -0.014573246051357307,
    0.02983075284674315,
    -0.2326131366454338,
    -0.04024894074689255,
    0.09008492479177599,
    0.057311694478195827,
    0.0,
    0.28530303650880373,
    0.0,
    0.05225655111941686,
    0.006756449041032015,
    0.0,
    0.04049118245880974,
    -0.1614508583812851,
    -0.07509861861248761,
    -0.004009105205009377,
    0.0,
    -0.04640850187346853,
    0.0,
    0.04142668725521313,
    0.15028467830985615,
    -0.03462619554119011,
    0.0,
    0.007840471461210223,
    0.0,
    0.03724213199443462,
    -0.08099825434385652,
    0.0,
    0.014012221363312545,
    0.04399667146201219,
    0.0,
    0.0,
    -0.0721137744486916,
    0.0,
    0.0,
    0.10676117506855264,
    0.0,
    0.0032832775754392148,
    0.039719748303801164,
    -0.04933769341931485,
    0.15053888045844407,
    0.06093454196520194,
    -0.03373425114961439,
    -0.03399318051436107,
    0.1698850568315549,
    -0.20037550773167262,
    0.0,
    0.043030496307553165,
    -0.14126428311401232,
    0.08436283234815313,
    0.00041657515042692697,
    0.07470682546228113,
    0.01670979961586711,
    -0.22797204256546627,
    -0.03675425746807456,
    -0.028892193545463025,
    -0.008889959581070162,
    0.0,
    -0.03910903405159387,
    0.028959784686579414,
    0.089905369642651,
    0.0,
    0.0,
    0.009731767416044647,
    -0.012506787785832018,
    0.026033133362408773,
    0.06598505752950996,
    0.27939552249676575,
    0.06228705458951358,
    -0.013089738928742206,
    -0.0014092767165776795,
    0.0267745526075655,
    0.10634831629256143,
    0.002226080254132273,
    0.0026251436487307175,
    -0.0420991105497356,
    0.0,
    0.0,
    0.0,
    0.10200395033914576,
    0.24422982268628152,
    0.0,
    -0.03790310243840433,
    0.0,
    -0.01054966991219169,
    -0.007046775346605905,
    0.0,
    0.05982571484262868,
    -0.008928110474534307,
    -0.02791174468131015,
    -0.017704599681739305,
    0.405163804717193,
    -0.03462691076084721,
    0.3373972562633085,
    -0.007770778121120862,
    0.003283277575435182,
    0.08845680624389927,
    -0.0956458075316603,
    0.0,
    -0.041626762419929936,
    0.0,
    -0.0029120189413999707,
    0.0,
    -0.05792695336187193,
    0.041509178244366104,
    0.0,
    -0.016976653372818132,
    0.0,
    0.0,
    0.0,
    -0.03313324927461142,
    0.018403048223764797,
    -0.001919559913154864,
    -0.003972895859453206,
    0.0,
    0.07327766161586786,
    0.0,
    -0.06920882489533438,
    -0.054804686308592844,
    0.0,
    0.060288687646028336,
    0.0,
    -0.032688515323747426,
    0.0,
    0.0,
    0.0,
    0.034967281896915565,
    0.257302240804849,
    -0.029830752846784284,
    -0.012819601792406222,
    -0.09291038734174731,
    0.002068426816657273,
    -0.25025670552150125,
    -0.010252667540389011,
    -0.16851951989108926,
    0.0,
    0.022033378404937062,
    -0.011273383905363312,
    -0.05757956570081261,
    0.0,
    -0.21804928583686284,
    -0.06958773765823491,
    0.0,
    0.011708215798361659,
    0.0,
    0.0,
    -0.016759268342647873,
    0.0,
    -0.03617474991192538,
    0.0,
    0.0,
    0.03448748331753261,
    0.0,
    -0.0050327543435140995,
    0.0,
    0.017983285948670824,
    -0.05021449517688413,
    -0.1339350773211745,
    -0.011323936156637,
    0.06721356618891014,
    -0.022872641037399822,
    0.02464858925675107,
    0.0,
    0.0700438354256855,
    0.0,
    -0.05790024880697579,
    0.0,
    0.0001897871396449917,
    0.009677577792618944,
    -0.11660663075068582,
    -0.11528177478556044,
    -0.07077993770404224,
    0.06914718031316185,
    0.0,
    -0.017627650901195623,
    0.0,
    0.0,
    0.01640406531811399,
    0.0,
    0.0,
    0.0,
    0.0,
    -0.05414351416971993,
    -0.04081270628191369,
    0.0,
    0.0,
    0.0,
    0.0,
    0.00921722124850566,
    0.09414461371378467,
    0.0,
    0.03808254191680975,
    0.0,
    0.02547087987982014,
    -0.02641542649702937,
    0.03548135523624573,
    -0.12047321826717318,
    0.0,
    -0.03027488204327964,
    0.0,
    -0.0006584327373052784,
    0.07486851502831975,
    -0.03321861887473419,
    0.0,
    0.0,
    0.18914010747625806,
    0.05257861128617711,
    0.08037162762833282,
    0.0,
    -0.025888750150290074,
    0.012722364821320007,
    -0.02797111423366629,
    0.2274483572878087,
    0.0,
    -0.013771607729294245,
    0.03938750336447704,
    0.03480653125220713,
    0.0,
    0.06401126481837652,
    0.04281341768088387,
    0.13824015009635737,
    0.0,
    0.0,
    0.0,
    -0.005898474501882798,
    0.03887114466921754,
    0.0,
    0.0027348286149835913,
    0.12247605216324814,
    0.0,
    0.10042255544245171,
    0.0,
    0.06624317939245714,
    -0.0007114336380788993,
    0.0,
    0.14796041721077183,
    -0.0362565294671487,
    -0.1550039546020449,
    -0.13511249769568057,
    -0.0020127481751703335,
    -0.007396217789464556,
    0.0,
    -0.10411310469961285,
    0.0,
    0.0,
    0.0,
    0.08045926930905835,
    0.0,
    0.0,
    0.0,
    0.11269005657010119,
    0.03829551761318909,
    0.0,
    0.0,
    0.0,
    0.15638664311348288,
    -0.05461066014240861,
    0.0,
    0.0,
    0.9553100813603829,
    0.0,
    -0.05831544035929892,
    0.0,
    -0.08110747435031439,
    -0.003574381080867367,
    0.0,
    0.04679524383473792,
    -0.03301054475247128,
    -0.04424040746171106,
    -0.03270263864337803,
    -0.04960014611885731,
    0.0,
    -0.020754798915632987,
    -0.00589847450031032,
    0.0,
    -0.04335598705225633,
    -0.03693784311354399,
    -0.06367460868160739,
    -0.000574963972449574,
    -0.028892193551367348,
    -0.17645481828138748,
    0.0,
    0.0,
    0.0,
    -0.03665039959417957,
    -0.02011957177762457,
    -0.05099755353912226,
    0.049222954963746846,
    -0.017884585588118913,
    0.09761127630555325,
    0.024147408750249424,
    0.0,
    0.0,
    0.0,
    0.06458757165081169,
    0.0,
    0.029279121373694327,
    0.0,
    -0.010226753229867167,
    0.061675579177560946,
    0.0,
    0.0,
    0.03402886044885443,
    -0.019830373861901656,
    0.0,
    -0.09101331593502633,
    -0.01631325823547236,
    0.05743568483374936,
    -0.060041493790811216,
    0.0,
    0.016485978803264006,
    0.0,
    0.0,
    0.0,
    -0.07045779730032822,
    -0.05206392285467526,
    0.0,
    -0.10348712989318345,
    0.0,
    0.04515888660773702,
    0.0,
    0.06511437704113725,
    0.07888473766289518,
    -0.005615740070268745,
    0.2798703344810231,
    0.263915751068681,
    -0.051262471127127764,
    0.0,
    -0.04248747340163673,
    0.21558045960951636,
    -0.06413009216670065,
    -0.03003532660416077,
    -0.05159867725251372,
    0.0,
    0.06824536868383733,
    0.0001280351747048353,
    0.0,
    0.02443847187113562,
    0.15412496160132236,
    0.0,
    -0.026929201799644222,
    0.0,
    0.011345159203769927,
    0.0,
    0.0,
    0.0,
    -0.00937829734806382,
    -0.03793819225131833,
    0.004230237189784152,
    0.0,
    0.131638837456842,
    -0.030117322680471095,
    0.043197613575705125,
    0.0,
    0.14923464274416953,
    0.03606077611425368,
    -0.057996465019897185,
    0.0,
    -0.011982028055009525,
    0.0,
    0.0,
    -0.058286026464132244,
    0.01695669052711431,
    0.0,
    -0.013754573763848154,
    0.0,
    -0.116606630750669,
    -0.037875404995752676,
    0.07947816887163352,
    0.0,
    0.11089565630573242,
    0.0343103929563203,
    0.08464881570254347,
    0.0,
    -0.04941492039800657,
    0.01903023211742641,
    0.0,
    0.0,
    -0.058219308596329705,
    0.0,
    -0.27121412392544614,
    0.05149557033793942,
    0.0,
    0.008596381773341261,
    0.03157465901292907,
    -0.035592750042826096,
    -0.07117171683487161,
    -0.026410799354443994,
    0.0,
    0.0,
    -0.011841266667646287,
    0.015059563488754812,
    0.0,
    -0.22781813856611605,
    0.023022175131602297,
    0.0,
    -0.06766547769818675,
    -0.040499186132077945,
    -0.12427910182510019,
    -0.0025241958136602233,
    0.0,
    0.07369276185621218,
    0.134589018864777,
    -0.021204503078303006,
    0.0,
    -0.031054743808128435,
    0.0,
    0.01479079164093508,
    -0.10411310469389898,
    0.0,
    0.0,
    0.0,
    -0.0021074326916639304,
    -0.08398023963853941,
    0.0,
    0.0,
    0.0,
    -0.029959443355916632,
    0.0,
    -0.06827076546158782,
    0.0,
    0.0067001639973357854,
    0.0,
    -0.013354028393488971,
    0.04574652582490884,
    -0.01877947692996446,
    -0.07501229589811592,
    0.02896168496820227,
    -0.0056673020343860625,
    -0.172459881451938,
    -0.12009994376144835,
    0.14889891292330806,
    0.0,
    -0.020804214214219657,
    -0.027306057961260823,
    0.0,
    -0.039341920319715215,
    -0.015464271190995768,
    0.0,
    0.0,
    0.0,
    0.034467255499278995,
    0.0,
    0.0,
    0.0,
    -0.044452909564869116,
    0.19753564234690033,
    0.0,
    -0.037938192251362614,
    0.09429585975488297,
    -0.0014638604196583467,
    0.0,
    -0.02092390055997687,
    0.16754378099275266,
    0.018532735893492094,
    -0.00590975187632328,
    0.0704171968030233,
    0.005116070287679172,
    -0.03245362610431543,
    -0.07180159772447249,
    0.0,
    0.1071164627231754,
    -0.13010453614788678,
    -0.011636522173947767,
    0.0,
    0.0,
    -0.03386542617142205,
    0.0,
    -0.044266728119985305,
    0.028892193544757257,
    0.20810866437057188,
    0.0,
    -0.01951724244642756,
    -0.13656631425394414,
    0.022409753679432442,
    -0.060498797175969274,
    -0.2180492858369123,
    0.060041493789671836,
    0.0,
    0.01041267942164438,
    0.13746695133296383,
    -0.00705753301016577,
    -0.0010028727309992057,
    0.0,
    -0.08030937582478025,
    0.23911790280964118,
    -0.08390227219436423,
    0.0,
    0.012066244502996301,
    0.0,
    0.0,
    0.015779249438304544,
    -0.029299678593790287,
    0.0,
    0.0,
    0.0,
    0.0,
    0.0,
    0.0,
    -0.03323188192904999,
    0.0,
    -0.07756878387224118,
    -0.18101937548896832,
    -0.05411464746018511,
    0.0,
    0.0,
    0.0,
    -0.07270668783836806,
    0.025542129085262093,
    0.022312739595335394,
    -0.05533987378117142,
    0.0,
    0.0,
    0.00589847450193001,
    0.0009216655308367274,
    0.09036466867256329,
    -0.011874842243299665,
    -0.16730055963799156,
    0.00675644904104633,
    0.0,
    -0.031596652753958794,
    0.04257807689291406,
    0.0,
    -0.01865250353085888,
    0.0,
    0.006005329066364799,
    0.0,
    0.02152973936281806,
    0.0,
    0.017039944148365526,
    0.0,
    0.0,
    0.07501281473320645,
    -0.03123762303586922,
    0.019517242446536714,
    0.0,
    -0.03643225084207275,
    0.02476939714015334,
    0.03361212191193361,
    -0.09335833331825107,
    0.0,
    0.0,
    0.09846767163773654,
    0.0,
    0.05121360526690683,
    0.09593116375010802,
    0.0,
    0.037832896960062895,
    0.022927642255413286,
    0.0015976979661412826,
    0.35490546024221303,
    0.03598781557548617,
    -0.052801331180133214,
    -0.39298469059615104,
    -0.0047773263003652285,
    0.015640773749789703,
    0.0,
    0.03437709838984393,
    0.0018064854144896742,
    -0.07167178784488769,
    0.007992904671414662,
    0.0,
    0.0,
    -0.006718865626447956,
    0.0,
    -0.04999064756350806,
    0.008479690232702777,
    -0.2547230777045969,
    -0.031414249533897334,
    0.0,
    0.0,
    -0.14754842303493057,
    0.0,
    0.03094352283255275,
    0.0,
    0.0,
    0.0,
    0.01837788622125532,
    0.0,
    -0.02088284139633075,
    0.026415426497031533,
    0.0007693107917652609,
    0.0,
    0.05688597033577723,
    -0.006442810910593418,
    0.0,
    0.04238918402539114,
    0.008513130502644978,
    -0.02009713753043331,
    0.0,
    0.13338296666827765,
    0.0,
    0.27203897925508275,
    0.0,
    0.03480659827319875,
    -0.08966333637183455,
    0.0,
    -0.05832539079773421,
    -0.024281966162373034,
    0.087395791697004,
    0.024460060858213933,
    0.0,
    0.0,
    0.0,
    0.0,
    0.016078020787772707,
    0.006322263158262356,
    0.005761271005616215,
    0.02191546808264122,
    -0.028892193544748847,
    -0.01367847991728655,
    0.0007529082044334352,
    0.0,
    0.0,
    -0.21221585426799763,
    0.0,
    0.007499482115489058,
    0.057229525553186465,
    0.0,
    -0.06528785942587424,
    0.0,
    -0.07757053934291143,
    0.07902456602342739,
    0.0,
    0.010692673877188419,
    0.014942311118027237,
    0.0,
    -0.41312037008321467,
    0.0,
    0.0,
    -0.0584353042127364,
    0.0,
    -0.20626335382912594,
    0.0,
    0.01607761536758768,
    -0.10077989823228732,
    0.0,
    0.19580231565942088,
    0.09686854073636197,
    0.0,
    -0.055971847020941344,
    -0.01683403556672888,
    0.03146356224068286,
    0.0,
    0.0,
    0.26276351627356503,
    0.019547729666563294,
    -0.10977719355472626,
    0.0,
    0.012362017086746632,
    -0.15412496160554984,
    -0.018903403709603105,
    0.06607365825250057,
    -0.38562585976116637,
    0.0032973992764753456,
    0.019570365226383255,
    0.0,
    0.0,
    0.11618676934876516,
    0.0,
    -0.025749830171165815,
    -0.15624838944874003,
    0.01616762247188603,
    0.15490343975500603,
    -0.04691566354176801,
    0.0,
    0.0,
    0.023521012679218356,
    0.009210449247822638,
    0.017060158641668585,
    -0.004165076890112389,
    0.029931485072548097,
    0.0,
    0.07171360553268367,
    0.008656434068741205,
    0.0,
    -0.010256137068169526,
    0.0,
    0.01365039034716911,
    0.0,
    -0.01947003487851955,
    -0.05816670636893509,
    -0.0019402859484856047,
    -0.004474083743408069,
    0.0,
    0.0,
    0.0,
    0.03583838763056516,
    -0.03346569763797953,
    0.03167133190904693,
    -0.02783013856638509,
    0.0,
    0.0,
    0.0,
    -0.27801629936232175,
    -0.044505350590783414,
    0.0,
    0.0,
    -0.029205834931278388,
    -0.13867818649478958,
    -0.44251558193526197,
    0.0,
    -0.02499032755195559,
    -0.09002193558391451,
    -0.0005749639724266294,
    0.0,
    -0.04053603957365614,
    0.0,
    0.0,
    -0.25291222728574564,
    -0.19100296848786422,
    -0.121905860335023,
    0.0,
    0.0,
    0.11576775928213161,
    -0.002068426817666154,
    0.0,
    -0.017053570990617137,
    -0.06335654615405382,
    0.048199310705342314,
    0.0012671470185401333,
    -0.11109538132714163,
    -0.19031743557179084,
    -0.07213579072970049,
    0.21644984794772748,
    -0.08312913312531622,
    -0.13120790837897217,
    0.041373108520072886,
    0.009219317156492726,
    0.0,
    0.0,
    -0.1461307393298719,
    -0.09378487353533838,
    -0.3054498140854115,
    0.0,
    -0.021055536134014743,
    0.013051497943095373,
    -0.008294002466582082,
    0.008032135052496888,
    0.23019434656973828,
    0.0,
    0.0,
    0.0,
    0.0,
    0.006267938157954433,
    0.006901139655042145,
    0.0,
    0.0003453134665110575,
    0.07632661813124754,
    -0.033306212647357655,
    0.0,
    -0.25881165247839244,
    0.00322729778993105,
    0.0,
    0.0,
    -0.050369579516933986,
    -0.061140542110205004,
    -0.04484294811619972,
    -0.0333184433554932,
    0.0,
    -0.028251169148270083,
    0.023310712625793477,
    -0.16932170056882698,
    -0.026851351117809404,
    -0.016485978804342435,
    0.0,
    -0.09727183163130207,
    -0.12664522561130528,
    -0.1259036034607045,
    0.0,
    -0.7218069553225587,
    -0.023068508508043428,
    0.06182453327419671,
    0.0,
    0.0,
    0.05597184702190917,
    0.06766547769820841,
    0.108495302614457,
    0.0,
    0.0,
    -0.04185984339397966,
    0.0,
    -0.010412679421641877,
    -0.02161224242316838,
    0.014942311118009165,
    0.09482344995151137,
    0.0,
    0.0,
    0.0,
    0.0,
    -0.06672831486999162,
    0.0,
    0.03733232982908965,
    0.07054296199977701,
    0.0,
    0.057707513570057545,
    0.0,
    0.01798416064423667,
    0.0,
    0.3484998861765371,
    0.0,
    0.0,
    -0.13717859607150562,
    0.0,
    -0.3748771466924721,
    0.0,
    0.03404176445917453,
    -0.03828390777166064,
    0.0,
    0.07410351338142386,
    0.0,
    -0.007091195258017065,
    0.0,
    -0.03581442379487818,
    -0.20834828715777123,
    0.028956697119406693,
    -0.02075479891560258,
    -0.05713327894406731,
    -0.040531602370739904,
    0.0,
    0.01716962751005948,
    0.010226753228587472,
    -0.11071757618435951,
    0.0,
    0.0,
    0.0,
    -0.03889578564066505,
    -0.013089738928677016,
    -0.12601699646641212,
    0.0,
    -0.044373311369834696,
    0.0,
    0.01011073671613573,
    0.07754636258545118,
    -0.11397932702149809,
    0.0,
    0.0016700785180921924,
    0.0,
    -0.041629325097066364,
    -0.03089849761735486,
    -0.12668091969270515,
    0.029543354862074867,
    0.0,
    0.0013197373314971657,
    -0.025166682949448457,
    0.0,
    -0.07078213534911719,
    0.0,
    0.0,
    -0.013795207977752834,
    -0.020396903398254958,
    0.024857702580226425,
    0.016223382142991787,
    -0.030138701312547853,
    -0.011012906984041561,
    -0.08148270046134821,
    0.0,
    0.0,
    -0.05439761224635206,
    0.0,
    0.015670742145395475,
    0.0,
    0.0,
    -0.0013243700426888456,
    0.03139044019606469,
    0.0,
    0.0,
    0.0,
    -0.04097126850070512,
    -0.34955933660946914,
    0.0,
    -0.023144489012538884,
    0.009586552155519035,
    -0.030782430449532522,
    -0.07256465976310635,
    0.0687324289081898,
    0.0471273384368578,
    0.0,
    0.011285055407916059,
    -0.009242957930650822,
    0.0031598994917237705,
    0.0,
    0.0,
    0.0,
    -0.05288299789282247,
    0.0,
    0.0,
    0.03947766064781045,
    0.20527014301857643,
    0.0,
    0.014790791641070269,
    0.06413706386863495,
    0.0,
    -0.052669994976718426,
    0.0027416217324099036,
    -0.04429714304931759,
    0.08651019151460002,
    0.005789816160094298,
    0.0069011396550400375,
    -0.012480350317957054,
    -0.12409931061420242,
    0.0,
    0.16173035586687082,
    -0.08881637794414206,
    -0.023484368418071704,
    0.05174176942247274,
    0.0,
    0.08335803947069913,
    0.035453434841853725,
    0.019694875174662722,
    -0.010549669911521727,
    0.03176988688717444,
    0.38386895327463133,
    0.0,
    0.15360953711758824,
    0.0,
    0.010130470841598996,
    0.05753608501708625,
    0.0,
    0.011906097478694673,
    -0.009441394264166035,
    0.1229839780837262,
    0.1383863325818521,
    0.07396352000105232,
    0.0,
    0.09567858725500203,
    -0.06070364810319433,
    0.22692228906424117,
    -0.006521366364505467,
    0.10891866059118661,
    0.0,
    0.0,
    -0.025814439048340274,
    0.0,
    0.05421143951261644,
    -0.5117303140054718,
    0.019971707666328765,
    0.0,
    -0.10475309462371743,
    -0.30964495828681315,
    0.028263695499132886,
    0.0,
    0.012611662040319887,
    0.029531450424190836,
    -0.03314318660176259,
    -0.06395239338935423,
    0.0,
    -0.008607934396849894,
    0.0,
    -0.13174797797389343,
    -0.009944153361684851,
    0.0,
    -0.008465857562796256,
    -0.49753814323454654,
    -0.025940485383395294,
    -0.05444436163201038,
    0.0,
    0.0,
    0.002184986133514413,
    0.012541851923136412,
    -0.015335223570711955,
    0.0,
    -0.024817061550484434,
    -0.0023194223435501083,
    0.013481476891187982,
    0.0,
    0.16355662044003924,
    -0.20197016483812275,
    -0.008331643556050703,
    0.04502658064435855,
    0.0,
    0.0,
    -0.042099110549756964,
    0.0,
    0.020465042960160655,
    0.0,
    0.0,
    -5.640842777205305e-05,
    0.020938346042688256,
    0.01701429168689877,
    0.0,
    0.013089738928672726,
    -0.02650316276453744,
    0.0,
    0.017776737900290145,
    0.11925442272696894,
    0.0,
    0.0,
    0.06368535986134984,
    -0.04442856832275182,
    0.0,
    0.06454106361759111,
    0.08057946027196536,
    -0.021344947822589208,
    0.0,
    0.0,
    0.0,
    -0.012158610394496446,
    -0.18875223998334226,
    0.0,
    -0.04368154532716016,
    0.0,
    0.0,
    0.0,
    0.0423891840254266,
    0.0,
    0.006520916361264969,
    0.0,
    -0.0143923081594611,
    0.018797001403553275,
    0.09249942295028625,
    -0.006682989925455496,
    0.13942834273112048,
    0.0,
    -0.04264284686012771,
    -0.0038568592990328447,
    -0.19262280914031726,
    0.0,
    0.0,
    0.03910716357809897,
    -0.6825935237140206,
    -0.17260060565919655,
    0.0,
    -0.03530209972087491,
    -0.08612811222843296,
    0.0,
    -0.05789818673443723,
    -0.03437356940217609,
    0.014012221363387372,
    0.0,
    -0.19241679529336575,
    0.0,
    0.0,
    0.0,
    0.0,
    -0.012527829429727187,
    0.04176617427192081,
    0.0,
    -0.39675795595800284,
    0.0,
    0.06421005543409739,
    -0.014255247549214858,
    -0.026989539713152728,
    0.0,
    0.0654444769673679,
    -0.17141243878310244,
    0.0,
    0.0,
    0.11618676934946492,
    0.0,
    -0.009336242858266066,
    0.0,
    0.0,
    0.0,
    0.012693806518577832,
    0.0,
    0.018946731046393557,
    -0.06419108807862604,
    0.0,
    0.0,
    0.0,
    0.0,
    0.03910716357807308,
    0.0,
    -0.022232090871347025,
    0.0,
    0.010495183370267778,
    -0.010549669911812712,
    -0.11030939295904192,
    -0.02692763352717959,
    -0.050274940576547675,
    0.0,
    -0.04838267664106487,
    0.00896348254460702,
    0.050777461345113094,
    0.06527940068380819,
    -0.017564750671145744,
    -0.05252244910864524,
    -0.0156322834028388,
    -0.06843330018192607,
    -0.05231753495237764,
    0.0,
    0.048831367360802555,
    0.0,
    0.01730701053180037,
    -0.06616082094783389,
    -0.051970652940119016,
    0.054856914150749586,
    0.09313615309750767,
    -0.11230525245986518,
    0.0,
    0.005761271005612765,
    0.0,
    -0.06477211072296941,
    -0.027312042172694267,
    0.3709510157953056,
    -0.08585815672560586,
    0.06854852678733071,
    0.012994108914566291,
    0.15755367957873814,
    0.0,
    0.0,
    -0.015993145536113848,
    0.03192313215921916,
    0.0,
    0.0,
    0.0042237816781729295,
    0.0,
    0.0,
    0.0,
    0.027136586510186016,
    -0.004678861789534056,
    -0.07221997063203676,
    0.05179946060291728,
    -0.03439470593562393,
    0.031889288446923444,
    0.03643225084206638,
    0.029212557483337516,
    -0.21406398799045426,
    0.012780921931538252,
    0.0,
    -0.018310922172567023,
    0.0,
    -0.060940853198243904,
    0.02222124898881233,
    0.0,
    -0.01054966991181294,
    0.0,
    0.0,
    0.0,
    0.0,
    -0.07833908792205983,
    0.0971431587937195,
    0.0,
    0.0,
    -0.016676290154009715,
    -0.09731066155837159,
    0.16348279695498583,
    0.1527635795389563,
    0.025995809377860692,
    0.022872641033184128,
    0.21876242325914255,
    0.10103889717983079,
    0.0734043144082466,
    -0.015278659998318678,
    0.0,
    0.0,
    0.0,
    0.01957919059057605,
    0.10957865766719169,
    -0.020653292780206327,
    0.0,
    -0.02128324620631349,
    0.0,
    0.0,
    -0.023212370269112288,
    0.08290629914522407,
    -0.07179450546538145,
    0.0,
    -0.4624263615459828,
    -0.15417709435551188,
    -0.08760341892461065,
    0.0,
    0.20242535673332923,
    0.0,
    0.0,
    -0.04339966614559503,
    0.21594143183250747,
    0.0,
    0.0,
    0.0,
    0.02132058891239121,
    0.0,
    0.0,
    0.09079604742703126,
    0.0,
    0.0,
    -0.011036844674774513,
    0.0,
    0.12318245782301546,
    0.0,
    0.0,
    0.13872606643851332,
    -1.5660723559754668,
    -0.12489545520090571,
    -0.05360398905096215,
    -0.012332640412112147,
    -0.08845680624296856,
    0.0,
    0.0,
    0.14498203014822209,
    0.024990327551945496,
    -0.004245935818879048,
    0.04748084430903099,
    0.0,
    0.15274222071669075,
    0.029728411290444578,
    -0.10639064229718183,
    -0.04719712251996188,
    0.0,
    0.0,
    -0.04695861321989046,
    -0.10461831416872365,
    -0.04074946107181313,
    -0.05766722365097128,
    -0.04932126912512187,
    0.0,
    0.0,
    -0.009211800389410262,
    0.0,
    0.0,
    0.0,
    0.002068426817663679,
    0.05512648948146516,
    0.0,
    0.09640863494145077,
    0.16186090572144132,
    0.04374268361576699,
    -0.08239375247969404,
    0.0,
    -0.04587074242997474,
    -0.07215944941502084,
    -0.008162750109437046,
    0.01908602790461131,
    0.0,
    -0.19781691651161784,
    0.0,
    0.025940485383391082,
    0.024807947875459348,
    0.0,
    0.0,
    -0.04287669188413989,
    0.13491503358093615,
    0.03808254191680807,
    0.06910597213862989,
    0.0,
    0.0,
    0.01603394731147485,
    0.15431548518108718,
    0.20288731096243454,
    -0.21608014337899548,
    0.15473053754509114,
    -0.02895978468301612,
    0.0,
    0.0,
    0.0,
    0.0,
    0.0,
    0.022758729301498675,
    0.10836719186855888,
    -0.49811058637372674,
    0.06785913465483176,
    -0.02909127718125444,
    0.0,
    0.05480058014673649,
    0.0,
    0.0,
    0.01115929393788753,
    0.0,
    0.0887578447112826,
    -0.2574289290799862,
    0.0,
    -0.07845969035804672,
    -0.027090673497140796,
    0.0,
    -0.14144433199836798,
    0.08097443287983914,
    0.02348771852395856,
    0.03727890292133406,
    -0.08627187006692362,
    -0.21750781482260806,
    0.08973630447573729,
    0.0,
    -0.2055802106053083,
    0.0,
    0.0035324466409879826,
    -0.06388658790076675,
    0.0767987583248296,
    0.0,
    0.08300301988318382,
    -0.3491594581299386,
    0.03675425746733384,
    0.0,
    -0.04214709995315749,
    -0.028644465110645733,
    0.00803213505233348,
    0.0,
    0.0,
    0.013326305073404621,
    0.027410165244162208,
    0.01568056531430783,
    -0.03745661110188285,
    0.058261945883743074,
    0.005516676485872995,
    -0.07532044832643137,
    -0.03480078996782416,
    -0.018023356052181968,
    -0.08665843127072367,
    -0.10440356208177023,
    -0.12608855263451169,
    0.011957239198138016,
    0.007222122054730477,
    0.03968986368097193,
    -0.007840471461341092,
    0.35223573584789997,
    0.0,
    -0.047193288245180244,
    0.0,
    0.12310941816256213,
    0.0,
    -0.0337926232084866,
    0.041369886026360436,
    0.0,
    0.0,
    0.02480214833244136,
    -0.035475998914508144,
    0.0,
    0.0,
    -0.05924345137259126,
    0.020270134752048582,
    0.0,
    0.0,
    -0.1890306920477827,
    0.012383338151964013,
    0.0,
    0.0,
    0.0,
    -0.1544089877442398,
    0.13673526158690397,
    0.0,
    -0.029656818994270424,
    -0.008001432504592312,
    0.0,
    -0.09743901103702761,
    -0.1294696311567593,
    0.0,
    -0.13081497693051516,
    0.10878816852792306,
    0.0,
    -0.012247938893596372,
    0.0026251436487634916,
    0.0,
    0.0,
    0.017704599680179733,
    -0.19456826069430205,
    -0.11662102719759987,
    -0.05444513524077773,
    0.046052152976080694,
    0.011967659896759146,
    0.0,
    -0.12594459607880168,
    -0.01838614482231607,
    0.0,
    0.015384838462958685,
    0.005926865972297166,
    0.1783627597694727,
    -0.061166533464308066,
    -0.024417010760823112,
    0.016077615367130718,
    -0.07000934503854855,
    0.0003705862580878179,
    -0.10159580855715172,
    -0.007811985177020001,
    0.0011514838935452907,
    0.0,
    -0.09823683882740508,
    0.06169605219153564,
    0.023218169161349764,
    -0.04984991874308883,
    0.15644474235928973,
    0.058315440359306095,
    0.041006917172971495,
    0.001647124209056606,
    0.06642171412079267,
    -0.08748295432812159,
    0.03321861887384011,
    0.022939552142868417,
    -0.2641875844986866,
    -0.058514736406004464,
    0.02973604861166735,
    -0.06193778738988055,
    0.0,
    -0.13873249922667824,
    0.13889830101715986,
    0.0,
    0.022725831428521682,
    0.02681858622947701,
    0.009217221248482059,
    -0.009868436112042581,
    0.24971389767403745,
    -0.003473361097913526,
    0.0,
    -0.09191567700236256,
    0.11910588038875794,
    0.02149095563879896,
    0.0,
    0.0,
    -0.05355285555829334,
    0.0,
    0.0,
    0.033865426170218385,
    0.18352372530413216,
    -0.008889959581136468,
    0.015450267349276053,
    -0.19050969849852314,
    -0.07031157479775563,
    -0.06400479257305244,
    -0.0023237639992489643,
    -0.02731204217269231,
    0.0,
    0.0,
    0.0,
    -0.0510298999305167,
    0.20648168922876162,
    0.026631282761401035,
    0.0,
    -0.07043139598677245,
    0.004119395271434169,
    0.01650718540712431,
    0.0,
    0.03159665275388115,
    -0.03695831941655032,
    0.033865426169849715,
    0.0,
    -0.007231912738111658,
    -0.0872087188859489,
    0.003469511724450829,
    -0.03728531534483318,
    0.02926518111505867,
    0.10068897359202231,
    -0.037634448754212284,
    -0.047302913801384266,
    -0.06617964205877533,
    -0.006700163997589208,
    -0.10878343724197521,
    -0.026206942675980855,
    -0.030907500789566084,
    0.02822079629280929,
    0.033133249274051,
    -0.011425430231116893,
    0.0,
    -0.2518495258447529,
    -0.05313196655311178,
    0.0,
    -0.10896224554529389,
    -0.16033595970350226,
    -0.07288038717035196,
    -0.06384703935333151,
    0.0,
    0.0,
    0.019570365226874525,
    -0.04143946963438668,
    0.01477480732818727,
    -0.014100556679758425,
    -0.02139687591911477,
    0.013064907037420886,
    0.0,
    0.009590141691842444,
    0.0,
    -0.009577551713904729,
    0.0029544441901847287,
    0.02599063382795457,
    -0.0275558812729343,
    0.0,
    -0.11337159624517464,
    0.13625400879628205,
    0.0,
    0.0,
    -0.24482428032905293,
    0.0,
    -0.03862988230304936,
    0.06885277515950203,
    0.14501653890946303,
    0.0,
    -0.01684071809681086,
    0.0,
    -0.09741014203147791,
    -0.033010668909433084,
    0.19270474794383483,
    0.032682042636923904,
    0.0,
    0.01223574931606501,
    0.0,
    -0.07485754220711097,
    -0.09849381370219502,
    -0.05247127511425493,
    -0.04359734756910106,
    0.047767629440367915,
    0.0,
    0.0,
    0.009151565660136226,
    -0.03117359895534516,
    -0.09804261906945501,
    -0.05472402597326891,
    0.06029710016589464,
    0.012247938893654883,
    -0.051467799166902604,
    0.07238486351780436,
    -0.009868436112103389,
    0.06894644207024897,
    0.0631465571978624,
    0.015384838462985186,
    -0.047672490480565446,
    0.12295444705623562,
    0.07387583378120316,
    0.07215777501902679,
    -0.03091838692816926,
    0.0,
    0.12504984294033342,
    0.12988456701284298,
    0.0,
    0.0,
    0.0,
    0.0,
    0.0,
    -0.014863627067908414,
    -0.006528313492935155,
    -0.014192170770874552,
    0.0,
    -0.0175509653901329,
    -0.019717139125671825,
    -0.01259500390621377,
    -0.05086182020373059,
    0.0,
    -0.03790310243783789,
    0.02895978468363718,
    -0.007024834976369781,
    0.0,
    -0.05832484043354458,
    0.0,
    -0.1803441572154322,
    0.0,
    0.0,
    0.0,
    0.021283246206328762,
    0.0,
    0.0,
    0.0,
    0.0,
    0.022173061839938536,
    -0.07228222934405122,
    0.15759714014633708,
    0.0,
    0.0,
    0.0,
    -0.016485978804595413,
    0.0,
    0.0,
    0.0,
    -0.31191240834129685,
    0.017984160644202392,
    0.0,
    0.0,
    0.01466640921619948,
    -0.09662377891957571,
    -0.006693979341563193,
    -0.008580628999565425,
    0.1403390888742595,
    0.0,
    0.0,
    -0.04516572006110673,
    0.0,
    -0.015101458610703134,
    0.19352258124226707,
    -0.014121061878015276,
    0.0,
    0.030099361651225693,
    0.056075493639096016,
    0.04908197366084568,
    -0.05982777246577465,
    0.32249822992111793,
    0.0,
    0.0,
    0.11487664742191318,
    0.0,
    0.03386542617028624,
    -0.038941010105093835,
    0.004256576869302682,
    -0.061718322692924876,
    -0.10118940630118134,
    -0.15672153966509172,
    0.20791917355529826,
    0.11907066164819086,
    0.0,
    -0.005625962233009438,
    0.0,
    0.0,
    0.0,
    0.025357679595037444,
    0.23044280265386063,
    -0.026415426497050795,
    0.0,
    0.0,
    0.03326445273914278,
    -0.039570660166468485,
    -0.10274399930153463,
    0.0,
    0.0,
    0.0,
    0.0,
    0.002375699189184531,
    0.0,
    0.16136675992762353,
    -0.025615999850055384,
    0.35215493892445354,
    -0.03793819225159372,
    -0.012693806518572213,
    0.046012599053180156,
    -0.11187457876686772,
    -0.03913449699317419,
    0.0005615553551164558,
    0.016264044734378307,
    -0.10569203660676439,
    -0.004245935820993321,
    -0.0389915390813221,
    0.10495397505380387,
    0.0,
    0.0,
    0.035435152105304825,
    0.10989133032471159,
    0.0,
    0.29608832289183384,
    0.07713132763780146,
    0.15423462824976725,
    0.021261864247226526,
    0.0,
    0.0,
    0.33647805955229404,
    -0.04586155394148372,
    0.05460516322860783,
    -0.010226753228549351,
    0.0925992955607087,
    0.0,
    0.08276366924899244,
    0.0,
    -0.09516648267597742,
    0.0,
    0.030627199636467307,
    0.008003889623965109,
    0.25800703846839423,
    0.0,
    -0.15223732461137587,
    0.0,
    0.0,
    -0.042179231259353495,
    -0.02042449669216974,
    0.0,
    0.0,
    0.03610704409762108,
    -0.015064637018859251,
    0.0,
    0.04542894030516693,
    0.22981545969178097,
    0.0,
    0.009167490672599608,
    0.08833598974312319,
    -0.06838317624545007,
    -0.1590918258263508,
    -0.039948693837450956,
    -0.050002970753705224,
    0.0,
    0.0,
    0.0,
    0.0,
    -0.08004791931006601,
    0.0,
    0.12942198554696072,
    0.008614636775192743,
    0.15199938497976986,
    0.17042536436705383,
    -0.015884548103472913,
    0.0,
    0.07630960817977445,
    0.04445418510245672,
    -0.001076058428691717,
    0.0,
    -0.002254139813147962,
    0.0,
    -0.029728411290354056,
    0.03411436899405828,
    0.020685968775259866,
    0.108958633987375,
    -0.018905070934935358,
    -0.0683831762454586,
    0.0,
    0.0302173030388912,
    0.09761127630570551,
    -0.02488572048191035,
    0.0,
    0.0,
    0.05698231051269092,
    0.0,
    0.0,
    0.0,
    0.0,
    0.0,
    -0.037898029062571476,
    -0.08133521089008341,
    0.0,
    0.0,
    0.09394398625601838,
    0.0,
    0.0,
    -0.07392111393700648,
    0.01990371010720247,
    0.0,
    -0.06632992527216745,
    0.005662451188605889,
    0.0,
    -0.061969403261737215,
    0.0,
    0.0,
    0.0,
    0.028535590067462206,
    0.01210335356448619,
    0.0,
    0.011152675376983591,
    -0.31867799780539224,
    -0.041575077750962544,
    0.0,
    0.019842319369662454,
    0.0,
    -0.04507757605824999,
    -0.039109293857336094,
    0.07643119893963089,
    0.0,
    0.053584323207828764,
    -0.1801483575929312,
    -0.3814425478254069,
    0.0,
    0.004558211392230404,
    -0.017038862418998428,
    0.0,
    -0.04438632326787432,
    0.0,
    -0.06045610198789254,
    0.0,
    0.0,
    0.041117374645748606,
    -0.12774428659522385,
    0.037542993564993306,
    0.0,
    0.09835611293964944,
    0.0,
    0.05412339546872267,
    -0.012154089462633227,
    0.11510793453413463,
    -0.05851473640714392,
    0.0,
    -0.03152096108601303,
    -0.013604534587214417,
    0.0,
    -0.11373617811696918,
    -0.11095409978962294,
    0.30382682269677713,
    0.0,
    0.032179431943465966,
    0.0,
    -0.2384100151864904,
    0.0,
    -0.022438883226231346,
    -0.18352372530498381,
    -0.0057039722183952115,
    0.0005195172148703431,
    0.0,
    0.0,
    0.0,
    -0.035697961003202786,
    0.0,
    -0.004627024616299037,
    -0.1341281532551913,
    0.0,
    0.009634746230193336,
    0.02889685796176145,
    0.0,
    0.008336351026408988,
    0.0,
    0.0,
    -0.1230337764110554,
    0.0,
    0.03386542617025799,
    0.0,
    0.0,
    0.0514677991669135,
    0.0,
    -0.028371163732935925,
    0.9514511993282639,
    0.0,
    0.14858125107256026,
    0.0,
    -0.1977585380531408,
    0.0,
    -0.04342923833160002,
    -0.2353174451250754,
    0.025380497190249995,
    0.13199329820189848,
    0.0,
    0.07138457426997821,
    0.05056595541930927,
    0.0,
    0.0,
    0.015640773749773688,
    0.0,
    0.031753657023722896,
    0.0,
    -0.10276921254001489,
    -0.013804290599882339,
    0.01604666335718539,
    0.357782875288614,
    0.0378318435630833,
    -0.015352019708919687,
    0.005444161034990758,
    -0.038677719484814396,
    0.0,
    -0.01136682831905926,
    -0.03326445273914869,
    0.0058784395264953005,
    0.0,
    0.0,
    0.04098788088185793,
    0.0,
    -0.028263695499158394,
    -0.025493704880753688,
    0.11806778674817897,
    0.0,
    0.0,
    0.02209744289864742,
    -0.03734195147157187,
    -0.28392820192275114,
    0.0,
    -0.09741848283123211,
    0.13624029814132183,
    -0.09633124310757829,
    0.0867332663564508,
    -0.03371905580760934,
    0.09982175795457811,
    -0.26681537675962097,
    0.05845649318125339,
    0.0,
    -0.045208172976776,
    0.0,
    0.0,
    0.05597184702134347,
    0.0,
    0.0,
    0.10833915565851945,
    -0.1133203845894878,
    -0.12213150026648154,
    -0.036218147592557336,
    0.0,
    -0.030814506388123275,
    0.0,
    -0.050997553539592164,
    -0.027960514488621923,
    -0.017663227549199693,
    0.0,
    0.0,
    -0.06831068654495721,
    0.07092764635455483,
    0.0,
    -0.012922650769825818,
    -0.07865785771020498,
    0.018539353694062784,
    0.0,
    -0.059863408791075975,
    0.0,
    -0.0028543311943187537,
    0.0,
    0.04299964130991578,
    0.0,
    -0.15877674928418914,
    0.0390745799918108,
    -0.09104041484818298,
    0.0,
    -0.007255734606601345,
    0.10804988157683405,
    -0.004964242023165674,
    -0.16868324192647116,
    -0.11207609626866907,
    0.0,
    0.0,
    0.0,
    0.0011132990516685476,
    -0.09931801574299956,
    -0.07757482394420342,
    0.0,
    -0.004964242023168395,
    0.0,
    -0.013316540170091935,
    0.09547244911265354,
    0.0,
    0.0,
    -0.0020690131548319495,
    0.0,
    0.0,
    0.0,
    -0.022733112233091508,
    -0.4275041821615285,
    -0.025613117569606273,
    0.1043578311656617,
    0.014536234156264628,
    0.12831207215560098,
    0.035576190604449345,
    0.07433061823225676,
    0.0,
    0.0763266181320133,
    0.18914010747633764,
    0.0,
    -0.00741321544142953,
    0.04591826766183931,
    -0.03820555027676481,
    -0.04344305287160045,
    0.0,
    0.1269483547194447,
    0.02134494782256435,
    0.0,
    0.0,
    -0.06384703935335354,
    -0.06708832143396704,
    0.0,
    -0.02483163195834616,
    -0.07715947115283002,
    0.0,
    0.0,
    0.0,
    0.008685602568358371,
    -0.07757053934290901,
    -0.014012221363490856,
    0.0,
    -0.05582913499064806,
    0.0,
    0.05055768817331783,
    -0.037298970988799654,
    -0.03430248404760924,
    0.049321269123792644,
    0.0,
    0.019856462685320642,
    0.06906874458413174,
    0.0,
    0.0,
    0.01305272567143316,
    0.0,
    0.09373632712657744,
    0.0,
    0.047125537626634115,
    0.0,
    -0.11312876157100003,
    -0.061117984695188574,
    0.026503162764561747,
    0.0,
    0.048180000347596154,
    0.10195429590266708,
    -0.07899197493428979,
    0.0,
    0.0,
    0.06524778142732397,
    -0.08009956910203488,
    -0.03364768138755021,
    -0.14271199274790722,
    0.0,
    0.014768057452819167,
    0.0,
    0.0,
    -0.032739254654672346,
    -0.28468903898842873,
    0.01916795208502828,
    0.0,
    0.020263734376420997,
    0.008336351026380645,
    0.0,
    0.08993861722710446,
    -0.015491666635767898,
    0.0,
    -0.01685054735813308,
    0.0,
    0.0,
    0.0,
    0.0,
    -0.13391203606025381,
    0.0,
    -0.0050854520869857475,
    0.0,
    0.0,
    0.2218561534272215,
    0.0,
    -0.028382897331674123,
    -0.0009324834997890374,
    -0.17888075503704354,
    -0.07742608725493419,
    -0.04932126912408126,
    0.039284930780393544,
    -0.028396935910024738,
    -0.14247692831420314,
    0.07374102164105115,
    0.12831680437672655,
    0.05468711431964458,
    0.07100296306084337,
    0.0,
    -0.011364393164432237,
    -0.1013410397995754,
    0.0,
    0.0,
    0.05179946060292464,
    0.07922793220619863,
    0.08881637794376533,
    0.021073494609482143,
    -0.048602015378796416,
    -0.07040810111801785,
    0.012255719384188984,
    0.0,
    -0.11325652626461352,
    -0.28619443434919906,
    0.0,
    0.002053429462314459,
    -0.06967520857833755,
    0.0,
    0.02526758157208076,
    -0.0667283148718205,
    -0.09962895339674528,
    0.0537800520204613,
    0.0711593015302962,
    0.0,
    -0.40516380471704055,
    -0.09043035217630523,
    0.011138867514229699,
    -0.03451790489003467,
    0.0,
    0.0,
    0.03268851532375715,
    0.0,
    -0.015144233492006236,
    -0.08744240240649488,
    0.0008084097663922954,
    0.004175223203277781,
    0.0,
    0.0003505610591994606,
    -0.04203252957794114,
    0.0,
    0.019484475717480347,
    -0.0509975535393215,
    0.06866355013328282,
    -0.03416551455284748,
    0.0,
    -0.043443052871572296,
    0.0,
    -0.010226753228551641,
    -0.03396825565422227,
    0.0,
    -0.07374095514603915,
    -0.06651078566501202,
    -0.0011977692305050888,
    -0.03464948300868787,
    0.0,
    -0.3691751851955967,
    -0.013919603414731179,
    0.0,
    -0.01523764458112248,
    -0.008872543690388974,
    0.0780306213871952,
    0.0,
    0.01685054735820872,
    0.0,
    0.03625354357575925,
    -0.02177800908488515,
    0.04712733843705608,
    0.0,
    0.0,
    -0.13353939171679677,
    -0.07121000477886526,
    0.0,
    0.13746695133281223,
    0.08424112798000657,
    0.19827964169513784,
    -0.07090397835849216,
    0.06721356619198343,
    0.024831631957921752,
    0.024056129243008557,
    0.022273166191605312,
    0.0,
    -0.0706877061033436,
    0.01891709534466606,
    0.1349296479430382,
    -0.05444625038432732,
    -0.026274198993576775,
    0.0,
    0.09298952483845678,
    -0.033318443356708104,
    0.007124563611927235,
    0.06046999461397957,
    -0.011846204549307971,
    0.03417382843944356,
    0.025705498771424102,
    -0.04596534866321831,
    -0.012103353564476317,
    0.0,
    0.0,
    0.002107432691736086,
    0.0,
    0.13511249769566253,
    0.0,
    0.0,
    0.003383017093693464,
    -0.044827910706143656,
    0.04785826347199014,
    0.0,
    0.21966596290271626,
    0.0283833448223922,
    -0.10838917218241943,
    0.0,
    0.004223781678174555,
    0.0,
    -0.07783949710389003,
    0.0,
    -0.07707000906149875,
    0.0,
    0.09777262999190577,
    0.40516380471704494,
    0.0,
    -0.03860460419838546,
    -0.19242967187907611,
    -0.057726460312998454,
    -0.3361106888091607,
    0.0,
    0.0,
    0.0,
    -0.011245397043241404,
    0.23257921923170877,
    0.011493113116112503,
    0.062370195067937735,
    0.0,
    0.0,
    0.0,
    -0.05087192519632707,
    -0.12967269736765288,
    -0.0674180073386569,
    0.0,
    -0.008894136991813474,
    0.1355840360257025,
    0.07785179098576321,
    0.0,
    0.002951556551222239,
    -0.05000700492164051,
    0.0956271060832455,
    0.0,
    0.0,
    0.036384657414965695,
    0.0,
    0.047514057405988026,
    -0.024817190716683767,
    0.0,
    0.029739022196862558,
    0.05003034307299374,
    -0.03519685591361866,
    -0.014573246051191107,
    0.0,
    0.04606118039164678,
    0.09595602779501552,
    0.0,
    -0.07743281517978798,
    0.20960315050614803,
    0.034695092854721866,
    0.006670613401096469,
    -0.028970480920310022,
    0.0,
    -0.0003245772977327039,
    -0.14763468168737068,
    -0.22411480231083358,
    0.0,
    0.04081931474833914,
    0.0,
    -0.06340065545756049,
    0.052578611286104936,
    -0.20946643371467563,
    -0.03377990206514754,
    0.0,
    0.013039131169717723,
    0.5454230914985875,
    -0.02869830527265911,
    0.02268238479010806,
    0.028038696636717812,
    -0.012922650769836215,
    0.0,
    0.0020594792217031475,
    0.0,
    0.007047587186158576,
    0.0,
    0.07677535381310902,
    0.03727890292147063,
    0.0,
    -0.04614353430113991,
    -0.03056934487748063,
    -0.1649971865846231,
    0.0,
    -0.00018536201958121136,
    0.004824785205388963,
    0.0,
    0.0,
    0.03547277998748725,
    0.0652142014782638,
    -0.04031516573411649,
    0.0,
    0.07267204597714652,
    0.027090673497007785,
    0.04044170834538897,
    0.0,
    0.2176652742991894,
    0.02052202205139532,
    0.0,
    0.0,
    -0.26095625939891115,
    0.0,
    -0.07922793220621327,
    -0.0775467949614722,
    -0.12751746884340617,
    -0.13128790025347425,
    0.0,
    -0.040487495664955034,
    0.0,
    -0.00912683345174866,
    -0.02856768773555101,
    0.0,
    -0.32798744437980093,
    0.0,
    0.08202874376236895,
    0.0,
    -0.14979683046259124,
    0.10558860591839814,
    -0.002068426817660994,
    0.11770419817200867,
    0.0,
    -0.06182453327421143,
    0.0417894021260694,
    0.0,
    0.0,
    0.2494038714477623,
    -0.020319664491439834,
    0.0,
    0.043634580491190074,
    0.0,
    0.0,
    0.042642846859919786,
    0.0,
    -0.019903710107874544,
    0.0,
    0.0,
    -0.06335654615407994,
    0.0,
    0.0,
    -0.00931850280506125,
    -0.00035056105919813716,
    0.0,
    0.0,
    -0.034824219281024874,
    0.013968212612508541,
    -0.03862988230304173,
    -0.02420672457193564,
    0.0,
    -0.02998627362770985,
    0.021078788245780713,
    -0.027944111804917668,
    -0.018652502355711434,
    0.0,
    0.0,
    0.0,
    -0.15405725586525437,
    0.013688663997202252,
    0.015566504404376957,
    0.057658141331105396,
    -0.0010748412861626793,
    -0.03138681724983322,
    0.0,
    -0.064820009360393,
    0.028804375538295113,
    0.0,
    0.0,
    0.048826499011268294,
    0.0,
    0.0844708970048341,
    0.0,
    -0.0675783407119413,
    0.0,
    0.07674884294539143,
    0.14279451079086353,
    0.0727188154987778,
    -0.0859540742072275,
    -0.012946413259447606,
    -0.0614233954618741,
    -0.006528313492976964,
    -0.23108099255855025,
    -0.05582913499081656,
    0.0,
    0.0,
    -0.2861114503022625,
    -0.017704599680279366,
    0.0,
    0.0,
    0.017423371163031196,
    -0.03829551761329873,
    -0.057579565700291324,
    0.0,
    0.0,
    0.0,
    0.0,
    0.33754165934280195,
    0.07205865460472,
    0.0,
    0.0,
    0.0,
    0.0,
    0.0,
    0.14006592214638056,
    0.08001109032374659,
    -0.030260123667628747,
    0.0,
    0.0,
    0.11555641146364018,
    0.0,
    0.03793819225160124,
    0.0,
    -0.008052249165598494,
    -0.25258329849917477,
    -0.037062449615534766,
    0.2223571692681019,
    -0.009943276890218386,
    0.0,
    -0.07182615017582598,
    -0.06672831487175658,
    0.0,
    0.0,
    -0.0020684268176602706,
    -0.28700935097353425,
    0.0379381922516044,
    0.01632226887118724,
    0.0,
    -0.020568682613083245,
    0.0,
    -0.13594191557027324,
    0.0,
    -0.0071990172961044225,
    0.03857954375530135,
    0.019570365227016374,
    0.0,
    -0.01759831897728061,
    0.10711646272317614,
    0.009441394264281748,
    0.0,
    -0.004490164239121581,
    0.020465042960148793,
    0.05126247112715259,
    0.0013044983862224606,
    0.0,
    -0.016485978803945766,
    0.015087614502311131,
    0.0,
    0.0,
    -0.02483163195830208,
    0.0,
    -0.036874007130310714,
    0.0,
    0.13561103982689304,
    -0.005726341664647932,
    0.0,
    -0.0760930558453501,
    -0.028869832806918305,
    0.10160147579698517,
    0.06477409867633485,
    -0.07548321942527211,
    -0.06430145331941908,
    -0.29794745897573677,
    0.06869756815534238,
    0.0,
    0.0,
    -0.026616466723287498,
    0.0,
    -0.1948243244695529,
    0.12590091498495054,
    0.15345846121580278,
    0.0,
    -0.25881165247837923,
    0.0,
    0.036228024442187506,
    0.039440950094290717,
    0.0,
    -0.14413556036309103,
    0.0033349453034751094,
    0.0,
    0.10195238515757121,
    0.11877893185612455,
    -0.03860853190260738,
    0.0,
    -0.14481132160288057,
    0.06091352846891504,
    -0.0028309460082017865,
    -0.17632989691628237,
    -0.02895576832480893,
    0.0,
    0.0,
    0.024281966162334464,
    -0.12427910182475112,
    0.07836084665891958,
    -0.023029419501474104,
    0.08315863112311067,
    -0.03081450638810537,
    0.011285055408432443,
    0.37612127952450974,
    0.0,
    0.0,
    -0.08291389362060858,
    0.07173946979331906,
    0.004100831344906808,
    0.019396775114046878,
    0.25200987966057214,
    0.0008848130273940991,
    -0.09444278796291786,
    0.0,
    -0.2496728190266428,
    -0.0209061098433753,
    0.0341655145528382,
    0.0,
    0.04981031027027449,
    0.23261313664488636,
    -0.022199865484310754,
    -0.015821417020119893,
    0.06151933373756157,
    0.05843530421278405,
    0.0,
    0.07254937885392564,
    0.05156248924912701,
    0.04143946963418134,
    0.0,
    -0.016888012395852546,
    0.0,
    0.0060815845578682665,
    -0.008778021892619716,
    -0.30593606122209815,
    0.3012694590297906,
    0.0,
    -0.026931501326113935,
    0.2564002779479635,
    0.1571432913082901,
    0.23709559974319375,
    0.03884371863111669,
    -0.008099089070619212,
    0.0,
    -0.2005492888092293,
    0.050029892997898534,
    0.0,
    -0.022462825507015935,
    -0.05442167200817966,
    0.0,
    -0.012326106696409385,
    0.05952178502807555,
    0.0,
    0.0,
    0.14443901579967372,
    -0.028957861303529824,
    0.0,
    0.0,
    -0.0012979886051954928,
    0.17742589464711384,
    0.008052829266195959,
    -0.05224075333625246,
    0.0,
    0.0,
    -0.09168585669393396,
    0.0,
    -0.017077515580771887,
    0.023215492481038463,
    -0.28891838569931216,
    0.0,
    0.014151755773638822,
    -0.032739254654670306,
    0.0,
    0.0,
    0.043842291459438056,
    -0.08864008733288124,
    0.0,
    0.0,
    0.0,
    0.0,
    0.0,
    -0.02024103042374967,
    0.10622082704465599,
    -0.025305965774716846,
    0.0,
    -0.02499735330009403,
    0.0,
    0.0017627746623816547,
    0.050095819787651576,
    0.01563453934185576,
    0.031309283865209425,
    0.028744255211555925,
    0.0,
    0.0,
    0.0,
    0.0,
    0.02219406071195123,
    -0.007577351481933506,
    0.027555881273232264,
    -0.6324199451780238,
    -0.03184654386681083,
    -0.3075225943885395,
    0.028594317109842105,
    0.0,
    -0.017380760272080353,
    0.0,
    -0.029808881707092796,
    0.0,
    -0.07661861799958673,
    0.0,
    0.050095819787646455,
    -0.0072557346066047515,
    -0.01292265076983727,
    0.057160212311978,
    -0.015137675093826013,
    0.10694092812808775,
    0.07771995874771641,
    0.0,
    -0.03117640016302988,
    0.0,
    0.0,
    0.05037500999208319,
    0.0,
    0.0408758982548717,
    0.0,
    0.0045154319977434325,
    0.02755588127322832,
    -0.09417368767076832,
    -0.07833908792225736,
    0.0,
    -0.057612117683571704,
    0.0,
    0.023205841282213528,
    -0.043506475134496916,
    0.17577747712287584,
    0.0,
    0.0,
    0.0,
    -0.06060924627208817,
    -0.08627187006652631,
    -0.041335202725152766,
    0.0,
    0.26001909964309017,
    0.0,
    0.0,
    0.0,
    -0.04267106567208528,
    0.0659497628899901,
    0.0,
    0.0,
    -0.17966163910436522,
    0.028395796731929747,
    0.0,
    -0.002055404282494212,
    0.09021562426127809,
    -0.05501588879964817,
    0.14255877719561583,
    0.0,
    -0.004791492990331252,
    0.0,
    0.06254422582598809,
    0.050997553539493805,
    0.0,
    -0.05426663256343861,
    0.011968410756707602,
    0.0,
    -0.042350440229242614,
    0.0,
    0.05529673591727682,
    0.0437427841927695,
    -0.033498586931359264,
    -0.11027704893641321,
    0.0,
    0.0,
    -0.016273577286582113,
    -0.010534102417763286,
    0.0,
    0.0,
    0.07029714144813531,
    -0.05770751357006027,
    0.06648062827797946,
    -0.07952263110275265,
    -0.10967195797689935,
    0.0,
    -0.062303054943359575,
    0.0,
    0.007969712413993755,
    0.15144038929695386,
    0.009441394264284475,
    -0.008243358708868836,
    0.016730782322015268,
    -0.09755998875602688,
    -0.10380295466659939,
    0.0,
    0.07140629462353502,
    0.0,
    0.005756152162431202,
    0.06542811095366499,
    0.11618292461302837,
    -0.13575254721948335,
    -0.02819675491202837,
    0.0,
    0.002323763999241074,
    0.0005810151721702929,
    -0.0776191963390404,
    -0.021460950341085715,
    -0.16991931171781957,
    -0.043052650139837736,
    0.007240374471534588,
    -0.14498203014825273,
    0.0,
    0.0,
    0.028352489072301274,
    -0.014524158321838839,
    0.042416763363641405,
    0.0578678251897399,
    -0.05171998314958585,
    -0.009141506561074632,
    0.0,
    0.0,
    0.0,
    0.08665865006565486,
    -0.030978216014726428,
    0.016362234327115147,
    0.0,
    0.0,
    0.0,
    0.043237279706191935,
    0.0,
    -0.07585874923989921,
    0.0,
    0.0,
    0.014573246051197582,
    0.0,
    0.022163098302698303,
    0.0,
    -0.0381774653740313,
    0.0,
    0.0,
    -0.17776092983631805,
    0.0,
    0.037875404995707025,
    -0.03268851532388843,
    0.06927694440100751,
    0.0,
    0.035582926619533335,
    0.0,
    -0.1459956510561846,
    -0.02475412412572989,
    -0.006402550148054713,
    -0.048524427858227644,
    0.0,
    0.0,
    0.0,
    -0.08272559877789372,
    0.0,
    0.0,
    0.08489751047372555,
    -0.012884575822521957,
    -0.04043254973197723,
    0.37027803067113624,
    -0.06556210399183426,
    0.0,
    -0.04161261566531053,
    -0.028892193544812192,
    -0.012480350318239576,
    0.0,
    0.12331162281668502,
    -0.04841806538529889,
    0.0,
    0.023644839253735967,
    0.0,
    0.0,
    -0.035561307152615615,
    0.0,
    0.14773826162797127,
    0.07715110943975052,
    -0.08635306452208452,
    -0.08413877957593889,
    0.0,
    0.0,
    0.0,
    0.03018587698379234,
    0.0,
    -0.06544447696734347,
    0.018532735893470393,
    0.0,
    0.0,
    0.029581404074679817,
    0.0,
    0.045538095571151196,
    -0.006174840460911276,
    0.02152184246449288,
    -0.2151851526398607,
    0.0,
    0.0,
    -0.02196354287339426,
    0.3237383245645523,
    -0.25730224080528175,
    -0.024931306774051875,
    0.02889219354481092,
    0.07340204390833349,
    -0.008083802370590669,
    -0.03178264046991769,
    0.34995671370555104,
    -0.054890881820643285,
    -0.0031884059477301978,
    0.09079621606704133,
    0.0,
    0.16782257230253675,
    0.0,
    0.0,
    0.007334861605337577,
    0.10045942703971956,
    -0.053334730683568005,
    0.0,
    0.07037706607872592,
    0.0,
    0.028985946104633186,
    -0.03704567015122906,
    -0.0006504148068891591,
    -0.1406104338363456,
    0.0,
    0.1927126311339489,
    0.22567718067423423,
    0.0,
    0.009217101172434943,
    -0.0063342617642380685,
    -0.038462438013199124,
    0.0,
    0.06451644390035867,
    -0.019767246188703663,
    -0.050333696374615704,
    0.02418898085291824,
    0.022637298865214414,
    0.0,
    0.0,
    -0.10676117506850241,
    0.0,
    0.0,
    0.0,
    0.04091014102647772,
    0.0,
    -0.048862435675291964,
    -0.23513413420107168,
    0.0,
    0.0,
    -0.01632226887119007,
    0.0,
    0.012959662883779548,
    0.0,
    -0.2891229899288201,
    0.002068426817665732,
    -0.03159665275389782,
    -0.12245403170777615,
    -0.028488776523697416,
    0.0,
    0.0574848726321035,
    0.05308018403078756,
    -0.015011199117014854,
    0.0408491717080578,
    -0.06879738637898847,
    -0.014259352881104888,
    -0.10836719186852473,
    -0.09583523497380685,
    -0.029432077106547248,
    0.0,
    -0.03829685742412836,
    0.0,
    -0.04389285362081002,
    -0.07722898954815559,
    0.0,
    -0.0772468299193579,
    0.016830971870808682,
    0.0023943790452389292,
    0.10000327878335732,
    0.138726066438936,
    0.10526578934963345,
    -0.18021414225136861,
    0.0,
    -0.1541249616030323,
    0.1494225264409202,
    0.0,
    0.08316924321721932,
    0.0,
    0.040084883120701936,
    -0.007396433028958704,
    0.0,
    0.026528539594521557,
    0.0,
    0.0,
    -0.03301066890928886,
    0.0,
    0.11916418927476664,
    0.02599580937757537,
    0.19189059436753256,
    -0.007973449965266955,
    -0.020902916631975202,
    0.0,
    0.0,
    0.0,
    0.00958007076658737,
    0.008612706507400272,
    0.06572528129822759,
    0.0,
    0.0,
    0.0,
    -0.03314434263989023,
    0.05088851751141414,
    0.059668237016765845,
    0.0,
    -0.04345674616962623,
    0.04268702990521675,
    0.0,
    0.0,
    0.0,
    0.0,
    0.03990132377932995,
    0.2458480744720435,
    -0.015884548103498177,
    -0.16931891158439777,
    -0.10979353752075864,
    0.16892256180703094,
    0.0,
    0.1317679024594876,
    -0.025755515430689845,
    0.0,
    -0.21628745155239354,
    0.1743718892922424,
    0.015208391023161407,
    -0.006815774599622646,
    0.0,
    0.0,
    0.0,
    0.0,
    -0.15048694688385258,
    -0.00784761368939775,
    -0.29974244732533534,
    0.0,
    -0.1154762415063571,
    0.009903725288387224,
    0.0,
    -0.028535879097223937,
    -0.00041331317412501324,
    0.0,
    -0.04659531236639286,
    0.0,
    -0.016525631230294224,
    -0.0077462174666361105,
    0.1585399753288226,
    0.031798674887593914,
    0.04195825393027957,
    0.0661398413105299,
    -0.0429970175598031,
    -0.1641189310326565,
    0.0,
    0.10244453467241199,
    0.0,
    0.0062511951962463804,
    0.43722817733156155,
    -0.00921931715650374,
    0.0,
    -0.06177043031077422,
    0.00791814543513531,
    -0.007840471461347977,
    0.009441394264277165,
    0.0,
    -0.010381154206061265,
    0.0,
    0.036670143932298255,
    0.0,
    -0.10849530261530968,
    0.0,
    0.0052905616980664484,
    0.0029376883524827387,
    0.0653663857032899,
    0.18510481537133538,
    0.0,
    0.02426653975753352,
    -0.15532587276847581,
    0.0,
    -0.09036466867250556,
    0.0,
    -0.10136808537514078,
    -0.256885665653661,
    0.1309695173231445,
    0.0,
    0.0,
    0.03823753970790917,
    0.0,
    -0.0038128755123935133,
    0.025965524132119923,
    0.012480350318438364,
    0.007847613689392094,
    0.08517305546863936,
    -0.037979982965350996,
    0.0,
    0.08881637794377238,
    -0.0032440143880129307,
    -0.06187841245010832,
    0.0,
    -0.008648611586406924,
    0.02485770258045634,
    0.0,
    0.0,
    -0.2563988429680888,
    0.06838317624545388,
    -0.09551912150868908,
    0.0,
    0.1259099975123928,
    0.08255990177567452,
    0.0,
    0.0,
    0.045462315089849194,
    0.09564490018632174,
    0.04788451505045739,
    0.0,
    0.011597621509796898,
    -0.049587758055040024,
    0.0665010654955176,
    0.0,
    0.0845118484807703,
    -0.051467799166911334,
    0.03386542617027107,
    0.0,
    -0.057086324834271854,
    0.0023649531023299717,
    0.0,
    0.0,
    0.0,
    0.0,
    0.04522963806517424,
    -0.05851473640618269,
    0.0,
    0.04719712251995782,
    -0.01270915816520406,
    0.08302565756799829,
    -0.08254181857181665,
    0.15294312942592467,
    0.0,
    0.0,
    0.0,
    0.09336108961081377,
    -0.10202374052537669,
    0.047879503798086046,
    0.0,
    0.35778287528863795,
    -0.0349950594097898,
    -0.07346040553306096,
    -0.07174961380741807,
    -0.07870077562298369,
    0.03038693396373359,
    0.0,
    -0.021312528282648593,
    -0.017053570990623768,
    0.0,
    0.0,
    0.0,
    0.0,
    0.06225471958991774,
    0.01113242856627003,
    0.25599257973046463,
    -0.022661577560242858,
    0.0,
    0.09970637103226808,
    0.15461340410203356,
    0.1400088782330492,
    0.01788484159535575,
    -0.14272125390132523,
    0.08341039192161809,
    0.0,
    0.0,
    0.06592630565999358,
    0.0,
    -0.04286214960456984,
    -0.042101281473945554,
    -0.07787212089496431,
    0.0,
    0.005909751876391046,
    -0.058553883913795214,
    0.012370205375911542,
    0.0,
    -0.11134828936026664,
    -0.04956190095190058,
    0.1337695156216935,
    0.0,
    -0.1329441348714618,
    0.266230759147485,
    0.00814101009222882,
    -0.008649066889867512,
    0.07441338048870776,
    0.00437043854431746,
    -0.015728519332030743,
    0.05380416067839578,
    -0.04727340854011136,
    -0.13608024854650655,
    0.0,
    0.0,
    0.0,
    0.0,
    0.0,
    0.012480350318437694,
    -0.032329169664693416,
    0.0,
    0.04034517651778006,
    0.0345787828852385,
    -0.04658558643860284,
    0.0,
    -0.028553955665822403,
    0.1360369163855528,
    0.016795950556466016,
    0.029333265149768962,
    0.02635701496801661,
    0.17687701778819853,
    0.0,
    0.5061618009281006,
    -0.008001602882000365,
    0.05022051021691903,
    0.002562698342263345,
    0.0,
    0.5005562639073148,
    0.11851660063661347,
    0.07476857784935845,
    0.22851945284534914,
    -0.0008547423290909492,
    -0.05433484104719918,
    0.0,
    0.02446006086002152,
    0.0,
    -0.012480350318438348,
    0.05850886033812711,
    0.0,
    0.0,
    0.004126405208106376,
    0.0,
    -0.12427910182474045,
    -0.11743320886982499,
    0.0,
    0.03790310243789362,
    0.2030161730512064,
    -0.03208064353315171,
    0.0,
    -0.04690865973684071,
    0.0,
    0.018310922172589957,
    0.0,
    -0.005786963761216199,
    0.02905981955251985,
    -0.023508698983787966,
    -0.019957689979556832,
    -0.0030627078245132216,
    -0.01798793079459889,
    0.08919717652368742,
    0.020846351026228116,
    -0.4473985990729237,
    0.0,
    0.11198453966507173,
    -0.01022675322854911,
    0.02074607850572871,
    0.0,
    0.06961786869434305,
    -0.4259910902238373,
    -0.2661982112321773,
    0.0,
    0.08003433290735197,
    -0.01375457376377984,
    0.0,
    0.0,
    0.04928492392886569,
    0.02446006086001687,
    0.040737743921464724,
    0.03366178887382455,
    0.0,
    -0.09421377778366032,
    0.06279920407199291,
    0.0,
    0.0,
    0.024082540042471515,
    -0.014187789509712332,
    0.0,
    0.028173716072729334,
    0.0,
    0.0,
    -0.07609082513972198,
    0.09593498184859238,
    -0.0857937547008866,
    0.12668576369894202,
    -0.010419058248678174,
    0.0,
    -0.042581758927426855,
    0.0,
    0.0,
    0.0,
    0.0,
    0.0,
    0.06404355344230532,
    0.12442813854024024,
    0.05001886322208307,
    0.0,
    0.0644918771522949,
    0.0,
    -0.09741848283122821,
    0.0,
    -0.005069623591970645,
    0.0,
    -0.08244877738104069,
    0.061789548367750684,
    -0.002130441946473965,
    0.0,
    0.0,
    -0.042642846859893786,
    0.07003414657071809,
    0.016580182345066263,
    -0.1737173593216154,
    0.010751902923955704,
    -0.03545343484181692,
    0.0,
    0.012767511393964108,
    0.0,
    0.0,
    -0.006402550148076991,
    -0.025997132930820076,
    0.04143946963418134,
    0.0,
    0.0,
    0.0,
    -0.016313258236311877,
    -0.018970939482450398,
    0.0454826344746075,
    0.0,
    0.0,
    -0.07433061823233549,
    0.0,
    0.0,
    0.005308305408279102,
    -0.018922603518740616,
    0.056290294626183186,
    0.0,
    -0.0864739252940694,
    -0.1099831455433347,
    0.0,
    0.0025428527461202124,
    -0.09139321926409195,
    0.0,
    0.0,
    0.035481355237997086,
    0.09758508381998658,
    0.0,
    0.033794538397265345,
    0.0,
    0.008099089070609303,
    0.0,
    0.06102249812920314,
    0.0353020997208635,
    0.13785773422711348,
    0.03984701946186618,
    -0.007024834976385513,
    0.0,
    0.0,
    0.0,
    -0.0671600274051698,
    -0.08937784742800108,
    0.0,
    -0.06965034759847187,
    0.0,
    0.22339880025579126,
    -0.024155644435703075,
    0.014233646162994225,
    0.0,
    0.03773660517646463,
    0.08073688853682891,
    0.0,
    0.0,
    -0.10399737087943478,
    0.009854899530849203,
    0.004678332363150588,
    -0.016531099729466255,
    0.28912298992881985,
    0.0,
    0.0,
    -0.10017701571570606,
    0.07965365596237044,
    0.0,
    0.0,
    -0.01474741344332215,
    0.03242979708886718,
    0.0,
    0.0,
    -0.34731483102440963,
    0.0,
    0.0,
    -0.007847613689392116,
    0.022999379401841418,
    0.04816094669808007,
    0.06648167644817986,
    0.0,
    0.08493612383810112,
    -0.01094678238051224,
    0.02545045486334793,
    0.0419543807103606,
    0.0,
    0.07424643643412833,
    -0.046143131303786146,
    0.1394949553447177,
    -0.15879801490910125,
    0.050997553539395224,
    0.17625644802222284,
    0.0,
    -0.002068426817659262,
    0.007847613689392657,
    -0.11169474405309016,
    0.0,
    0.021167575274335906,
    0.0,
    0.03176988688719549,
    0.0,
    0.0005719504564657213,
    0.0,
    -0.006081905720074991,
    -0.024266539757531028,
    0.0,
    0.10195429590265168,
    0.0,
    -0.014641335800849671,
    0.0,
    0.0,
    0.0,
    0.035773247953248585,
    -0.031253444898658604,
    0.0,
    0.06677040412506442,
    -0.09158651109589319,
    0.0,
    0.0015812518267667624,
    0.0,
    -0.06504341201121645,
    -0.046948741780023596,
    -0.07916220414358853,
    -0.03621998372417397,
    -0.038766368010932584,
    0.0,
    0.0,
    0.16288510454886143,
    -0.024827157619905886,
    -0.054169832833877184,
    -0.24258859506281275,
    0.0,
    0.0,
    -0.007847613689391747,
    0.0,
    0.2493548883288442,
    -0.00575615216242804,
    0.0,
    0.3102788771654902,
    0.012626800747096857,
    0.13101313485996507,
    0.0,
    0.07468020322150283,
    0.0,
    0.0,
    -0.05081372386773228,
    0.0,
    0.0,
    0.09139321926409112,
    -0.19712571538709991,
    0.0,
    -0.009700236003388377,
    0.06791887245167956,
    -0.033010668909284765,
    -0.08993861722710211,
    0.0,
    -0.0747916976052858,
    0.011672980733483843,
    0.024645465205712123,
    0.017289574976976575,
    -0.2139055709653034,
    0.0,
    -0.0008730917529971667,
    -0.012263611485336393,
    0.0,
    -0.015057795405502155,
    0.006168042951516472,
    -0.05099755353939655,
    0.04169131821530223,
    0.0,
    0.031782640469828476,
    0.0,
    0.0991952710343183,
    -0.02523516976210825,
    0.006927704745087185,
    0.0086496446051164,
    -0.03412971635663017,
    0.0,
    0.09633124310775533,
    -0.04561483446554916,
    0.16592461499463212,
    0.0,
    0.006754529536478572,
    -0.0022244885149647667,
    0.018433458396263532,
    0.0,
    0.0,
    -0.016485978803937262,
    0.008612706507408871,
    0.0658302325417453,
    0.012437540561478477,
    0.0034644116507675233,
    -0.05399830237466946,
    0.06077783650217477,
    -0.7200971298068976,
    0.0,
    0.07889600464515292,
    0.05877366405820888,
    -0.012500331775719173,
    -0.16315533653166206,
    0.06631478976148217,
    -0.10149874855529588,
    0.02760582115257761,
    0.34896026201746955,
    -0.03675425746670897,
    0.04046293553332211,
    0.0,
    0.0,
    0.0,
    0.0,
    -0.004582240578726722,
    -0.1357907412136706,
    -0.0018739203617958067,
    0.0,
    0.0,
    0.029776268276195283,
    -0.009586552155525617,
    -0.02705359636935418,
    -0.0023943790452399224,
    0.0,
    -0.028716594665982437,
    -0.0018574669043052935,
    -0.14923492913554925,
    0.07693365687083843,
    -0.07701014035679014,
    0.08122095123606692,
    -0.0559718470213216,
    0.019239665128316024,
    0.02775984724805849,
    0.09190934447686575,
    -0.1667675354209017,
    -0.4376364612010643,
    -0.050871925196195926,
    0.08302227754274509,
    0.0,
    -0.008939520374788491,
    0.027736640779201602,
    0.0,
    0.0,
    0.0,
    0.10566692530326821,
    -0.025523496352526723,
    0.0,
    0.01098264839323663,
    -0.003387883935660223,
    -0.024266539757530996,
    0.18895901212736468,
    -0.435977030683195,
    0.13743679213671575,
    0.17808928508150457,
    0.0,
    -0.004474083744503309,
    -0.08209198948928012,
    0.0,
    0.0,
    -0.037836973849556546,
    -0.0059268659724001265,
    0.0,
    -0.026484318873673807,
    -0.05962554912288717,
    0.0,
    -0.05621677980507425,
    0.17776092983628566,
    0.007570150439216778,
    0.09572140594684425,
    0.0,
    0.0,
    -0.013650390347200465,
    0.0,
    0.0,
    0.0,
    -0.05825498987744566,
    0.0,
    0.0,
    0.01054966991184834,
    0.0,
    0.0,
    0.024736716568333615,
    -0.03379262320849401,
    0.0,
    0.0,
    0.0,
    0.0,
    -0.04302431150627413,
    -0.01661857625613064,
    0.0,
    0.0,
    0.03414036856943504,
    0.0,
    0.3727288184955157,
    0.06844405952227312,
    0.0,
    -0.13126911234748417,
    0.0,
    0.04165500178221197,
    0.02275971812374654,
    -0.04302431150627506,
    -0.19313077615216834,
    0.0,
    0.03416551455283455,
    0.0,
    0.0,
    -0.07573578372986549,
    -0.016507185406996742,
    -0.00779284053357102,
    0.007847613689389356,
    0.01259500390524464,
    -0.03249736513393937,
    0.016317682174264322,
    -0.02771034361488052,
    0.0030588868225850433,
    -0.06869149554623857,
    0.009956050665136496,
    0.026520323455527055,
    0.0,
    0.0,
    0.0,
    0.0,
    -0.09960211473829551,
    0.0,
    -0.0641595293833787,
    0.0,
    0.040480464204554444,
    0.07408802529709979,
    0.0,
    0.012595020148540869,
    -0.02981405336525635,
    0.0,
    0.0,
    0.0,
    0.029112713223869983,
    0.0,
    0.0340019775279679,
    -0.006718275224620578,
    0.12973664183011818,
    -0.03646819921892783,
    0.0,
    0.19512732562719193,
    0.0,
    0.015435352699773254,
    0.03416551455283374,
    0.0,
    -0.14443901579968274,
    -0.0027114263893482124,
    0.1651398222442614,
    0.023227924970534778,
    0.0,
    0.21221585426802736,
    -0.013250795364830297,
    0.025509486103153164,
    0.0,
    0.10345967191042142,
    0.0,
    0.0,
    -0.017815017532613924,
    0.0,
    0.0,
    0.0,
    0.07538505483621587,
    -0.012915394555366777,
    0.023144489012516232,
    0.21406398799038706,
    0.11703745356969175,
    0.0,
    0.0032495334050882153,
    0.0,
    -0.1543883509370273,
    -0.0964470345216317,
    0.0,
    0.0,
    0.0,
    0.0,
    -0.022434000269893888,
    0.11991187632135425,
    0.12079004540901687,
    0.0,
    -0.004995044727509167,
    0.20773873954113292,
    0.032441793648849186,
    -0.01802335605219867,
    0.0,
    0.0,
    0.0,
    0.0,
    0.11618676934934208,
    0.23474782249869847,
    0.0,
    0.0,
    -0.004474083744509749,
    0.0,
    0.0,
    0.0,
    0.0,
    0.00538339050887582,
    0.15442929563454444,
    -0.07813388488556523,
    -0.009219317156504757,
    -0.035364767214026385,
    0.010226753228550095,
    -0.024831631958294464,
    0.0,
    -0.0316387653517321,
    0.11174820940044045,
    -0.033406705907170424,
    0.0,
    0.0,
    0.05021449517716526,
    0.0,
    0.09427621067707767,
    -0.10420868483223733,
    -0.017704599680310698,
    -0.0031421580157992256,
    0.1108327364835769,
    0.18826059781681664,
    -0.009275551517890184,
    0.018910473295420647,
    0.0,
    0.0,
    -0.09030248500458797,
    0.09808493330555891,
    -0.004293073555885485,
    0.04883136736077991,
    0.0,
    -0.13752621877581156,
    6.532956178514322e-05,
    0.11278613306144654,
    0.0,
    0.5822389370695442,
    0.0,
    0.0,
    0.057787809199534496,
    -0.05765860902593727,
    0.0,
    -0.06511437704319514,
    0.03675425746671105,
    -0.06979844311076308,
    -0.1085781082952369,
    -0.01920782048570344,
    0.0312800279858865,
    0.0,
    0.14711976709287156,
    -0.013885905353160179,
    0.0,
    -0.017080936839387564,
    0.02741016524431447,
    -0.09608960557236895,
    -0.10017701571571037,
    0.0,
    -0.06157574932790458,
    -0.0012956090567073865,
    -0.18565452445731392,
    -0.1477400942083907,
    0.03493351759406795,
    0.018598717848127735,
    -0.01867551442286706,
    0.0008730917529982707,
    0.042156528252064875,
    0.0,
    0.0,
    -0.014211215133744088,
    0.0,
    0.010637528055310928,
    -0.09670755704948837,
    0.08495038818886314,
    0.0,
    -0.00572634166472863,
    -0.32216758892124964,
    0.03218236769724006,
    0.0,
    0.07732007403649814,
    0.0,
    -0.09962895339713597,
    0.0,
    0.0,
    0.0,
    0.0,
    0.016972993797473718,
    -0.07093732467050115,
    0.0,
    0.10053305406264641,
    0.07522039745661459,
    -0.0732776616208972,
    -0.020097288815294635,
    -0.07227621850746191,
    0.11905908511782687,
    0.0008059806713905134,
    0.038677719484812946,
    0.0,
    -0.043770679302644375,
    0.0,
    0.0,
    0.06366691021800415,
    0.15752228735069215,
    -0.016544780864160488,
    0.0,
    0.042642846859893585,
    0.04365845848592249,
    0.0023772016225929887,
    -0.25382182753769345,
    0.0,
    0.0706411174375442,
    -0.009308155992695607,
    0.05997797824370661,
    -0.0550322185859423,
    0.0,
    -0.21936580990842425,
    -0.04762069715179689,
    -0.10411310469616819,
    -0.07778952771318387,
    0.05103814108786946,
    0.0,
    -0.023982144652093165,
    0.04484966134427768,
    0.0,
    -0.025676251703184307,
    -0.11618676934934108,
    -0.0048019064525283515,
    0.0,
    -0.20516208030242356,
    0.04621723031910064,
    0.0,
    0.04781077373185782,
    0.09383566299289323,
    -0.024267056950596007,
    0.00877368540843405,
    0.0,
    -0.06741132815425854,
    -0.037365525435921344,
    -0.05667196404331905,
    0.0045618614784602345,
    0.1207338087348599,
    0.03549943392808924,
    0.0,
    -0.044812002513008785,
    0.0,
    0.0,
    0.0,
    0.010202963608191052,
    0.0,
    0.006755517488480141,
    0.20488737048609637,
    -0.02216309830269104,
    0.04575985550992179,
    0.0,
    -0.030727338275400737,
    -0.11382644171039531,
    0.0,
    0.0,
    0.02355501762421964,
    0.03482112397058046,
    0.0,
    0.0,
    0.003870649750254144,
    0.043006932731615814,
    0.03338362141410817,
    0.01054966991185079,
    0.0,
    0.0,
    0.0,
    0.0,
    0.0,
    0.0,
    0.015144233492010117,
    0.013061275949497502,
    0.030187083072041453,
    0.0,
    0.0,
    0.0,
    0.05681023396359654,
    0.0,
    0.028013914986745055,
    0.0,
    -0.27498007523603074,
    0.035475998914544865,
    0.14963293630067803,
    0.03997504302183981,
    0.07510373926822321,
    0.0,
    -0.038964669192223286,
    -0.043949005468890065,
    0.0,
    0.06267094895618319,
    -0.05417249728789732,
    -0.00858062899955461,
    0.0,
    0.0,
    0.09777540678399524,
    0.0,
    0.046842789571859056,
    0.0,
    -0.13227658192994643,
    -0.007628220393099341,
    0.0,
    -0.02477516047841926,
    -0.013750653312460368,
    0.012879914211129533,
    -0.03377990206514343,
    0.0,
    -0.02906073838525154,
    0.0,
    0.0,
    0.0,
    -0.07378182539380645,
    0.12179268065819047,
    0.01414879234986132,
    0.0,
    0.0,
    -0.02346273445059821,
    0.0050854520869606686,
    0.0,
    0.0,
    0.05776664486897594,
    0.033143186601789956,
    -0.03734195147147185,
    0.005728113083033616,
    0.013347101299238684,
    -0.02201407973532679,
    0.0,
    0.0,
    0.05913080399964133,
    -0.13544299033803398,
    0.0484765008484697,
    0.0,
    -0.059015249793703005,
    -0.04548263447460694,
    -0.04854709019886075,
    0.12120778186189463,
    0.08062958513637246,
    0.013771607729262822,
    0.0,
    0.03345091624896422,
    0.0,
    0.0826701760076516,
    -0.03301066890928684,
    0.0,
    0.08129935392037446,
    0.11548231868021222,
    0.04375148804580512,
    -0.11187457876656676,
    -0.03224210495916862,
    0.0,
    0.0,
    0.0,
    0.00039826417728095604,
    0.0,
    0.0,
    0.0,
    0.0,
    0.0,
    -0.00011197002302017234,
    0.0,
    -0.11590758389309344,
    0.02594079732623031,
    0.013444451136684568,
    0.0,
    -0.003265840613682759,
    -0.03289371048623238,
    0.0,
    0.0,
    -0.050889698521748884,
    -0.0389209422223362,
    0.047767629440368886,
    -0.09139321926408987,
    -0.34161930392351986,
    0.046721879416145966,
    0.010226753228550616,
    -0.01523764458111095,
    -0.007847613689389438,
    -0.27444810237456324,
    -0.0884568062432301,
    0.0,
    0.0,
    -0.05973435696837268,
    0.0,
    0.0,
    0.008541870967769748,
    0.0,
    -0.04584629329543787,
    0.0,
    0.0,
    0.0,
    0.0,
    -0.03732801795367197,
    0.06404355344230275,
    -0.028137820132925467,
    0.0,
    0.004429412764153478,
    0.0,
    -0.07254937885379226,
    0.018246588610334413,
    -0.04555383544321757,
    -0.11187457876656544,
    0.044648253854221796,
    0.0,
    0.0,
    0.08330206428075562,
    0.0216830318643849,
    0.18220291864919913,
    0.0,
    -0.02286415835261781,
    0.0,
    0.0,
    0.0,
    -0.033133249273997564,
    0.22195108979100553,
    -0.036879237618289804,
    0.009045123323696454,
    0.033865426170270864,
    0.0005676905658310829,
    0.07081123933273677,
    0.04546231508985543,
    -0.19181863809910038,
    0.03256544096027567,
    -0.023436353169419225,
    0.004302679577165009,
    0.014790791641062414,
    0.03785938834543247,
    0.013917839213743082,
    -0.0024984628907396473,
    0.0,
    0.0,
    0.00018978713965510258,
    0.024991902880495555,
    0.0,
    0.039341920319861924,
    0.011888268050695094,
    0.0,
    -0.03245173431474036,
    0.0,
    0.0,
    -0.0534704975596419,
    0.03152786575075564,
    0.0,
    0.00483896911606292,
    0.11670226113451763,
    0.08545570958453257,
    0.0,
    0.0,
    0.0,
    0.022599948062517302,
    0.02606640394222504,
    0.001027261990915465,
    0.0,
    0.01539490600053502,
    0.0,
    0.10849530261530618,
    0.0,
    0.002438717844630541,
    0.004474083744503542,
    0.04400629906535888,
    0.0,
    0.0,
    0.0631050321428859,
    0.040365670496264036,
    -0.17256913512803618,
    -0.040737743921476034,
    -0.024831631958289684,
    0.006980446878122713,
    -0.07199211298071387,
    0.0,
    0.0,
    0.0,
    0.20807647905048432,
    0.0,
    0.0,
    -0.03934192031986186,
    0.0,
    0.034840149293822786,
    0.0,
    0.0,
    -0.05618992884510687,
    -0.08052900396421599,
    0.04118359907344858,
    0.02481706155047614,
    0.0017630655886001353,
    -0.018908986743515044,
    0.0,
    0.0,
    -0.03217943194346778,
    0.06314589341784006,
    0.045298707659174486,
    0.024206724571922477,
    0.053988011019330415,
    0.0,
    0.02766131407682748,
    -0.02241182592528005,
    -0.02400717452949256,
    -0.02983075284664395,
    0.05778780919953183,
    -0.03733232982862612,
    0.16251101881063895,
    0.0,
    0.04512383716205383,
    0.027843517312426385,
    0.0,
    0.17296502588771365,
    0.03943745324216499,
    -0.34867290407183255,
    -0.04097126850048657,
    0.0,
    0.0,
    -0.13043413053724282,
    -0.055542907183024896,
    0.03994869383746365,
    0.040262447792357325,
    -0.026409339684404377,
    0.009552376145862577,
    0.12067809314302695,
    0.08596550235456085,
    0.022960205195032196,
    0.018567725398405368,
    0.06588392847085606,
    0.039107163578262646,
    0.032946877652811096,
    -0.022059085615686005,
    0.0,
    0.05962554912285457,
    -0.07511349070882127,
    -0.07045779730067185,
    -0.049680607167659825,
    0.0,
    0.007792840533570441,
    -0.03386542617026806,
    0.05560929596953273,
    -0.05424738442262708,
    0.027042671613196317,
    0.0,
    0.0,
    0.0,
    0.08718599545745052,
    -0.031005778321110056,
    0.017704599680307756,
    -0.01016370876844738,
    -0.02091336101854514,
    0.04815016034157626,
    -0.10443134896795991,
    0.0,
    -0.06898666752902186,
    0.0,
    -0.07301994212279825,
    -0.04899006230677985,
    0.0,
    0.05019779585971406,
    0.1863869695680724,
    0.2688979503712857,
    0.011345159202617668,
    0.0036165996746322987,
    0.005146230559238517,
    0.0,
    0.0,
    0.0,
    -0.006507703874764279,
    0.0,
    0.0,
    0.15336489200345152,
    -0.03876262284577797,
    -0.04008342038698282,
    -0.1266857636990141,
    0.02027400434547125,
    0.2417987659602758,
    0.06254422582596042,
    -0.0051832798325285,
    0.07316874432858872,
    0.0,
    0.0,
    -0.13746695133283657,
    0.0,
    0.0,
    0.0,
    -0.0451845105111952,
    0.008478672289723717,
    0.0,
    0.010982648393239904,
    0.10043628099431183,
    0.05597184702132136,
    -0.007222122055069975,
    -0.02458406566363551,
    0.0,
    0.007626040585226373,
    -0.07715947115283796,
    -0.006634631165962477,
    0.015656509560654685,
    0.0061994244833741005,
    -0.0024382314962480924,
    0.06534245344251575,
    0.0029515565511164434,
    0.0,
    0.01533522357069368,
    0.08864008733277769,
    0.058121273995262436,
    0.17130822505408091,
    0.032714939444390495,
    -0.03332121893090069,
    -0.014400325702275453,
    0.0,
    -0.25776721119652124,
    -0.07761919633903923,
    0.07332133373526856,
    -0.08545626454053439,
    -0.016596025610529183,
    -0.040264412606936285,
    0.027579006719871665,
    0.014012221363477347,
    0.0,
    0.0,
    -0.01306490703740057,
    0.0,
    0.04025434752828958,
    -0.03220103684691927,
    0.0,
    -0.011104313365415414,
    0.03389249751132408,
    0.0,
    0.0,
    -0.0051967181100843925,
    0.0,
    -0.030395470220044282,
    0.0,
    0.03318217568304113,
    0.0,
    0.0,
    -0.049619371819057546,
    -0.008110149724348394,
    0.0,
    0.01202149301537499,
    -0.019767246188713863,
    0.0477217382326601,
    0.1551382316057593,
    -0.09802046447001687,
    -0.02505465501875824,
    0.0,
    -0.07868446550778378,
    0.014389806711857201,
    -0.06427332240609486,
    -0.09463058809799291,
    0.0,
    -0.01831092217259218,
    0.0,
    0.0,
    0.027909153953213747,
    0.05099755353939551,
    -0.0010113439052247945,
    0.02766810189153535,
    -0.13203122254817526,
    0.0,
    -0.058165835663393596,
    0.09429611460129389,
    -0.00859638177349418,
    -0.008970275563889293,
    0.0,
    0.014942311118160755,
    -0.2604608981566991,
    0.0,
    0.0014092767168427315,
    0.0,
    0.019396721580407297,
    0.03766205182301184,
    0.04885103776158281,
    -0.013917839213743113,
    0.00551630430661905,
    0.00045620061452824516,
    0.0,
    0.018819731826210866,
    -0.007255734606605836,
    0.0,
    0.04763713190535962,
    -0.09729984416175633,
    -0.0032832775757727457,
    -0.07297723218947676,
    0.10120469930097561,
    0.0,
    -0.015884548103500627,
    0.0,
    0.0,
    0.019241255104974125,
    0.18352372530462213,
    -0.0017899481436539886,
    0.027366733911091252,
    0.0,
    -0.03842869541845185,
    0.0,
    0.0,
    0.0,
    -0.18220291864919883,
    0.042214182112093365,
    0.0,
    0.03944297979301789,
    0.0,
    0.0,
    -0.0399953188715198,
    0.04417813608515913,
    0.0,
    0.010676108298790744,
    0.014087140615870214,
    0.0,
    0.08533306743367762,
    0.08824170961943838,
    0.04311336712463552,
    0.09808103025534093,
    0.032080643533151876,
    -0.025041445287130013,
    -0.006414822417612647,
    -0.012021493015375102,
    -0.00206842681766035,
    -0.03828393888270905,
    -0.02475412412572704,
    -0.010549669911849054,
    -0.010728055158146435,
    0.0,
    0.0,
    0.0,
    -0.08365332099513753,
    0.08020761472360706,
    0.014376543569396777,
    0.0,
    -0.012730294351743887,
    0.004490164239117591,
    0.07732395453851872,
    0.0,
    0.0,
    0.020756593274122076,
    0.011846204549305553,
    0.08116660744237711,
    0.09846767163741704,
    0.020518079577611426,
    0.05783839046850379,
    -0.04527333113478447,
    -0.0032610326844928444,
    0.009546126744265172,
    0.0,
    0.12022654380887308,
    0.0,
    0.0,
    0.0,
    0.0,
    0.0009216655308369157,
    0.0,
    -0.01377160772926145,
    0.0,
    -0.066442052788732,
    0.030907749221032642,
    0.0,
    0.050997553539395016,
    -0.02955058300607715,
    0.0,
    0.04586590142953779,
    0.0,
    0.0,
    0.10820538179380239,
    0.0,
    -0.08129382628683769,
    0.05205209706699771,
    0.13007087828089764,
    0.0,
    0.0,
    0.0,
    -0.0013044983861987265,
    0.0,
    -0.0033309706522940265,
    0.048961154857107086,
    0.0,
    -0.010152725936586098,
    0.036646369833918106,
    0.0,
    0.0,
    0.04548263447460095,
    0.07327766162089694,
    -0.10803238126324785,
    0.024990327551944514,
    0.0,
    0.0,
    -0.027198716460814197,
    0.009075851134717003,
    -0.01293703139292139,
    0.0,
    0.04264284685989453,
    -0.05732304443407885,
    0.0,
    0.02521688686802841,
    0.11337885836927258,
    -0.06457441325270408,
    0.0,
    0.2880835137551378,
    0.0,
    0.0,
    0.0,
    0.0,
    -0.06941433233425445,
    0.0,
    -0.04871729309121115,
    -0.040784543273231104,
    -0.07099006595740201,
    0.02065187332798205,
    -0.02513949564363368,
    0.0,
    0.03866212007697821,
    -0.031098225534255185,
    0.05151977265247919,
    0.0,
    0.0,
    0.029568091512731404,
    -0.007396433028958868,
    0.0,
    0.008811825255479746,
    0.0,
    0.0,
    -0.016269790348894655,
    -0.00800439149366257,
    0.010751902923954788,
    0.0,
    0.04162932509706197,
    -0.03797471758456686,
    0.0,
    0.0,
    0.0,
    0.0,
    0.02426919238505693,
    -0.09573513618749756,
    0.3877550912958883,
    0.0,
    0.0,
    -0.1594901822672267,
    -0.025683088214238287,
    0.0,
    -0.1063483162924817,
    0.006440819589588443,
    -0.015278659998443692,
    -0.19373977223582386,
    0.0,
    0.0,
    0.0,
    0.0,
    0.0,
    0.0,
    -0.051341889341954404,
    0.03657882000363897,
    0.0005749639724202827,
    0.0,
    -0.03247706279344641,
    -0.40804244573982895,
    -0.4657947267473743,
    0.0,
    -0.04686725867195371,
    0.0,
    -0.034408528395498794,
    0.1155851251924183,
    0.02627499898520551,
    0.03326445273914055,
    0.0,
    0.14066842822844794,
    0.007522541652357121,
    -0.11662102719759217,
    0.007411214051831951,
    0.0,
    0.12872804802876694,
    0.0,
    0.0,
    0.0,
    0.0,
    -0.09921975109739044,
    0.0541287119710062,
    0.19169387683339487,
    0.3287037738298441,
    0.02092362531226777,
    0.0,
    0.019680335956309084,
    0.0,
    -0.061770430310683765,
    -0.06636686481176003,
    0.0,
    0.02258964825210143,
    0.0,
    -0.028373811429960955,
    0.0391090340516108,
    -0.06994322439951252,
    0.0018053189414628068,
    -0.12805012755270154,
    0.0,
    0.0,
    0.0,
    0.0,
    -0.036740011523772875,
    0.0,
    0.0,
    0.010005278750305182,
    0.04143946963418134,
    -0.02477516047842225,
    -0.06410662420224693,
    0.0,
    0.0,
    0.0,
    0.0,
    0.0,
    -0.043842291459432484,
    0.10054775381354608,
    0.0,
    0.0,
    0.2537795899007499,
    0.0,
    0.0,
    -0.06312815527015193,
    0.0,
    -0.021093503781158898,
    0.023385191576806786,
    -0.05542151984343104,
    0.0,
    0.0,
    0.02905981955251971,
    0.013272797197609876,
    0.0,
    0.0,
    0.0,
    -0.03727890292147352,
    0.07361187623580263,
    0.024885720481918637,
    0.0,
    -0.019204720702108463,
    0.03398045301253001,
    -0.055653316905447066,
    0.0,
    0.0,
    0.0,
    -0.10998314554333617,
    0.007091288911846953,
    0.004245935820394766,
    -0.07743281517976552,
    0.12240347925224444,
    0.025789911236192134,
    -0.05444625038435149,
    0.0,
    0.05851473640618568,
    0.0,
    0.04257807689289638,
    0.0,
    0.0,
    0.0,
    0.0,
    -0.0036165996746318797,
    -0.06796333876446015,
    -0.060603809126796804,
    0.0,
    -0.06397831804865912,
    0.027090673497102136,
    -0.02943897780503529,
    -0.03629585869471576,
    0.0,
    -0.00018635193293202264,
    0.0,
    0.0075531737402720804,
    0.010382352937407927,
    -0.07004383542665896,
    0.0,
    0.0,
    -0.08294943706025625,
    -0.07042091504687847,
    -0.07117307633684256,
    0.035580416926110865,
    0.049337693418609156,
    0.0,
    0.0,
    0.03934192031986156,
    0.0,
    0.0,
    -0.42104510737143314,
    0.04088855656724973,
    0.0,
    0.0,
    0.0,
    -0.009503411358088491,
    -0.02684883336778351,
    -0.01568479230179685,
    0.08023495320115885,
    -0.02463013810042702,
    -0.11819409615146953,
    0.031846543866814084,
    0.0,
    -0.10444308138968122,
    -0.04818081304311056,
    0.05305617043882805,
    0.0,
    -0.05566905354885269,
    0.003294372113384837,
    0.0,
    0.019082106591235173,
    0.0,
    -0.008979646772474398,
    0.038105361732049335,
    -0.03793819225160634,
    0.09536017265858904,
    -0.02040392214466535,
    0.0,
    0.028038696636768775,
    0.027966414645669374,
    0.0,
    0.02418637979697826,
    -0.14277610996774562,
    0.0,
    0.00495655081789546,
    0.0,
    0.0,
    0.0,
    0.0,
    0.03786000712522925,
    -0.09597915937235726,
    -0.25200970681953927,
    -0.11267539515401666,
    0.010054750085483724,
    0.0,
    -0.07923295607612994,
    0.0,
    0.03828390777167468,
    0.08945877528745061,
    -0.030814506388111656,
    0.0,
    0.14763468168739508,
    -0.03790310243788674,
    -0.07281758556927855,
    -0.016850547358207905,
    0.0,
    0.0,
    0.07193312160254142,
    0.0,
    0.0,
    0.16961119724395915,
    0.08068734826060939,
    0.0,
    0.0,
    -0.03025331354607099,
    0.0,
    0.0,
    0.09808103025534022,
    0.0,
    -0.09798618359470461,
    0.03415876409722442,
    0.0,
    -0.13532994406577453,
    0.08401301854587731,
    0.029062982428273088,
    0.0,
    -0.1121088808890868,
    0.0,
    0.4713147654779027,
    -0.009996822247019017,
    0.0,
    -0.0029515565511150743,
    0.0,
    0.01230620043154267,
    -0.05970778818280802,
    0.012595020148537377,
    0.008682851018106008,
    0.10474999026947027,
    0.06672260952241713,
    0.038986614856625884,
    0.0,
    0.04143946963418134,
    0.16915247321807625,
    -0.002734828614963624,
    0.0018308181127190536,
    -0.0013243700422561925,
    -0.058293645748839565,
    0.0,
    -0.019767246188713422,
    0.0,
    0.018730577452349094,
    0.0,
    -0.07088343783933929,
    0.010548690955563534,
    0.0,
    0.0,
    0.0007227494348173604,
    0.0,
    0.18141104191831706,
    -0.2062633538362475,
    0.05083763808582582,
    -0.008001602881955148,
    0.04739943619307619,
    0.0,
    0.0,
    0.0,
    0.0,
    -0.03559571279023605,
    0.0,
    -0.06961511005235778,
    -0.013481476891071268,
    0.0,
    0.0,
    0.0,
    0.027258515794258656,
    -0.01663285225764581,
    0.0,
    -0.0007577015821648361,
    -0.042478667187025865,
    0.0724099175538002,
    -0.0724614512577331,
    0.21461301577526717,
    0.08804949856978804,
    -0.011068135891891945,
    -0.029929539966376602,
    -0.0043571548266715535,
    0.0,
    0.012894738085253007,
    0.0,
    0.0,
    0.0,
    0.010961631601966062,
    0.0,
    -0.023205841282214798,
    0.06838704358309355,
    -0.026986337298949604,
    -0.057838390468502254,
    -0.07433061823233537,
    -0.29723823702431457,
    0.0,
    0.07923295607612878,
    -0.2908567380943961,
    -0.0361070440976151,
    0.06858230027037,
    -0.044720990959650105,
    0.06568287641569254,
    0.0,
    0.0,
    0.013580518636439817,
    0.20317343952587236,
    -0.015462478051097331,
    0.0,
    0.0,
    0.007663624991332395,
    0.2493758525884293,
    0.0,
    0.0028038841280116442,
    0.04950824825145979,
    0.0,
    0.0,
    0.01527865999844405,
    0.002924399305578146,
    -0.06958773765801468,
    0.019662038553739165,
    0.04178777939809995,
